{"type":"LSTM","options":{"inputSize":30,"inputRange":30,"hiddenLayers":[20,20],"outputSize":30,"decayRate":0.999,"smoothEps":1e-8,"regc":0.000001,"clipval":5,"maxPredictionLength":100,"dataFormatter":{"indexTable":{"I":0," ":1,"f":2,"e":3,"l":4,"g":5,"r":6,"a":7,"t":8,"b":9,"o":10,"u":11,"h":12,"w":13,"d":14,"!":15,"p":16,"y":17,"T":18,"i":19,"s":20,"c":21,"m":22,"k":23,"v":24,"n":25,".":26,"stop-input":27,"start-output":28,"unrecognized":29},"characterTable":{"0":"I","1":" ","2":"f","3":"e","4":"l","5":"g","6":"r","7":"a","8":"t","9":"b","10":"o","11":"u","12":"h","13":"w","14":"d","15":"!","16":"p","17":"y","18":"T","19":"i","20":"s","21":"c","22":"m","23":"k","24":"v","25":"n","26":".","27":null,"28":null,"29":null},"values":[{"input":"I feel great about the world!","output":"happy"},{"input":"The world is a terrible place!","output":"sad"},{"input":"I am lucky to having you.","output":"graceful"}],"characters":["I"," ","f","e","l","g","r","a","t","b","o","u","h","w","d","!","p","y","T","i","s","c","m","k","v","n",".","stop-input","start-output","unrecognized"],"specialIndexes":[27,28,29]}},"trainOpts":{"iterations":5000,"errorThresh":0.0015,"logPeriod":20,"learningRate":0.01,"callbackPeriod":10,"timeout":"Infinity"},"input":{"rows":31,"columns":30,"weights":[-0.6004983186721802,0.9957395792007446,1.0993582010269165,0.21591772139072418,0.6168948411941528,1.1325691938400269,-1.2306729555130005,-0.05349264293909073,1.0541611909866333,0.42187532782554626,1.6255881786346436,-0.5590812563896179,1.9175258874893188,-1.4111056327819824,-0.3618037700653076,-1.1743863821029663,-0.02511407621204853,-0.5640042424201965,0.4667150676250458,0.7831239104270935,-0.4402709901332855,-1.182517409324646,0.1814836710691452,0.21274858713150024,-1.4697068929672241,-0.32840418815612793,0.12283225357532501,-0.23927685618400574,1.016523838043213,-0.6835104823112488,-0.1266828328371048,0.06790879368782043,-0.30250802636146545,2.515812635421753,1.2421554327011108,-0.6868388652801514,0.1766851544380188,-1.2602957487106323,0.8059426546096802,3.45332407951355,1.886027216911316,0.898656964302063,1.8586173057556152,0.9055425524711609,0.16652458906173706,1.8353191614151,2.848228693008423,0.9284870624542236,-0.8383460640907288,1.923763632774353,-2.960813283920288,-2.3814451694488525,-1.4680230617523193,-1.4298632144927979,0.9999209642410278,-1.4065085649490356,-1.389951229095459,0.34231314063072205,-0.47578197717666626,-1.5467301607131958,-0.5314792394638062,0.07278827577829361,-0.18691885471343994,-0.9481126666069031,-0.13833817839622498,0.23283877968788147,-0.538974404335022,-1.185238242149353,1.2129542827606201,-1.3497754335403442,-0.33787065744400024,0.59432452917099,-1.0640552043914795,-1.0840368270874023,-0.06579092890024185,0.6753978133201599,1.097900152206421,-1.2143679857254028,0.7510628700256348,-1.8079191446304321,1.5665168762207031,1.4825713634490967,-0.460916131734848,-0.7641211748123169,-1.871175765991211,0.4104696214199066,0.12693211436271667,1.0873934030532837,0.49207568168640137,1.529437780380249,-0.00008170210639946163,1.8154784440994263,0.6313881278038025,2.0762805938720703,-0.4935744106769562,1.444029688835144,0.8210421204566956,0.95488440990448,0.07557184249162674,5.422220230102539,-0.10228653252124786,-0.6073094010353088,0.4350194036960602,2.117516040802002,-0.874774158000946,-0.1369631141424179,3.5867371559143066,-1.4616824388504028,1.081211805343628,1.0140163898468018,-0.78334641456604,-1.3622006177902222,1.0165235996246338,1.0749677419662476,0.4479452669620514,-0.1526581346988678,2.2488925457000732,-0.02864900231361389,0.29706016182899475,-0.6609094738960266,-1.8029676675796509,0.6810401082038879,0.0649309754371643,-0.00240520853549242,-0.7507957220077515,0.35909146070480347,-0.5463626384735107,-0.7173507213592529,0.7029752731323242,2.275693893432617,-0.934552788734436,0.9875115156173706,-0.20704302191734314,-0.9167464375495911,-1.096673607826233,0.08015964925289154,-0.12063988298177719,-0.19945412874221802,0.6716663241386414,1.2023829221725464,-1.6453453302383423,0.5001309514045715,-0.6753673553466797,-0.10266048461198807,-0.7344231009483337,0.13979309797286987,-0.3223133981227875,1.8685964345932007,0.3336869776248932,0.9090979695320129,1.5076210498809814,-0.863653302192688,0.4572073221206665,1.4159375429153442,0.9573249220848083,-1.037168025970459,0.2577371895313263,0.39654460549354553,-0.31448256969451904,1.3080166578292847,-0.061836760491132736,-0.2165728062391281,0.8363312482833862,0.5756781697273254,1.2352266311645508,-0.8109678626060486,0.02445164881646633,0.5641894340515137,1.5701055526733398,0.9669654965400696,1.0206013917922974,-0.7028765082359314,-0.663076639175415,-1.4055604934692383,1.0782593488693237,-0.3400147557258606,-1.205335259437561,-0.33789172768592834,-0.7285986542701721,-0.26576632261276245,0.8044310212135315,0.7028949856758118,-1.7289546728134155,1.290475845336914,-0.6264287829399109,0.5091100335121155,0.548999011516571,-1.3758349418640137,1.2751171588897705,1.1516057252883911,2.728062868118286,0.48824936151504517,1.8926024436950684,-1.2433496713638306,-1.641324758529663,-1.0649006366729736,3.517693042755127,0.03399601951241493,0.3563203513622284,1.4610289335250854,0.5614628791809082,-0.2670249044895172,0.28107863664627075,-0.2596094310283661,-1.5109217166900635,-1.5591752529144287,-0.7426968812942505,-0.4484938085079193,-0.4482070207595825,-1.2084602117538452,-1.9906364679336548,1.050845980644226,1.6058521270751953,0.26363813877105713,-0.009513658471405506,1.5835317373275757,-0.48986732959747314,0.30154842138290405,-1.0008553266525269,0.018876593559980392,-1.0927847623825073,-0.4018585979938507,-0.4259861409664154,-0.4201319217681885,0.49310386180877686,0.36190998554229736,0.22403591871261597,0.16923773288726807,0.23428654670715332,-0.07736273854970932,-0.17099516093730927,-0.18791373074054718,0.4290602505207062,0.23777809739112854,-0.27339303493499756,0.19538068771362305,0.2966451048851013,0.5700172781944275,1.0322954654693604,-0.137470081448555,0.11620670557022095,-1.3269813060760498,0.486234575510025,1.633107304573059,-1.1643726825714111,-1.0113449096679688,0.791050136089325,-1.477703332901001,-0.8485809564590454,0.15700730681419373,-0.45088276267051697,0.43653205037117004,-0.4688277244567871,0.31576013565063477,0.6662386655807495,0.1456841230392456,-0.10620981454849243,0.5045198798179626,-1.5902156829833984,0.8047870993614197,-0.0813048705458641,0.6974925994873047,-0.6659529209136963,0.6417734622955322,0.254758358001709,0.652470052242279,-1.961537480354309,0.3868848383426666,0.012935701757669449,1.2521395683288574,-0.5128946900367737,2.1251955032348633,1.3601658344268799,-0.6617196202278137,-0.31774747371673584,2.2683115005493164,-0.055178772658109665,0.8591054081916809,0.8604128956794739,1.864257574081421,0.11035291105508804,-0.6968534588813782,0.774246335029602,0.7875679135322571,-0.22126728296279907,0.5419416427612305,1.509308099746704,-1.1536165475845337,-1.046570062637329,0.7357903718948364,-0.840057373046875,-0.9656496047973633,1.1536728143692017,1.4438762664794922,0.5089592933654785,1.1152620315551758,1.5593562126159668,-0.7725887298583984,1.7595733404159546,-0.8127140998840332,-0.9077329635620117,-2.73256778717041,-0.788966178894043,-0.9727620482444763,-3.854138135910034,-1.7791584730148315,0.7373519539833069,-0.8966404795646667,-0.3066518306732178,-0.10075061768293381,-1.423262357711792,1.2204606533050537,-0.31170526146888733,-0.01628885231912136,-0.2308664470911026,1.461763620376587,0.26919394731521606,0.44601860642433167,-0.28235745429992676,-1.5525648593902588,-1.0868966579437256,0.5780041217803955,0.26429280638694763,1.7899131774902344,0.21362078189849854,-0.6417381763458252,1.5201646089553833,1.9096704721450806,-2.58229398727417,1.121530532836914,1.4620839357376099,0.5718085169792175,0.5222935080528259,0.4775852859020233,2.0797173976898193,0.9407992362976074,0.528478741645813,0.5837434530258179,0.2479545623064041,1.8252793550491333,0.32507964968681335,-1.27293062210083,1.2174807786941528,0.1504867821931839,-0.691501796245575,-1.6134791374206543,1.0758111476898193,-0.6275960803031921,-0.17666588723659515,1.1913204193115234,-0.05127275362610817,-0.6639856100082397,1.242142677307129,0.8282042741775513,-0.3062435984611511,-0.6502990126609802,0.10842505842447281,-1.4234123229980469,0.7809810042381287,-1.2219232320785522,-1.2827640771865845,0.07220766693353653,-1.2936795949935913,1.462296962738037,-1.1768341064453125,-0.3499206006526947,-0.29342448711395264,-0.06913348287343979,0.2993226945400238,0.15036185085773468,1.1382559537887573,1.9756064414978027,0.695340633392334,-0.9076821804046631,-0.017951471731066704,-2.0304465293884277,-1.11863374710083,1.1098737716674805,-0.43422576785087585,-0.9510615468025208,0.34693560004234314,-0.09099169075489044,-3.245893955230713,-0.3843320906162262,-1.7993981838226318,-3.8746931552886963,0.291871577501297,2.233010768890381,-0.3040298819541931,0.33339932560920715,-2.2257883548736572,-0.26874876022338867,0.6956204175949097,2.364975929260254,0.45886334776878357,-0.027651622891426086,-0.9254082441329956,0.6940539479255676,0.8868890404701233,0.23942537605762482,0.0003382145951036364,0.9559286832809448,0.2451012283563614,-0.8577499985694885,-0.9448736906051636,1.9358329772949219,0.771283745765686,-0.3423348665237427,-2.555060625076294,0.8019204139709473,-0.9260662198066711,-0.1637084037065506,-0.30256855487823486,1.823596715927124,-0.21320053935050964,-1.2035400867462158,0.22995023429393768,1.2373878955841064,0.5448222160339355,0.6363112330436707,-0.1336548775434494,0.43678614497184753,0.8460332155227661,-1.4697943925857544,1.0509072542190552,0.19049642980098724,0.3899010717868805,1.1648839712142944,-0.048743367195129395,-0.6764412522315979,1.6423118114471436,-0.5064613819122314,2.885650157928467,0.394207626581192,-1.9520587921142578,-3.7666819095611572,-1.8572503328323364,-1.280184030532837,-0.33651968836784363,1.2980879545211792,-1.1221919059753418,-1.0226246118545532,-0.22068138420581818,1.091536045074463,0.06470301002264023,0.4701845645904541,-0.21410571038722992,0.5177855491638184,1.2802963256835938,0.25777921080589294,-0.8179479837417603,3.181013345718384,1.194404125213623,0.30649957060813904,0.6715202927589417,3.0767855644226074,0.7029845118522644,0.5017790198326111,0.4801168143749237,1.7854034900665283,0.8267529606819153,-0.8501287698745728,1.1049546003341675,-0.32054010033607483,-0.8462197184562683,-1.1273515224456787,1.4067827463150024,-2.4053688049316406,0.19799481332302094,0.3349016606807709,-2.19466495513916,-2.2727837562561035,1.432698130607605,0.5278348326683044,-0.17432062327861786,0.5644015073776245,4.958248138427734,-0.4145449101924896,1.9102435111999512,-1.0156549215316772,-1.6736153364181519,0.147203266620636,0.913673996925354,-3.7229273319244385,0.06895742565393448,-0.041085951030254364,-0.6369208097457886,1.7507765293121338,-0.01962416060268879,-1.6827408075332642,-1.6536033153533936,2.6410152912139893,-0.6795675158500671,1.1342971324920654,-0.7664098739624023,3.5734124183654785,0.6043100357055664,1.1107635498046875,-0.04801030829548836,-1.7962104082107544,-0.20261815190315247,1.4365352392196655,-3.0737531185150146,-0.5101085901260376,0.7931233644485474,1.053177833557129,0.20505879819393158,0.9972591400146484,-0.11004174500703812,2.310763120651245,1.798893928527832,-1.5878552198410034,-1.4348201751708984,-1.2114259004592896,-1.5715216398239136,-0.6228764653205872,0.9548187255859375,-1.1982403993606567,-0.6657992005348206,-1.5288604497909546,0.3600855767726898,0.6565914750099182,-0.38020193576812744,-0.5146471261978149,0.5752395987510681,-0.5647194385528564,-1.241243600845337,1.8569351434707642,0.01213797926902771,0.556041955947876,2.580148696899414,0.47773826122283936,0.78360915184021,1.5511810779571533,-0.7771847248077393,-0.2032758742570877,-1.1825203895568848,1.7683295011520386,0.05781801789999008,0.9161402583122253,0.24006658792495728,-1.6859722137451172,-0.9131094217300415,1.0055840015411377,1.390208125114441,-2.2381129264831543,-0.8792191743850708,-0.4526381492614746,1.6332958936691284,0.775516927242279,0.910354495048523,1.1848013401031494,0.1867438703775406,0.38933637738227844,0.05274712294340134,1.192001223564148,0.8593870401382446,0.6790148615837097,-0.2278880774974823,-0.16573092341423035,0.5336402058601379,1.1573704481124878,-1.4479180574417114,0.17384739220142365,-0.455147385597229,-1.8799623250961304,-0.12360766530036926,0.9251905679702759,-3.142390012741089,-0.9462863802909851,-0.4615207612514496,0.903755784034729,0.2732241749763489,0.18522362411022186,3.33018159866333,0.22348135709762573,0.6746296882629395,6.66062593460083,-0.041159436106681824,0.8994427919387817,1.5058748722076416,0.3094993233680725,2.1422369480133057,1.247584581375122,-1.991117238998413,0.8768914341926575,0.2917936146259308,-1.7049602270126343,-3.2359304428100586,-0.03586885333061218,-3.277043104171753,-2.356642723083496,1.5160304307937622,2.701355457305908,1.0018984079360962,0.008788203820586205,1.8481292724609375,-2.990562677383423,0.41627761721611023,-2.027895212173462,0.021620003506541252,0.7294104099273682,-1.729811668395996,2.1840357780456543,0.9875912070274353,-0.1238599345088005,-1.1916345357894897,-0.3106190860271454,3.865726947784424,2.5720317363739014,2.8972113132476807,1.240067958831787,0.9809768795967102,-0.09161224961280823,0.32592377066612244,-0.6646882891654968,1.9543806314468384,-0.10189240425825119,-0.8009318113327026,0.6713255047798157,0.8266193270683289,-0.3864526152610779,-1.74908447265625,0.38918066024780273,-1.4072736501693726,-2.0292019844055176,0.8865756392478943,0.4318341016769409,-1.3746435642242432,0.905057430267334,1.393194556236267,-2.7019383907318115,-1.9018794298171997,-0.19186219573020935,-1.061558723449707,-3.8549184799194336,1.4076465368270874,-1.6129621267318726,-1.3135188817977905,0.29650387167930603,-0.41660812497138977,1.353153109550476,0.49463021755218506,0.3329547941684723,2.4240312576293945,0.041977040469646454,-0.19402563571929932,2.37882661819458,3.8857669830322266,-1.7518260478973389,1.8402880430221558,3.380823850631714,-1.1366682052612305,-3.5381052494049072,0.6898157596588135,0.3789561986923218,-3.00805401802063,1.563371181488037,-2.079136610031128,0.7236434817314148,-1.9212855100631714,0.6758124828338623,-0.9650616645812988,-1.9504081010818481,-0.17512042820453644,0.4423083961009979,-0.13999657332897186,-0.08689292520284653,-0.8061546087265015,0.335031121969223,-1.6243634223937988,0.6606753468513489,-2.5887598991394043,2.7344071865081787,0.6489683389663696,2.155576229095459,-0.4582056999206543,0.33898505568504333,-2.0623090267181396,-0.07458560168743134,-0.8675227165222168,-0.5675628781318665,-0.4308815002441406,0.720617413520813,3.2785065174102783,1.2081009149551392,-0.14204992353916168,-0.3890509605407715,0.368385374546051,-0.31631115078926086,-0.33904990553855896,-2.116750955581665,0.2117791324853897,0.38444963097572327,3.066465377807617,-2.397181987762451,-1.7767927646636963,-1.0491029024124146,2.8295037746429443,-2.126375436782837,-1.0695134401321411,1.8271428346633911,-1.2095367908477783,-1.0559569597244263,0.9735980033874512,0.3075255751609802,-0.172207310795784,0.3707955777645111,1.6825982332229614,-1.4083532094955444,-0.24149349331855774,3.376420497894287,-2.019488573074341,-2.4589450359344482,0.5112686157226562,-2.1987664699554443,0.15824474394321442,2.4963369369506836,-0.39230209589004517,3.9582924842834473,2.6605224609375,0.1800362467765808,-0.7526909708976746,1.7562342882156372,-2.815521240234375,-0.07295401394367218,0.9095332622528076,-2.33366322517395,-0.5901919007301331,1.4341621398925781,-0.8398973941802979,-0.34877079725265503,-2.5265300273895264,3.013450860977173,2.033648729324341,1.088903546333313,3.885378360748291,-0.24016594886779785,3.698021650314331,0.05335250124335289,0.6718233823776245,1.2583739757537842,-1.1543292999267578,-3.206296443939209,2.0359442234039307,0.011789299547672272,-2.592782974243164,1.1373697519302368,-0.1953093707561493,0.25865235924720764,0.4243181645870209,-0.01500007975846529,2.0858569145202637,-1.0208216905593872,4.867229461669922,-0.13540033996105194,-6.775558948516846,-1.5280643701553345,3.9745867252349854,-1.7193297147750854,-0.02985856495797634,0.971572756767273,-0.7265052199363708,-4.569442272186279,1.7487598657608032,3.5401101112365723,0.6101356744766235,1.3473995923995972,1.1533701419830322,0.424437940120697,1.5298230648040771,0.21651789546012878,-1.924770474433899,-1.440529465675354,-4.890997409820557,-0.053550802171230316,-1.0402040481567383,1.1752617359161377,1.0901376008987427,2.093386173248291,-0.021506574004888535,-1.4867935180664062,-1.4297857284545898,3.927586317062378,0.6653212308883667,-0.26738283038139343,-0.6161382794380188,-0.07942748069763184,1.7542614936828613,1.5366710424423218,2.7392966747283936,1.9965828657150269,3.697949171066284,-1.6389613151550293,0.07432436943054199,-1.4408365488052368,0.17379193007946014,-1.7492038011550903,-0.23032188415527344,1.7388440370559692,0.22556661069393158,-1.1029497385025024,-2.683824062347412,0.039676159620285034,-1.5107107162475586,-2.270512819290161,0.805926501750946,0.029978368431329727,-1.8892911672592163,-0.08667075634002686,-1.1673749685287476,1.0750532150268555,0.524150550365448,-4.210209846496582,2.875919818878174,0.39745867252349854,-3.342958450317383,1.522667407989502,1.775909185409546,-0.3744073212146759,-2.750347137451172,-1.29635488986969,-3.174938440322876,-0.13491280376911163,-0.8470931053161621,2.999595880508423,3.4167869091033936,-0.10104446113109589,0.8131119608879089,-4.821178436279297,-1.8268226385116577,1.330105185508728,-2.4138309955596924,0.5844260454177856,-0.1299142837524414,1.6436907052993774,1.5519262552261353,0.9759300947189331,-0.7191550731658936,-0.12752243876457214,-0.6304195523262024,-1.9548207521438599,-1.4828935861587524,1.083040475845337,-0.2630268931388855,-2.2347142696380615,0.39449793100357056,-0.8094712495803833,1.6816532611846924,0.34241998195648193,-0.04725662246346474,1.9676467180252075,0.6393721103668213,0.10656242072582245,0.009956524707376957,0.4215342402458191,0.24752503633499146,1.1773827075958252,-1.3658536672592163,0.5423671007156372,0.09642115235328674,-0.16950677335262299,-3.0571420192718506,0.2631457448005676,0.08071774989366531,-1.4072386026382446,-0.008916904218494892,0.929995059967041,-2.826014518737793,-0.3124329149723053,-0.9607712626457214,0.028208578005433083,-1.2180380821228027,3.4046380519866943,0.45873400568962097,0.06218959391117096,0.47954872250556946,0.708679735660553,-0.2898862063884735,0.31562677025794983,2.0650506019592285,1.0252538919448853,0.9959239363670349,-0.252832293510437,-0.7145542502403259,-2.2191994190216064,-0.6743138432502747,-0.5594857335090637,-0.8992968797683716,0.9196597337722778,-0.3345615863800049,-0.22954238951206207,-0.8064179420471191,0.8746436834335327,-0.3814392387866974,-2.518872022628784,1.2961335182189941,0.4921552836894989,-0.3940408229827881,-0.30189740657806396,0.01084860134869814,0.025898372754454613,-0.05218582600355148,0.029622757807374,0.009955451823771,0.041320137679576874,0.07771582901477814,-0.025887293741106987,0.049041204154491425,-0.07826349884271622,-0.029202325269579887,0.043530166149139404,0.06711021810770035,-0.031965550035238266,0.0069583323784172535,0.03313042223453522,-0.00788473803550005,-0.05504903569817543,-0.056265246123075485,-0.04291548952460289,-0.016743602231144905,-0.021143296733498573,0.05473862960934639,-0.028126517310738564,-0.06367994099855423,-0.053815387189388275,0.030414270237088203,-0.03991744667291641,0.059178419411182404,0.023463964462280273]},"hiddenLayers":[{"inputMatrix":{"rows":20,"columns":30,"weights":[0.2678825855255127,1.5364114046096802,0.2736368179321289,0.23144493997097015,-0.3329174816608429,1.4325438737869263,-0.2720770835876465,0.02223273180425167,-0.28687146306037903,1.3085172176361084,-0.13719268143177032,-0.8974030017852783,-0.5659753084182739,-1.071431040763855,0.3973536491394043,-0.06649826467037201,2.167722463607788,-0.6070361733436584,2.2408652305603027,-0.5339149236679077,0.1598149985074997,-0.6673689484596252,0.4817497134208679,-0.5030004382133484,-1.3557016849517822,0.8928840756416321,0.6662613153457642,-0.13617506623268127,0.7226703763008118,-0.15639235079288483,-1.5377092361450195,0.7336330413818359,0.17386004328727722,0.6076891422271729,0.29888564348220825,1.1435017585754395,-2.1064586639404297,-0.49986472725868225,3.5777156352996826,1.4484460353851318,1.9608149528503418,1.2238959074020386,0.29451218247413635,-1.6900100708007812,-1.3801251649856567,-0.7477578520774841,0.9806228280067444,-0.6686432361602783,-1.6221500635147095,-0.6818224191665649,-0.560380220413208,0.6716374754905701,-1.7506885528564453,2.319148063659668,-3.093968391418457,-2.644380807876587,1.8355753421783447,1.3223353624343872,0.3023345172405243,-1.2817262411117554,3.372234344482422,-1.25145423412323,-2.291287422180176,-0.02821355313062668,-0.7572107911109924,-1.6311187744140625,1.801147699356079,-1.4555426836013794,0.05356454476714134,-0.4436621069908142,1.8861781358718872,0.137506902217865,-0.3100821375846863,0.44054606556892395,2.2090609073638916,0.5105909705162048,0.8222203254699707,1.8844270706176758,1.7169759273529053,-0.5510715246200562,3.628664016723633,-0.5624027848243713,0.018166912719607353,-2.3002991676330566,0.5317184925079346,-0.8060721755027771,-2.436565637588501,0.40805578231811523,-2.115152597427368,-0.3408382833003998,-1.1577426195144653,1.650162935256958,0.8183015584945679,-2.652541160583496,0.9614497423171997,1.3377190828323364,-0.15391510725021362,0.6450050473213196,0.4401199519634247,0.6362008452415466,-0.5215169787406921,0.15772216022014618,1.2205923795700073,1.0084953308105469,-1.5003184080123901,-1.0751928091049194,-0.5071556568145752,-1.9057832956314087,-0.06591647863388062,-0.8575330376625061,-1.5750540494918823,-0.2289678305387497,-0.5221400260925293,0.6517089605331421,0.7241387367248535,0.881263256072998,0.8585753440856934,-0.16327667236328125,1.3997235298156738,-0.154449000954628,1.3014044761657715,-2.6457431316375732,-0.6398074626922607,-0.4498486816883087,-2.2421984672546387,-1.5879918336868286,1.783239483833313,-0.8091353178024292,-0.6635685563087463,-1.959366798400879,0.019938845187425613,0.5139833092689514,-0.10526168346405029,1.436663031578064,1.2890921831130981,-0.5439193248748779,-2.0461266040802,1.6362192630767822,0.41588103771209717,-1.960772156715393,0.7736378908157349,-0.2452978789806366,-0.6931512951850891,-0.5730554461479187,0.5579490065574646,0.022548498585820198,-1.3715205192565918,0.6132188439369202,-1.3402099609375,-0.4663679003715515,-1.3183685541152954,1.5047907829284668,2.2873241901397705,-0.6036019921302795,1.4854052066802979,2.2933995723724365,-0.3569369912147522,1.9416147470474243,0.7449594736099243,-0.1987171471118927,-0.6739436984062195,-1.2277381420135498,-0.24947355687618256,-0.4206301271915436,0.11277136951684952,0.6861914992332458,-0.4592958688735962,-2.805324077606201,0.7440258860588074,-0.18399550020694733,-0.3291069567203522,-1.330198884010315,1.2714109420776367,0.3838290274143219,-0.941451907157898,1.2336609363555908,3.1236798763275146,-0.264306902885437,2.212984085083008,-0.44128772616386414,0.94731605052948,-1.3026951551437378,-0.7335751056671143,-1.2658672332763672,-0.5066182017326355,-1.3243478536605835,1.1045618057250977,-0.025734806433320045,-0.7087951302528381,-0.8647136092185974,-1.5348070859909058,-0.5887288451194763,-0.849861741065979,2.343528985977173,-0.01598198525607586,0.8973279595375061,0.15049929916858673,0.7663571238517761,0.04281168058514595,-1.3398268222808838,1.3148523569107056,0.48269081115722656,-0.05342171713709831,-0.43520388007164,2.397067070007324,1.4044060707092285,-0.4254782199859619,-0.8054869174957275,-1.9533542394638062,-0.7178985476493835,1.500907063484192,0.18948358297348022,0.06556162983179092,-0.4044235646724701,-0.36890876293182373,0.3605649173259735,0.046660929918289185,-0.2784350514411926,0.23894880712032318,0.8814499378204346,0.20445553958415985,-1.2171401977539062,0.29979708790779114,0.019912930205464363,0.18798530101776123,1.2715866565704346,0.8546599745750427,0.9659912586212158,2.828451633453369,1.0548352003097534,0.8939713835716248,-0.2691105306148529,1.5396387577056885,-0.5189331769943237,-0.15411508083343506,0.18446749448776245,-1.8488408327102661,-1.3185728788375854,0.2671907842159271,-0.9133618474006653,-0.2272300124168396,0.7197996973991394,-0.3517427444458008,-0.4925225079059601,-3.2749555110931396,0.9601563215255737,2.2264962196350098,-0.6020792722702026,-2.2178189754486084,0.5306938886642456,-0.869979977607727,0.8008509874343872,-1.2270992994308472,1.5278509855270386,-0.14884497225284576,-0.5787994861602783,-0.2428981214761734,-0.3538772761821747,-1.2608182430267334,1.0670150518417358,-0.23541970551013947,0.45758262276649475,0.6528760194778442,1.3668938875198364,0.48101845383644104,1.7400012016296387,0.666414201259613,1.5374627113342285,0.6453783512115479,1.2422256469726562,-0.7447097301483154,-1.245696783065796,-1.8992711305618286,0.9284759163856506,-0.9876348972320557,-1.0504071712493896,-0.26095688343048096,-1.6572436094284058,1.1904816627502441,-0.3928917646408081,-0.07744045555591583,3.120271682739258,0.34857556223869324,-0.11873391270637512,-0.25135278701782227,0.9310410618782043,-0.00530198821797967,0.8539727926254272,-1.8303157091140747,-0.1622597873210907,0.2521565556526184,1.2453269958496094,-1.8712109327316284,-0.2733239531517029,-0.8648096323013306,-0.9339548349380493,-0.9040272235870361,1.3760563135147095,-1.215649962425232,0.7262388467788696,2.375889778137207,1.0398144721984863,1.6533981561660767,-0.8912912607192993,-0.1808064579963684,1.2762465476989746,0.6837593913078308,0.7990129590034485,-0.7594245672225952,0.42141664028167725,-1.898697018623352,-3.0585198402404785,-2.2267322540283203,1.6784664392471313,1.6237274408340454,0.8380655646324158,1.761238694190979,-0.2707440257072449,1.4588422775268555,-0.49249619245529175,0.7820605635643005,0.2790795564651489,2.6113739013671875,0.023205336183309555,0.9726352095603943,1.9644757509231567,0.3422348201274872,-1.8526204824447632,0.6694785952568054,-0.7735763192176819,0.0007387803052552044,-0.9305185675621033,-1.3772474527359009,-0.8415635824203491,0.38351476192474365,-1.1228643655776978,1.7881592512130737,-0.7037437558174133,-0.42272263765335083,0.6045141816139221,-0.3950080871582031,0.9982491731643677,-1.6149781942367554,2.4029555320739746,0.3455928862094879,2.2811665534973145,0.12711311876773834,0.7846218347549438,0.2265048623085022,0.3697402775287628,-0.9571765065193176,1.0064120292663574,-0.62803053855896,-0.9010137319564819,3.560393810272217,0.8614319562911987,-2.9506332874298096,1.1177411079406738,-0.5050008893013,0.03167984262108803,-0.9586644172668457,-0.41324755549430847,0.26657915115356445,-0.1057034507393837,2.074371576309204,-1.2659852504730225,-0.6681866645812988,-0.2044902890920639,0.16909480094909668,1.6167011260986328,-0.9993776082992554,1.3579176664352417,-0.9410165548324585,0.9070320725440979,-0.2745974063873291,2.2405428886413574,1.1713035106658936,0.5835914015769958,-1.1586809158325195,0.7412527203559875,-1.3106321096420288,0.6221724152565002,-2.4341800212860107,0.11619865894317627,0.8630658388137817,0.5650012493133545,0.046777721494436264,1.0904966592788696,-1.0294113159179688,0.7773085236549377,0.25172922015190125,1.5513299703598022,0.29227206110954285,-0.8680827617645264,0.3983311355113983,2.1593589782714844,-0.570279598236084,0.6839835047721863,2.353846549987793,-1.0772243738174438,1.5625028610229492,-0.7205888628959656,1.5010994672775269,-1.6616665124893188,-0.4174504280090332,0.7444461584091187,2.779266119003296,-1.293763518333435,-0.9464197754859924,0.20263230800628662,-0.014504695311188698,-1.266909122467041,1.4979711771011353,1.275213360786438,-1.541617751121521,-0.4154132902622223,0.8160058856010437,-0.16173262894153595,1.7167243957519531,-1.0994846820831299,0.29597771167755127,-0.8582466244697571,0.24221576750278473,-0.3614445626735687,-0.06429082155227661,-1.1443413496017456,0.48574936389923096,-0.056643519550561905,-2.1411609649658203,0.2455063909292221,-1.4744852781295776,-0.48446881771087646,0.10648761689662933,2.2875049114227295,-0.29812559485435486,-0.4623318016529083,-1.6539239883422852,-0.2720659375190735,-0.8622990250587463,1.0538991689682007,-0.6534066796302795,0.018039613962173462,0.5092424154281616,0.4170885682106018,2.718954086303711,0.9719223976135254,-0.6073004603385925,0.39306366443634033,-0.1594257354736328,-0.161383256316185,-1.3746891021728516,0.6721230149269104,-1.1852978467941284,0.9525741338729858,-0.7492290139198303,0.47946617007255554,0.5230786800384521,0.4120562672615051,-1.0881379842758179,1.193048119544983,1.1382877826690674,1.0940853357315063,1.3989375829696655,0.721818208694458,-0.01263495720922947,-0.4721391499042511,-0.27157577872276306,0.6828557252883911,-1.8666659593582153,1.3699450492858887,-1.6968156099319458,-1.8293828964233398,-0.5096129775047302,0.9366325736045837,0.746972918510437,-0.5829473733901978,0.557221531867981,0.45239391922950745,-0.18329374492168427,-0.8470798134803772,1.3927944898605347,-0.7314022779464722,0.7708715796470642,-1.6565346717834473,-0.09271050989627838,-0.45270490646362305,-0.14931151270866394,0.513954222202301,-0.196174755692482,-0.8319774270057678,-1.820009708404541,-1.452802062034607,-1.5662469863891602,-0.152528315782547,1.4764189720153809,-0.17152109742164612,0.03349662944674492,-0.47087562084198,-0.242554172873497,-1.0691450834274292,0.3778674602508545,-0.5109466314315796,2.435936212539673,0.641928493976593,0.7511272430419922,1.5353622436523438,0.5424131155014038,-1.705199122428894,0.07655156403779984,-0.2906424105167389,1.3332234621047974,-0.9577146172523499,-1.1696627140045166,-0.9875840544700623,-1.4470630884170532,-1.4034147262573242,1.581221342086792,-0.13000190258026123,-1.151463270187378,0.3993525505065918,-0.9696656465530396,-0.06544468551874161,-0.5340853333473206,2.6311135292053223,0.14961253106594086,0.8198115229606628,0.5953027606010437,1.250239610671997,0.0881216824054718,0.4843229353427887,1.187444806098938,0.22133691608905792,0.778606653213501,0.834282398223877,2.004499912261963,0.8872648477554321,-0.8220767974853516,-0.6273230910301208,-1.8407831192016602,-0.27017995715141296,1.6361966133117676,-0.27579447627067566,-0.49224919080734253,1.302069902420044,0.5076146125793457,-0.09840121120214462,-0.645037055015564,-0.31821733713150024,2.1467854976654053,0.6799726486206055,1.8069108724594116,-1.284696102142334,0.7436304092407227,-0.5479230284690857,0.4501771330833435,-1.4135135412216187,1.094157099723816,0.5717204809188843,2.3750579357147217,-0.4371376633644104,0.7122215628623962,0.21403434872627258,0.2618821859359741,-1.8303536176681519,-0.9657980799674988,-4.083629608154297,0.44063472747802734,-0.9833779335021973,-1.0422738790512085,-0.680853545665741,0.8577303886413574,-0.4583086669445038,0.8928792476654053,-0.9116800427436829,0.7786778211593628,-0.9378868937492371,0.015679752454161644,0.30158722400665283,-1.028849482536316,0.013984442688524723,-1.6689016819000244,-1.4343929290771484,0.4052931070327759,2.0259759426116943,-0.38617125153541565,-1.0635699033737183,-1.3063700199127197,-1.572412371635437,-0.687351644039154,1.4822336435317993,0.03153875097632408,-0.7706863880157471,0.1279626339673996,0.00251153321005404,2.4622507095336914,3.260361433029175,-1.3658510446548462,-2.599057912826538,0.7694327235221863,-0.8828829526901245]},"inputHidden":{"rows":20,"columns":20,"weights":[0.774593710899353,1.9852887392044067,-1.4121173620224,-1.8269398212432861,-0.4263795018196106,-0.23256787657737732,0.5388365983963013,1.6298109292984009,-0.0939469262957573,-0.04781617969274521,0.8679715991020203,-0.8440951704978943,-2.3034353256225586,2.9980762004852295,-2.040846824645996,-0.028702838346362114,1.269948124885559,1.8728551864624023,1.5085117816925049,-0.2982039749622345,0.2968558371067047,-0.3784944713115692,-0.9942728281021118,-2.6858181953430176,0.23282136023044586,0.11462736129760742,2.0993525981903076,-0.008357767947018147,1.8555996417999268,0.41739127039909363,0.7381048202514648,0.4417874217033386,-0.6918293237686157,-0.5996459722518921,-0.24940955638885498,0.336762011051178,-0.09101880341768265,3.062697172164917,-1.3869760036468506,1.7481168508529663,-2.1100211143493652,-0.5181571245193481,-0.36754441261291504,0.9882664680480957,-1.142925500869751,0.27863743901252747,-1.7633033990859985,-1.9496803283691406,-0.5685769319534302,-1.0116205215454102,-0.7068291306495667,-1.2143843173980713,0.30716919898986816,1.06768798828125,1.481318473815918,0.5092682838439941,-1.7670891284942627,-2.387500047683716,-0.9041868448257446,-0.5708246231079102,-0.08781331032514572,1.2713476419448853,-0.7625848054885864,-0.2570303678512573,-1.2053031921386719,1.6315821409225464,1.2714608907699585,-0.22066630423069,0.06542687863111496,0.4050675928592682,0.5704299211502075,0.4124092757701874,2.5984530448913574,-0.11553698033094406,-1.0005903244018555,1.0004316568374634,0.48514804244041443,0.6827214360237122,-0.1945512443780899,-0.09706045687198639,0.9439807534217834,1.1294183731079102,-1.9260766506195068,1.411597728729248,-1.4656697511672974,-1.744983196258545,-0.536589503288269,0.69818514585495,0.18533962965011597,1.0237178802490234,-0.17937788367271423,1.880378246307373,-2.2366139888763428,1.5913403034210205,-1.0340059995651245,-0.25078272819519043,0.5323994755744934,-1.1531572341918945,0.8991095423698425,1.360201358795166,1.7431128025054932,-1.5598182678222656,2.185894727706909,-2.0601606369018555,1.525599479675293,-1.431777000427246,1.9810506105422974,0.5575032234191895,0.8860947489738464,-2.4826018810272217,-0.3209976553916931,-0.19198952615261078,-1.5667039155960083,0.4758472442626953,-0.07501905411481857,-2.0174198150634766,0.9017919898033142,1.244415283203125,2.077866792678833,0.512226402759552,0.7206956148147583,0.33760955929756165,-0.8114655017852783,0.8323718905448914,-1.2642327547073364,0.14255408942699432,-0.8785675764083862,-0.15141761302947998,-0.25586947798728943,0.15105651319026947,0.791567325592041,-0.003428078256547451,-0.6867656707763672,-0.3228584825992584,1.972639560699463,1.5008089542388916,0.3393028974533081,0.920446515083313,-0.021801140159368515,1.3220024108886719,1.7262773513793945,2.3542115688323975,1.4673311710357666,-1.1740347146987915,0.9157044291496277,1.651281476020813,1.3423993587493896,0.696533203125,-0.4042867422103882,-0.7387053370475769,1.710992455482483,-0.33650878071784973,-1.9136244058609009,1.8968571424484253,-0.4544993042945862,-0.22768712043762207,1.7827476263046265,1.358207106590271,2.4951603412628174,0.21416650712490082,-1.3681628704071045,0.06101464107632637,-1.008174180984497,0.6685939431190491,-1.735498309135437,0.1347319781780243,-0.393811970949173,0.6333287358283997,0.4697278141975403,0.7017565965652466,0.562711238861084,-1.5646041631698608,-1.4186376333236694,2.1270363330841064,0.6602694988250732,0.6716031432151794,0.3770638704299927,-0.11357472836971283,0.07294365763664246,1.2471067905426025,-0.6925789713859558,0.7039166688919067,1.6565736532211304,0.03937694430351257,2.2884082794189453,-0.9993127584457397,0.02411120943725109,-0.4586089253425598,0.6884456276893616,-1.5391888618469238,0.21294443309307098,0.639351487159729,-0.8586011528968811,-0.6299300789833069,1.478113055229187,-1.5521104335784912,-0.18424716591835022,-1.5429757833480835,0.9842655062675476,0.22169698774814606,0.18986934423446655,-2.8274612426757812,-1.1787183284759521,0.6075434684753418,-0.3729797601699829,0.43472954630851746,1.055486798286438,0.3691139221191406,1.7206950187683105,0.09865172952413559,-0.1186174526810646,0.9154809713363647,-3.2548322677612305,-3.400139570236206,-2.0126395225524902,0.07565368711948395,0.6040686368942261,3.6336357593536377,-0.6817218065261841,1.95686674118042,0.7469161748886108,-0.38013654947280884,-1.0843522548675537,-0.161297008395195,0.13159877061843872,2.533792018890381,-1.9766379594802856,0.5354766845703125,-1.9119733572006226,0.633529007434845,-0.8811871409416199,-1.9337430000305176,0.7742249369621277,0.28899943828582764,0.3894517123699188,1.1462441682815552,-0.7335784435272217,-1.9043532609939575,0.09014731645584106,-0.8533282279968262,-0.8098948001861572,2.587230920791626,-0.3754545748233795,-2.4066579341888428,0.8962876796722412,1.1408202648162842,-0.02541700191795826,1.3406100273132324,0.9420852065086365,0.2624059319496155,1.88614022731781,0.6409531235694885,-2.0230958461761475,2.110004425048828,-1.68256413936615,0.17978617548942566,2.4867897033691406,1.4620603322982788,-0.08241593092679977,0.8404732942581177,-0.6676753759384155,-0.1268245428800583,-0.17749547958374023,-1.1321511268615723,1.5798008441925049,1.506216287612915,1.5983494520187378,1.9524480104446411,3.103867769241333,-0.8051402568817139,1.1788411140441895,1.4945653676986694,-3.5667924880981445,0.5813481211662292,-1.533707857131958,-0.49580204486846924,0.8181484341621399,1.9766393899917603,1.4141353368759155,1.6079299449920654,-1.4986374378204346,-0.1359442174434662,-0.3191860020160675,-1.8555234670639038,-2.3517768383026123,5.08495569229126,-1.0697599649429321,3.207778215408325,-0.6950862407684326,0.913908064365387,0.7987789511680603,-1.8311960697174072,0.6366904973983765,0.28544461727142334,-2.296729326248169,0.17010143399238586,1.254256010055542,0.4541918933391571,-0.22895999252796173,-0.6098496317863464,1.137919306755066,-1.7295784950256348,0.5315706133842468,1.017054796218872,0.7520533204078674,-1.0277669429779053,-4.211427211761475,-0.3346865475177765,-1.770920991897583,-1.4272115230560303,-1.4540640115737915,-2.4212193489074707,1.7817695140838623,0.00324580492451787,1.9516501426696777,-1.1867953538894653,-0.6651907563209534,-4.058311462402344,0.25049063563346863,-1.4152332544326782,-1.1792834997177124,0.13823097944259644,1.8255133628845215,-1.7670694589614868,2.041501998901367,2.0140230655670166,0.5376309752464294,0.36270537972450256,-0.6146827936172485,-2.416133165359497,-0.47651565074920654,-1.9234676361083984,-5.107958793640137,0.7908164262771606,1.5762531757354736,-0.5863463282585144,-1.311700701713562,0.615078330039978,-0.5577700734138489,-2.2355544567108154,-0.9403920769691467,-0.4128149747848511,-0.3121149241924286,0.8432887196540833,-0.9197267889976501,1.4373064041137695,-1.3161048889160156,-0.20684851706027985,-0.8279935121536255,-0.3173946738243103,0.1122836023569107,-0.3475434482097626,0.7757614254951477,-1.687496304512024,1.6170265674591064,0.46125078201293945,0.9995363354682922,-0.5719754099845886,1.3476154804229736,0.5559133887290955,-1.4243391752243042,1.424208402633667,-2.059443712234497,-1.3949891328811646,-1.4200656414031982,-0.5307216644287109,2.6883206367492676,1.9849674701690674,2.1371335983276367,1.8077051639556885,2.4360644817352295,3.2734785079956055,-2.199191093444824,1.8766204118728638,0.7119048237800598,1.537744164466858,1.070219874382019,3.5654468536376953,1.5036721229553223,2.095492124557495,-1.5226995944976807,0.07837308943271637,-0.7801769375801086,0.2095271199941635,-1.4559087753295898,-0.8583014607429504,0.5825991630554199,0.849683403968811,0.07561510056257248,0.3583773672580719,-0.5071549415588379,-0.9440845251083374,-0.5826156139373779,0.07973591983318329,-0.08739582449197769,-0.5341672897338867,0.0804336816072464,-1.0485800504684448,0.16979658603668213,-0.0897846594452858]},"inputBias":{"rows":20,"columns":1,"weights":[-1.2178285121917725,0.6261162161827087,0.5236855745315552,-0.359880268573761,0.3190927803516388,0.3253815472126007,-0.3117230534553528,-0.44315844774246216,-0.4202340543270111,-0.056599438190460205,0.3136736750602722,-0.1355014592409134,-0.572953999042511,0.19227732717990875,0.45418956875801086,1.257207989692688,-0.1629289835691452,-0.2344255894422531,0.9096176028251648,-0.6231558918952942]},"forgetMatrix":{"rows":20,"columns":30,"weights":[0.4866666793823242,-0.43167370557785034,-0.9923462271690369,-0.17884385585784912,0.33914920687675476,-0.04438604786992073,-0.9982246160507202,-0.43800094723701477,0.47834232449531555,-1.8301752805709839,0.603729784488678,-0.1558457612991333,-1.2676900625228882,-1.3676642179489136,0.296414852142334,-1.105236291885376,-1.1883963346481323,-0.40706929564476013,-0.3711227476596832,-1.3915265798568726,0.9361543655395508,0.5097036361694336,-0.01508247759193182,0.5351638197898865,-1.2551906108856201,-1.2841557264328003,-0.09881313145160675,-0.26930931210517883,0.28867703676223755,-0.014556442387402058,-1.9771478176116943,-0.3113921880722046,-1.8552563190460205,1.2190052270889282,-0.8820885419845581,-0.5275722146034241,0.522968053817749,-0.19219474494457245,1.089332938194275,2.4322731494903564,1.4732180833816528,1.4870774745941162,1.8385944366455078,-0.7974716424942017,-2.2737040519714355,-0.3671416640281677,-0.5554998517036438,-0.59062260389328,-2.915250301361084,1.5413130521774292,-1.951649785041809,0.16557171940803528,-0.6370570659637451,1.756377935409546,-0.8741539120674133,-0.5777998566627502,0.5294098258018494,0.8624788522720337,-0.6980752348899841,0.21410612761974335,1.9717310667037964,-0.7647202014923096,-0.7328647971153259,-0.20015643537044525,1.2170846462249756,-1.1846203804016113,0.6806915402412415,-0.5756950378417969,-0.3195469081401825,1.099380612373352,2.126286029815674,-0.7335164546966553,0.22601178288459778,0.45779740810394287,-0.9247488379478455,-2.36806058883667,-0.8310409188270569,0.2610379457473755,-0.053218740969896317,1.0471041202545166,1.1227624416351318,0.5174430012702942,0.38689056038856506,-0.021440202370285988,0.1327829509973526,-0.7870705127716064,-0.8996410369873047,-0.9267160296440125,-1.6922211647033691,-1.4945775270462036,1.6716431379318237,-0.5834718346595764,-0.4728489816188812,-0.7750847935676575,1.3458408117294312,-0.707169771194458,0.3093346357345581,-0.5128488540649414,-0.6005205512046814,-0.36095163226127625,-0.6210907101631165,-0.07911183685064316,-0.43903347849845886,1.708174228668213,0.39167550206184387,0.12494203448295593,-1.2575911283493042,0.6250098347663879,3.6928584575653076,-0.3634469211101532,0.08983487635850906,1.2201615571975708,-0.0853484719991684,-1.716310977935791,1.2649688720703125,1.2973376512527466,-0.7016863822937012,0.6614382863044739,-0.3238738179206848,0.6173474788665771,0.529116153717041,0.9300746917724609,-1.684243083000183,-0.3789045214653015,-1.1491785049438477,0.8592457175254822,0.6122574210166931,-0.864640474319458,-0.6044367551803589,-0.7315027117729187,0.8512367010116577,1.2598007917404175,-0.09731251746416092,-0.24282412230968475,-0.6815939545631409,-2.3163886070251465,-0.7406227588653564,-0.8671185374259949,0.10129166394472122,-0.21649785339832306,-0.7209446430206299,0.5658277273178101,-1.2960788011550903,-1.1326524019241333,-0.5511008501052856,0.7967458367347717,1.0678256750106812,0.9009310007095337,0.9214072823524475,0.4020005762577057,-0.9308018088340759,1.2147507667541504,0.9056271910667419,-0.5864253640174866,-0.4648749828338623,1.107811689376831,-0.38515743613243103,1.1502504348754883,-0.23718976974487305,-0.4071912467479706,-1.3856598138809204,0.143019899725914,-0.87151038646698,0.11612149327993393,0.650854766368866,2.0360660552978516,1.189679741859436,-0.5381789803504944,2.0881330966949463,-2.1753573417663574,-0.4619239270687103,-1.1951318979263306,1.342346429824829,-0.489650160074234,-0.06450042128562927,1.7649164199829102,1.5357517004013062,-0.24762926995754242,0.4604598581790924,-1.2244151830673218,0.8050720691680908,-0.046345535665750504,0.2834528088569641,1.5902208089828491,-0.19240614771842957,-0.12109050154685974,0.24546565115451813,-0.05330789089202881,0.3428625166416168,0.8007529973983765,0.25430968403816223,-0.028529971837997437,-0.38699615001678467,0.8274592757225037,0.19466392695903778,0.0006772527704015374,0.5118933320045471,0.2960326671600342,-0.8905505537986755,1.4594354629516602,0.5154948830604553,0.22774483263492584,-0.06443803757429123,-0.12570790946483612,0.9382050037384033,-0.8150331377983093,-1.0861341953277588,-1.737265706062317,0.13042259216308594,-0.255803644657135,-1.6106328964233398,2.3678736686706543,1.487967610359192,-0.6229972243309021,0.1537473201751709,2.509269952774048,-0.5506950616836548,0.6223664879798889,0.4391351044178009,-0.43761709332466125,-0.32973724603652954,-1.6280477046966553,0.2733767628669739,-1.5189989805221558,-2.900301933288574,1.3671993017196655,0.6775722503662109,-1.9085909128189087,-0.8997761607170105,-0.057342417538166046,-0.3266436457633972,-0.6976524591445923,1.3930243253707886,0.9038088321685791,-1.6488081216812134,0.8623613715171814,0.7454327940940857,-1.2380080223083496,2.2530033588409424,-1.0448964834213257,0.6785653233528137,0.7045525312423706,1.2280917167663574,1.2691166400909424,0.3686973750591278,0.32225367426872253,-0.2355595827102661,0.786679744720459,0.16136331856250763,1.0549545288085938,0.8649725914001465,-0.9293568134307861,0.6966973543167114,0.3680032789707184,0.1460864543914795,-0.7917190790176392,1.0811656713485718,-0.6027153134346008,0.8586742281913757,1.2664480209350586,-0.9533318877220154,-1.3367908000946045,0.9801428914070129,-0.5275702476501465,0.16513462364673615,-0.4976779818534851,-0.4548705220222473,-0.9470255374908447,1.4556317329406738,-0.5778918862342834,-0.928063690662384,1.4136326313018799,-0.47393012046813965,0.3982776999473572,-1.7703298330307007,1.3114964962005615,0.25147807598114014,-0.7212314009666443,0.053714096546173096,-1.1602461338043213,-0.12697678804397583,0.3079126477241516,-0.35952073335647583,-0.11246945708990097,-0.856110155582428,-1.3081090450286865,-0.5647441148757935,-1.1017593145370483,-2.123401165008545,0.3813229203224182,-1.3313480615615845,-0.0951186940073967,0.4505055248737335,2.2083566188812256,-0.7685922980308533,0.3209478259086609,0.8565895557403564,0.37394413352012634,0.9508747458457947,0.17139391601085663,0.8931410908699036,-0.6259636878967285,-0.8136793971061707,1.4878040552139282,0.8845691680908203,-0.8662886619567871,0.5464712381362915,-0.6475067734718323,0.09284491837024689,2.315441846847534,0.23827539384365082,0.8085792660713196,0.15669091045856476,1.244218111038208,-2.5087127685546875,0.6742255687713623,0.7765913009643555,0.7214112877845764,-1.29762864112854,1.66140878200531,-0.07201343774795532,1.1705074310302734,-1.609995722770691,0.7754217982292175,1.1821365356445312,-0.9230151176452637,-0.8124442100524902,-0.16581392288208008,-0.9791902303695679,0.24352571368217468,-0.01975974254310131,-1.396323800086975,0.3942754864692688,-0.556837260723114,-1.9766929149627686,-0.7262982130050659,0.8208233118057251,-0.20896653831005096,-0.9280527830123901,-1.06863272190094,-0.8628242611885071,0.04212527722120285,0.7036535739898682,-0.2580110728740692,0.06797375530004501,-0.085747629404068,-0.0874045193195343,0.5914934873580933,-1.1620019674301147,-1.6812856197357178,0.4760771095752716,0.0395347885787487,0.016844674944877625,2.144169569015503,-0.2647954523563385,1.5114675760269165,-0.8787473440170288,-0.32602545619010925,-0.2650245130062103,0.38169026374816895,-0.28702718019485474,1.2212653160095215,1.3222332000732422,0.5518149733543396,-1.0884194374084473,1.5090181827545166,-0.12420205026865005,1.575812578201294,0.3816303312778473,-1.0294129848480225,0.2569415271282196,-2.005279779434204,0.17628991603851318,-0.7609460949897766,0.4109782874584198,-1.5523362159729004,-0.0022578733041882515,-0.8492392301559448,1.0152702331542969,-0.43568724393844604,-1.124106526374817,-1.3609815835952759,2.4415056705474854,0.6632205843925476,-0.7161515355110168,0.2441207617521286,0.5914289951324463,-1.3410248756408691,1.218286156654358,-1.640083909034729,-2.4133388996124268,2.4424688816070557,0.8780788779258728,-0.05584612488746643,1.012137770652771,2.708796262741089,-0.9760797023773193,1.0284000635147095,0.515565037727356,0.6485785245895386,-0.07858515530824661,0.3052038550376892,-0.1303076446056366,-1.5291954278945923,-0.5567517280578613,0.215146005153656,1.5091516971588135,-0.793082594871521,-2.4441583156585693,0.4379288852214813,-1.3559319972991943,-0.9607372283935547,-1.302821397781372,2.197331190109253,-1.0381410121917725,-1.5042434930801392,2.87388014793396,0.16208034753799438,1.0836669206619263,-0.4740409553050995,-0.24900636076927185,0.1959822028875351,-0.7825009822845459,-1.5804344415664673,-0.0006241093506105244,0.29335543513298035,1.229736328125,0.5769739747047424,-0.9149429798126221,-0.2890343964099884,0.6298540830612183,-0.3312827944755554,-0.1620824933052063,0.6629193425178528,-0.5417744517326355,-0.8397256135940552,-1.6147453784942627,-0.3774195909500122,-1.2512869834899902,-0.563454270362854,-0.7120305895805359,-0.05239803344011307,1.0908615589141846,1.676849365234375,0.8303786516189575,0.1274988055229187,1.0433964729309082,0.2631857395172119,0.8128368854522705,-0.17161521315574646,0.018216988071799278,-0.9607235193252563,-0.9555729627609253,0.7487392425537109,-0.6339794397354126,-0.5460023283958435,-0.43652698397636414,-0.5281280279159546,0.4852072596549988,-1.8036385774612427,0.3168908953666687,2.2479774951934814,0.028929075226187706,-1.3172310590744019,-0.018714459612965584,-1.9456273317337036,-1.605597972869873,1.1417402029037476,-0.5494271516799927,-0.6714735627174377,1.2871744632720947,1.110559105873108,-0.583640992641449,-0.8744855523109436,-1.4393519163131714,-0.9186859130859375,-0.30402377247810364,1.4016073942184448,0.11319030076265335,1.7583630084991455,1.5066157579421997,-0.2341713160276413,-0.7976337671279907,-0.6089043617248535,-0.00007722323789494112,-0.02953856997191906,2.792299270629883,0.29215794801712036,-1.9909487962722778,0.9373030662536621,1.1423625946044922,-2.0763113498687744,0.6932250261306763,1.6576931476593018,0.2846793532371521,-2.2666220664978027,-1.8800822496414185,-1.3682713508605957,-0.7525923848152161,2.012166976928711,-1.2626333236694336,-0.571338951587677,1.4521310329437256,1.6084015369415283,2.119734287261963,1.1434460878372192,-0.6919029951095581,-0.2753550708293915,1.423171043395996,0.4198008179664612,1.2048637866973877,-0.9185378551483154,-0.6482003927230835,2.1844780445098877,-0.32466208934783936,-1.26941978931427,0.0007612246554344893,-2.120107650756836,0.2779342234134674,0.5303942561149597,0.6611402034759521,0.4098523259162903,1.1751693487167358,0.8384085297584534,2.15840744972229,-1.5829256772994995,-0.48023751378059387,1.2218225002288818,0.6612960696220398,2.5348572731018066,1.7415651082992554,0.1847364604473114,-0.477622389793396,-1.1847259998321533,0.15369072556495667,-1.1389436721801758,-2.1073074340820312,0.9521334767341614,-0.34916335344314575,-0.37543126940727234,-0.9105679988861084,-0.27863699197769165,0.6718217730522156,-0.09473826736211777,1.318350076675415,0.3374098241329193,-0.5762022733688354,2.1090683937072754,0.5347035527229309,0.8869301080703735,0.63221275806427,-0.6518591046333313,0.8601624965667725,0.1187683716416359,-0.9154826402664185,-1.3218564987182617,-1.44148850440979,-1.922029733657837,0.08495280146598816,1.1905226707458496,-0.8462944030761719,-2.045577049255371,-0.9521177411079407,0.1945371925830841,0.24686403572559357,-0.09820487350225449,1.483770489692688,-0.5594630241394043,1.0867170095443726,-1.6399344205856323,-1.5539594888687134,0.3090321719646454,0.09678294509649277,0.5779542326927185,0.632317066192627,0.9352304339408875,1.5786499977111816,0.987482488155365,-1.1325676441192627,0.8726344108581543,-0.7952607870101929,-0.5960059762001038,0.3548433482646942,0.2939470410346985,-1.4268990755081177,-1.4440858364105225,-1.6220024824142456,-0.9527732729911804,-1.6067875623703003,1.5277832746505737,-1.6583001613616943,-1.1325217485427856,1.1553305387496948,1.552209496498108,0.8777936697006226,1.5728092193603516,0.7986315488815308,-0.2618604004383087,0.5947773456573486,-0.5867098569869995]},"forgetHidden":{"rows":20,"columns":20,"weights":[1.3606503009796143,0.6860446333885193,2.4170942306518555,0.732136607170105,-0.9098806977272034,-1.0720404386520386,-0.07921278476715088,-0.940303385257721,-0.32746025919914246,0.7638006806373596,0.3381149470806122,-0.19510650634765625,0.7297118902206421,0.9132814407348633,-1.2805873155593872,0.8699766397476196,1.0456264019012451,0.10314663499593735,-0.24190253019332886,2.2937467098236084,-0.6429355144500732,1.2068870067596436,0.5719057321548462,-2.958264112472534,0.32292768359184265,0.4243740737438202,0.08713013678789139,0.4219789505004883,-0.3834800124168396,-1.0820366144180298,-0.1917615383863449,0.45938730239868164,-1.390293836593628,0.35842058062553406,-0.8020964860916138,0.43612781167030334,-0.5275799036026001,0.4095643162727356,-0.5167261362075806,-0.6982400417327881,-1.1693605184555054,0.11808840185403824,0.46892687678337097,-0.6759475469589233,0.9243433475494385,-2.467008590698242,-2.6102426052093506,-2.6919751167297363,0.670755922794342,-0.8864944577217102,0.21080714464187622,-0.45292943716049194,-0.42090746760368347,0.3572966456413269,-0.10679411888122559,-0.27791106700897217,0.2642204761505127,-1.1829760074615479,0.3208882510662079,0.6231623291969299,-0.7858226299285889,0.2244240790605545,0.44789206981658936,1.3486878871917725,1.5710875988006592,-0.4523887038230896,0.40326017141342163,0.9382753968238831,0.02271893247961998,0.06234007328748703,0.08865567296743393,1.5328320264816284,-0.03715287148952484,0.11460699886083603,0.5365673899650574,-0.8185775876045227,-0.003934558946639299,-0.415169894695282,0.1955089122056961,0.5834662914276123,1.4568660259246826,0.20263561606407166,-0.2554956078529358,2.547316551208496,1.2237225770950317,-2.964421510696411,-4.364001274108887,-0.5673258900642395,-0.9251272678375244,0.031257882714271545,0.18415454030036926,-0.5729753971099854,-1.3129419088363647,1.492066502571106,-0.4326724112033844,-0.48582330346107483,-0.6256103515625,-4.053258419036865,0.14676354825496674,0.013311337679624557,0.5758031010627747,0.692874014377594,-0.8886027336120605,1.0635241270065308,-1.587232232093811,-0.5649330019950867,-0.7081081867218018,0.40672382712364197,1.6201046705245972,1.2103421688079834,-0.4694654047489166,0.5044387578964233,2.1976938247680664,0.43205204606056213,1.379183053970337,0.26226118206977844,-0.5994415283203125,-0.7253543734550476,-1.159909963607788,0.18409347534179688,-0.1736747920513153,0.2753675878047943,-1.4924336671829224,-1.074889898300171,-0.5952654480934143,0.3597683012485504,1.0495004653930664,1.476334810256958,2.1031126976013184,0.5379530787467957,0.366166353225708,-1.0172520875930786,-1.5934691429138184,-0.5682909488677979,-2.558534860610962,-0.7732901573181152,1.930640697479248,1.580246090888977,0.8628566861152649,1.1269222497940063,0.6451744437217712,0.7860298752784729,0.501750111579895,-0.6913585066795349,0.06829361617565155,-0.6177876591682434,0.21017728745937347,-0.8232890367507935,0.1979132443666458,-0.27952975034713745,-1.4970602989196777,-0.8001505732536316,0.30080559849739075,-1.7486293315887451,0.003930139355361462,0.3591284453868866,-0.1056106835603714,1.2883014678955078,-0.4796404540538788,-0.6559377908706665,-0.5421385765075684,-0.09976155310869217,-1.0422797203063965,-0.5192117691040039,-0.5323085188865662,0.501387894153595,0.4442073106765747,0.4077147841453552,0.26882675290107727,0.7699698209762573,0.4999629557132721,-0.25708818435668945,-0.2570382356643677,-0.07900942116975784,-1.1746360063552856,0.024607906118035316,1.3444842100143433,0.7578676342964172,0.34437137842178345,0.06616654247045517,-0.485638290643692,-1.7482596635818481,1.3397414684295654,-1.5530918836593628,1.2593556642532349,-0.5808824300765991,2.2255682945251465,-0.7716026902198792,0.27629217505455017,-1.6112171411514282,-1.9826465845108032,-0.9182559251785278,-1.0363547801971436,-1.3861857652664185,2.0021188259124756,-1.0625555515289307,-1.0696237087249756,0.5437082648277283,0.15736185014247894,0.38076484203338623,3.5881097316741943,0.5193060636520386,-0.4791240990161896,-1.2750988006591797,-2.12148118019104,0.2387496381998062,0.9599167108535767,-1.4589219093322754,0.596800684928894,1.3387032747268677,-0.9374716877937317,-0.47209659218788147,0.9834508299827576,0.3667794466018677,-0.38835155963897705,-0.6433205008506775,0.52971351146698,0.3760972321033478,-1.81659996509552,-0.7765180468559265,0.17892573773860931,-0.49575644731521606,-1.971760869026184,-1.0294408798217773,-2.0857176780700684,-1.0772600173950195,1.0611772537231445,0.6002722382545471,1.2994722127914429,2.026944160461426,-0.19246655702590942,1.0508514642715454,-2.3659329414367676,-1.1064571142196655,-1.62789785861969,1.1700364351272583,2.918175220489502,1.9447065591812134,-0.7983561158180237,0.99678635597229,0.4867796301841736,2.38962984085083,-1.1116681098937988,0.5758859515190125,-0.4287436306476593,0.017123930156230927,0.2821905016899109,-0.5343278050422668,0.2184956669807434,1.1625535488128662,-0.015420125797390938,-1.3495029211044312,-0.03285778686404228,2.421067714691162,-0.5192116498947144,1.363221526145935,1.1952459812164307,-0.4737243056297302,0.20096637308597565,1.0162696838378906,-0.13921703398227692,-0.6056298613548279,-0.7949495911598206,-1.6418931484222412,-3.037083864212036,1.975946068763733,-0.6319810152053833,-0.7041022777557373,0.40405112504959106,1.7223103046417236,-0.4585653245449066,-2.6244544982910156,-3.8802759647369385,-0.2996215522289276,-0.23866237699985504,1.5512739419937134,0.490066796541214,0.3375621438026428,-1.7164382934570312,-0.32740330696105957,0.3017639219760895,2.064793109893799,-0.9864155650138855,0.2999804615974426,1.649461030960083,-1.3594998121261597,-0.06747844070196152,-0.3963293731212616,0.16058000922203064,-1.5978646278381348,1.4987868070602417,-1.7069939374923706,0.13536962866783142,2.339717149734497,1.116425633430481,0.4403226673603058,0.3803515136241913,-0.7913393378257751,1.548245906829834,1.456719160079956,-0.5600212216377258,-0.2742216885089874,1.4775811433792114,-0.1764301061630249,-0.22078266739845276,0.3675859272480011,-3.351299285888672,-2.4650888442993164,1.1737098693847656,-0.5125749111175537,-1.9077426195144653,-0.6191484928131104,-1.8224021196365356,-0.20995061099529266,-0.25998130440711975,-1.0613138675689697,-0.7697106599807739,-3.8785810470581055,-0.5505346059799194,-0.2043568193912506,-0.6686473488807678,0.4219810366630554,0.7777172327041626,0.0682341456413269,1.2720550298690796,0.6699029207229614,-0.11264848709106445,0.38550427556037903,-0.43493568897247314,-1.3438103199005127,0.6532405614852905,-1.1960930824279785,0.1451096385717392,0.1900782585144043,1.6073778867721558,-0.6235615611076355,-0.17271703481674194,-1.1284624338150024,0.7744770050048828,-0.07707230001688004,0.5574941635131836,0.0032509295269846916,0.09247743338346481,-1.8516839742660522,-0.2100047767162323,-0.14711280167102814,0.9882819056510925,-0.9027082920074463,-0.3777298331260681,0.6785098910331726,-0.9328373670578003,-0.8276225328445435,-0.6977947950363159,0.016232335940003395,-1.0458471775054932,-1.6700072288513184,1.0175507068634033,0.7659114003181458,-0.8785684108734131,-0.48480942845344543,1.6465972661972046,-1.6094670295715332,1.8166542053222656,-1.758195400238037,1.1906647682189941,2.6168713569641113,0.2700470983982086,-1.294661045074463,0.12280350923538208,-0.014307817444205284,-2.1965417861938477,-0.26620200276374817,1.722917914390564,-2.0737078189849854,0.3879298269748688,-0.7003577947616577,-1.4795526266098022,0.32166075706481934,-1.1114691495895386,-0.7829053401947021,-0.2515757381916046,0.3518322706222534,0.7082959413528442,-0.7783026099205017,0.4708000719547272,-0.1716301590204239,0.4291675090789795,0.08934751898050308,-0.22820442914962769,-0.6467562913894653,-0.45326706767082214,0.8959228992462158,-0.621109127998352,0.42213329672813416,-0.14575105905532837,-0.10495878010988235,-0.06937288492918015,0.19880235195159912,0.5050809383392334,-0.9822847843170166]},"forgetBias":{"rows":20,"columns":1,"weights":[0,0,0,0,0,0,0,0,0,0,0,0,0,0,0,0,0,0,0,0]},"outputMatrix":{"rows":20,"columns":30,"weights":[0.7285023927688599,1.2276294231414795,0.5796481370925903,-1.4832483530044556,-0.06732072681188583,1.2724535465240479,-0.10966300964355469,0.6477025747299194,-0.05082572624087334,-0.341842919588089,-1.3855444192886353,-1.6869001388549805,-2.119616985321045,0.9172888398170471,0.7369028925895691,0.14524294435977936,3.156425714492798,-1.0664690732955933,0.09057596325874329,-0.10883186757564545,0.5690513849258423,-0.0972599908709526,0.7790181636810303,-0.2407916784286499,-0.130112424492836,1.9148653745651245,1.049053430557251,-1.4592326879501343,0.45142698287963867,0.045086055994033813,-1.5439280271530151,0.16909241676330566,0.42193418741226196,2.385883331298828,0.9156550168991089,-0.3835340142250061,-0.2934403419494629,0.6103277802467346,0.5610021948814392,1.7271418571472168,0.6899617910385132,0.10888361185789108,2.8202593326568604,0.4667622745037079,-0.8465723991394043,-1.1944029331207275,0.58214271068573,0.17714126408100128,-1.2933930158615112,2.275545120239258,-1.1474089622497559,-0.4157288074493408,-0.9324573278427124,0.7367187142372131,0.14366161823272705,-0.6963156461715698,0.13109596073627472,-0.609347403049469,-0.44277530908584595,-1.5934635400772095,0.3032120168209076,-0.030594298616051674,-0.18068639934062958,1.6336872577667236,0.09066268801689148,0.16670556366443634,-0.4089541733264923,0.27530574798583984,0.5107653141021729,-0.5317957997322083,3.3451249599456787,0.16666708886623383,1.5185593366622925,-0.9372630715370178,-0.19095732271671295,-1.5977813005447388,-1.2203391790390015,1.1051605939865112,-1.5084913969039917,1.1720250844955444,0.05957237258553505,-0.7652753591537476,-0.7391977906227112,1.1379390954971313,-1.1447649002075195,-2.659269094467163,-0.6852974891662598,0.7502347230911255,0.20932820439338684,-0.5576280355453491,0.2504374086856842,-0.16268564760684967,0.3128390610218048,-3.0495693683624268,1.099112868309021,0.2866501808166504,1.9647141695022583,1.2902371883392334,-0.3389277160167694,0.6173943281173706,-0.5283524990081787,-1.0400794744491577,0.4994436800479889,2.4376635551452637,-1.6252142190933228,0.14739631116390228,-0.7819494605064392,-0.6126159429550171,-0.1086883619427681,-0.5048553347587585,-0.6737184524536133,-0.19492802023887634,1.4614241123199463,1.0994259119033813,2.5077896118164062,1.9895343780517578,1.323743462562561,-1.540392279624939,-0.4821295440196991,-0.7331055402755737,0.9210262298583984,-1.5152969360351562,-1.1036171913146973,2.132585287094116,-1.9131956100463867,-0.7072881460189819,0.6891587972640991,-1.3026032447814941,-0.12291200459003448,-0.5383561849594116,0.5085679292678833,1.008500576019287,0.19957344233989716,-0.004295012913644314,1.1015146970748901,-0.7734711170196533,-1.4037681818008423,0.0006170817650854588,0.582375168800354,-0.0985487625002861,0.9581184983253479,0.9420615434646606,-0.9148755669593811,-0.8226285576820374,-0.35086286067962646,-1.4666519165039062,-0.9849216938018799,1.7792466878890991,-0.6113645434379578,0.4797806441783905,-0.12450001388788223,1.4475681781768799,1.8718148469924927,-2.0137786865234375,0.8845555782318115,1.816884994506836,-0.7398803234100342,0.8644131422042847,0.6725038290023804,-0.6586151719093323,-0.5909300446510315,-0.9539040327072144,-1.0241776704788208,0.12883031368255615,-0.4120618402957916,-0.4581387937068939,0.49506711959838867,-2.8808395862579346,-0.7255282998085022,-0.9349609017372131,-0.30606478452682495,-0.8770706057548523,1.1165765523910522,1.765545129776001,-0.1694871336221695,1.5919806957244873,2.2901296615600586,-0.2409522533416748,2.3732259273529053,-0.4770684242248535,-0.12745735049247742,0.3642335832118988,0.49419286847114563,-1.613290786743164,-0.5637999176979065,0.32783395051956177,1.20498526096344,0.7334357500076294,-0.373457133769989,0.9200692772865295,-1.0333718061447144,-0.9830334186553955,-1.0442465543746948,2.3175816535949707,-0.8693763613700867,1.8068312406539917,1.8323612213134766,-0.7128127217292786,-0.09532717615365982,-1.2407841682434082,-1.1795903444290161,-0.2328779548406601,0.6555513143539429,0.3586256206035614,3.084531784057617,0.8161416053771973,0.8789716958999634,-0.37096285820007324,-0.012035993859171867,-0.7830204963684082,2.172062635421753,-0.5468832850456238,0.003088373923674226,-0.8324244022369385,0.17872554063796997,-0.29286569356918335,-0.22736959159374237,-0.12356753647327423,0.5932116508483887,-0.6220489740371704,-0.27345094084739685,-0.8275135159492493,0.21527099609375,-1.6730438470840454,1.104699730873108,-1.637688398361206,1.1463466882705688,0.2912449538707733,2.8696401119232178,-0.540166974067688,1.2289360761642456,-0.43695566058158875,0.9091783165931702,-0.9460145831108093,-1.1407784223556519,0.0905315950512886,-0.4337972104549408,0.051075782626867294,-0.18048818409442902,-0.09399610757827759,1.8712927103042603,-0.6840501427650452,-0.570075511932373,-0.13817958533763885,-2.6664748191833496,-0.6067807078361511,1.8148759603500366,-0.3514346480369568,-0.9098331332206726,0.7773613333702087,0.23801830410957336,-0.9797680377960205,-1.8053232431411743,2.7100296020507812,1.0342025756835938,2.047201633453369,1.223928451538086,0.6464619636535645,-1.0752497911453247,1.6573801040649414,0.008423960767686367,0.2617124617099762,1.6594338417053223,0.8994103074073792,2.642070770263672,2.6131339073181152,-0.8351000547409058,-0.5872620940208435,-0.3435400426387787,0.01618329808115959,-0.6636540293693542,-0.2978792190551758,0.09431948512792587,1.9801025390625,-0.7875329256057739,-0.4795528054237366,0.782574474811554,-0.02744581364095211,-0.29485058784484863,2.040050745010376,0.5933221578598022,0.9256166219711304,0.4674375653266907,0.5736306309700012,-1.0061880350112915,-0.35762137174606323,-0.18613971769809723,-0.8091408014297485,-1.473393201828003,1.9694575071334839,-1.221927523612976,0.007829765789210796,-0.7439385652542114,1.283531904220581,-0.49244827032089233,0.1895466148853302,0.07848567515611649,-0.23580218851566315,-1.1788928508758545,0.16648367047309875,-0.17348220944404602,0.03767453134059906,-0.16047559678554535,2.2089381217956543,0.10822495818138123,0.06113281100988388,-0.2682296633720398,0.7154949903488159,0.3348764479160309,0.9153357148170471,2.3630528450012207,-0.09494644403457642,0.9401412010192871,-0.8035235404968262,-0.25490471720695496,-1.168408751487732,1.4233322143554688,-0.2554006278514862,-0.654389500617981,1.121068000793457,-1.0373845100402832,-1.919057846069336,1.2296825647354126,-0.20284272730350494,-0.4335295855998993,-1.5741138458251953,0.9190609455108643,-0.8119891881942749,-0.25005313754081726,-1.2763386964797974,1.1172484159469604,0.2700820863246918,-1.7226881980895996,0.8606027960777283,0.559638261795044,-0.500939667224884,-0.15747949481010437,-1.862515926361084,0.3812536597251892,2.510089874267578,0.6948552131652832,0.27187684178352356,-1.4988672733306885,1.8530809879302979,0.8086868524551392,-0.48862239718437195,-0.11179246008396149,-0.0950101837515831,-0.3637060225009918,2.0817742347717285,0.48776862025260925,0.41160848736763,-2.112910270690918,-1.12727952003479,1.7188607454299927,-0.4316742718219757,-2.5747568607330322,-0.38273224234580994,-0.2721467614173889,0.23920999467372894,-1.5044587850570679,0.17576554417610168,0.04927928373217583,-0.911729097366333,-0.7209416031837463,0.06891494989395142,-0.7739918828010559,-0.05141213536262512,2.556840658187866,1.0547112226486206,-0.9084540009498596,0.29932865500450134,-0.8465547561645508,0.12387610226869583,-0.4672701060771942,2.5287580490112305,2.474928617477417,-0.12459411472082138,0.3915828764438629,-0.24726761877536774,-0.972430408000946,-0.34276193380355835,-0.28816086053848267,-0.6196130514144897,0.24171681702136993,-0.12567637860774994,0.5319246053695679,0.921384871006012,-0.6723785400390625,-0.03343471139669418,-1.2274609804153442,1.4435408115386963,-0.04864247888326645,1.9296989440917969,1.1381981372833252,1.7104978561401367,-0.4008890688419342,1.3908179998397827,0.1742158830165863,2.5569231510162354,1.7027435302734375,0.35677263140678406,2.1847641468048096,-0.18775101006031036,-1.0006215572357178,-0.8756424784660339,1.4182409048080444,-0.28163716197013855,-2.1122710704803467,0.9542818665504456,-1.6878422498703003,-1.5556018352508545,-0.26797157526016235,1.7381435632705688,0.10648339986801147,-1.3466969728469849,1.4923161268234253,-0.2776809632778168,0.3976070284843445,-1.0783264636993408,1.1656218767166138,-0.4932195246219635,0.8692927360534668,0.256432443857193,0.7549050450325012,-0.9693719744682312,1.2822738885879517,0.931037962436676,-2.2190253734588623,0.9383432269096375,-1.0328806638717651,-0.941498875617981,0.35494545102119446,2.788252592086792,-0.7943664193153381,-1.7744933366775513,-1.2505309581756592,-0.9004413485527039,-2.5919177532196045,1.1605956554412842,-1.3926283121109009,-0.81540846824646,1.4010897874832153,0.8666346669197083,2.8264639377593994,1.896539568901062,-0.8158609867095947,-1.7945435047149658,-0.493473619222641,-1.4453470706939697,-0.9126324653625488,-0.09592337161302567,0.5702000260353088,-0.020683392882347107,-0.9099935293197632,0.19700150191783905,-0.30424395203590393,-0.4038614332675934,-0.8465258479118347,-0.7782798409461975,-1.1983470916748047,-0.46765491366386414,-0.5370466113090515,-0.7312539219856262,-0.06180357560515404,1.4384591579437256,-0.3938311040401459,0.4729350209236145,-0.5048983097076416,-0.5580123066902161,0.3801434338092804,0.6363377571105957,0.7960055470466614,0.22976578772068024,-0.17064912617206573,0.4318528175354004,-0.37726348638534546,0.2858968675136566,0.5237011909484863,0.33653852343559265,1.0728367567062378,0.03931869566440582,-0.059629134833812714,-2.152798652648926,0.2893080413341522,0.08392130583524704,0.38752132654190063,0.3764652609825134,0.23469749093055725,0.035318221896886826,-0.10649224370718002,-1.4778611660003662,-0.3996117413043976,0.3885308802127838,0.18305431306362152,-1.2586435079574585,-0.5349636077880859,-0.638482928276062,0.8043037056922913,-1.0058501958847046,0.24370290338993073,-1.076667308807373,2.472317695617676,1.3496071100234985,0.5189436674118042,1.022348403930664,1.4196765422821045,-0.103853240609169,-0.5146015286445618,-0.9223957061767578,1.9263067245483398,-1.9366369247436523,-0.6417261958122253,-0.37966588139533997,-0.6106786727905273,-2.0433452129364014,0.574589192867279,-0.7243024706840515,-0.9840806722640991,-1.2204093933105469,-2.0341084003448486,0.2391573041677475,-1.2090147733688354,2.388399839401245,0.771268904209137,1.4011967182159424,0.14844709634780884,1.8259592056274414,0.42436686158180237,-0.42444944381713867,0.8524446487426758,1.190945029258728,0.1975562572479248,-0.8655858039855957,2.1262595653533936,1.5368552207946777,-1.4671294689178467,0.001397862215526402,-2.127707004547119,0.07278773933649063,-0.0855768620967865,0.8309836983680725,0.5504900813102722,1.2865698337554932,0.906441330909729,1.0050345659255981,0.0036150559317320585,1.213902235031128,0.27630725502967834,3.360302686691284,0.37000739574432373,-1.7984706163406372,0.7915926575660706,-0.20456020534038544,-0.9096894860267639,-0.5091360807418823,1.1875028610229492,-1.0473073720932007,-0.28658628463745117,3.5029659271240234,-1.0901333093643188,-0.9394619464874268,1.6363906860351562,0.9509336948394775,0.5988940596580505,1.2151150703430176,0.26156914234161377,-1.7050293684005737,0.7155078649520874,-0.66580730676651,1.4136102199554443,-0.041462697088718414,-0.11795660853385925,-0.7668635249137878,1.1053334474563599,-0.268176406621933,0.16890133917331696,1.6749615669250488,0.15218223631381989,-0.0756106972694397,0.8454576730728149,-1.3242957592010498,0.24370203912258148,0.9457262754440308,-0.33153626322746277,-0.7799455523490906,-0.47282764315605164,-0.16450916230678558,0.34573644399642944,0.45191100239753723,0.8826285004615784,-1.08803129196167,0.8495154976844788,0.04834806174039841,0.5165495872497559,-0.1410146802663803,-0.11539298295974731,-1.4929924011230469,-0.18756434321403503,-1.6098495721817017]},"outputHidden":{"rows":20,"columns":20,"weights":[1.7558133602142334,2.2141435146331787,-2.2112820148468018,-1.9047521352767944,-0.555758535861969,1.0563137531280518,-0.09973657876253128,2.8182826042175293,-0.5651909112930298,2.129119634628296,1.2333101034164429,-1.253727912902832,0.3607347011566162,2.2916502952575684,-1.5485196113586426,2.8201911449432373,2.6272599697113037,3.0323379039764404,-0.4629497528076172,2.267017126083374,-0.33376145362854004,-2.3275444507598877,-1.0349793434143066,-0.24570409953594208,-1.46768319606781,1.863852620124817,3.2206175327301025,-3.1755430698394775,0.8754271268844604,0.7703603506088257,-1.341025948524475,1.2287147045135498,-0.8170781135559082,-2.5787739753723145,0.8119316101074219,-0.40171071887016296,-0.4809630811214447,1.9317206144332886,-1.6815860271453857,-0.2861239016056061,-0.046259574592113495,-0.7382333874702454,-0.16558438539505005,-0.9767865538597107,-1.649873971939087,1.5995742082595825,0.17301765084266663,-1.2608247995376587,1.173313856124878,0.7847980260848999,-0.7442025542259216,2.086036205291748,0.32113903760910034,-0.9237819314002991,-1.7212600708007812,-0.9554792046546936,-0.6018692255020142,-0.8036684393882751,-0.45091596245765686,-0.7738344073295593,-1.3779255151748657,0.5551939010620117,0.18427425622940063,-0.1284685730934143,-0.38317838311195374,1.0113954544067383,1.3039621114730835,0.7640256285667419,1.1530154943466187,0.07171399891376495,-0.12654690444469452,-0.005763936787843704,-0.711327850818634,0.6467610001564026,-1.1566810607910156,-1.1381969451904297,0.18531003594398499,0.6843507289886475,1.1913379430770874,0.16102349758148193,1.0662404298782349,-0.6319299340248108,0.27123308181762695,-0.04474659636616707,1.2015910148620605,-1.7920708656311035,-1.2446752786636353,-2.301867723464966,-0.25555089116096497,-0.8627377152442932,-2.0361831188201904,0.6743470430374146,0.6928046941757202,0.2337293028831482,1.2201738357543945,-2.403811454772949,0.3322155773639679,-1.6847035884857178,2.0705807209014893,-1.0530822277069092,0.6314608454704285,-0.849129319190979,1.51554274559021,-1.6530375480651855,0.11864127963781357,-2.8180911540985107,2.8636300563812256,1.450605034828186,1.6005938053131104,-1.3101437091827393,-2.0015695095062256,1.296083688735962,-1.8300495147705078,0.40031227469444275,-0.5212801098823547,-1.6767640113830566,2.1087541580200195,1.5629923343658447,2.333524703979492,0.2944122850894928,0.16661667823791504,0.5846067070960999,-0.9786909818649292,-1.1106678247451782,0.4657973349094391,-0.5825226902961731,0.04796721413731575,0.5732442736625671,1.070181965827942,1.2064722776412964,-0.08646030724048615,-0.9861193299293518,0.032707080245018005,0.6636323928833008,0.7383715510368347,0.442581444978714,1.4305633306503296,-0.35951048135757446,-0.5958499908447266,0.42267343401908875,-0.21872958540916443,0.23687410354614258,0.9018927216529846,-1.871394395828247,2.1240737438201904,-0.339180588722229,3.5065715312957764,-0.8344513177871704,0.6236356496810913,-2.241584300994873,0.47389551997184753,0.7613298892974854,-2.668861150741577,-0.5334216952323914,0.9998894333839417,0.374657541513443,-0.7475346922874451,2.953490734100342,0.13730591535568237,-0.8263619542121887,0.02280077151954174,1.7305296659469604,0.352878212928772,0.8324546217918396,0.22866135835647583,-0.6158013343811035,-0.35568365454673767,0.3318803906440735,0.3447277247905731,-0.3523099422454834,0.9423132538795471,-0.4664033055305481,-0.03060963749885559,1.2339128255844116,-0.3639370799064636,-1.5563409328460693,1.2075726985931396,-0.04848816990852356,1.1132527589797974,0.2455630898475647,-0.0015939670847728848,-0.3662581145763397,1.7689884901046753,-0.3791378438472748,2.3656177520751953,-0.10353991389274597,-0.4806159436702728,-2.1119472980499268,-0.3934157192707062,-0.8916417956352234,0.5230153203010559,-1.826969861984253,-1.3385344743728638,-0.5336671471595764,1.6171607971191406,-1.0336756706237793,-1.6418272256851196,-2.222245931625366,-0.07391851395368576,0.25511959195137024,0.6003396511077881,-2.1871581077575684,-0.1853564977645874,-1.9415082931518555,-0.4756607711315155,-1.2848342657089233,1.174620509147644,-3.4002790451049805,0.06379281729459763,0.8106479048728943,-5.123907089233398,0.12233631312847137,-0.8543837666511536,-1.118019938468933,-0.18680889904499054,-0.751918375492096,-1.9994213581085205,1.4285167455673218,-3.5964107513427734,-2.3717806339263916,0.4319755733013153,1.9278197288513184,-1.081735610961914,-0.6235755085945129,-0.30765441060066223,2.3756589889526367,-1.4468638896942139,-0.5166194438934326,-1.3005685806274414,1.3748208284378052,0.8081983923912048,-1.6408216953277588,1.2891918420791626,1.6936155557632446,0.9886895418167114,1.8734458684921265,1.2437902688980103,-0.9801996946334839,-0.03509782254695892,-1.6087359189987183,0.3306182324886322,2.901684284210205,-0.04215091094374657,-0.6609253287315369,0.11216992139816284,-0.3305300176143646,-0.7192398309707642,1.1115608215332031,-1.248859167098999,-1.2520771026611328,-1.2133127450942993,1.3691896200180054,-1.456843614578247,2.8071980476379395,-0.9157280921936035,-1.4466559886932373,0.30192041397094727,-1.3440583944320679,1.4505447149276733,0.2650292217731476,-0.09462329745292664,-1.773679494857788,0.14860719442367554,0.5724982619285583,-0.7718196511268616,3.4424502849578857,-0.9334775805473328,-0.3942664563655853,-0.9688814282417297,-0.10088200867176056,-0.07223401963710785,-1.0296732187271118,1.4144455194473267,-1.7534043788909912,-0.19863566756248474,-0.14547128975391388,-0.6297290325164795,0.5967046618461609,-0.1583343744277954,0.27014943957328796,0.18106353282928467,-0.6873972415924072,0.15381310880184174,-0.2902069389820099,-1.0136504173278809,1.262532114982605,-0.46570926904678345,3.7056849002838135,-0.5724204778671265,-0.47382301092147827,0.8542216420173645,-0.5962440371513367,-0.7403157353401184,0.35648173093795776,0.1640370786190033,0.630562424659729,0.2287830114364624,-0.511168897151947,1.3388376235961914,0.6455419659614563,1.2028976678848267,-1.0452288389205933,1.2726869583129883,0.9716418981552124,1.6128877401351929,-1.4220380783081055,-3.3579630851745605,-2.114370346069336,-1.7794281244277954,-1.9180623292922974,-2.8621020317077637,-0.6083930730819702,0.6937239170074463,-0.9724357724189758,2.8260011672973633,-1.4339550733566284,-3.821373701095581,-2.791252374649048,-0.7351762056350708,-2.8645849227905273,-0.7074437141418457,0.5807352066040039,3.0070488452911377,-1.3769398927688599,3.757150173187256,1.0374853610992432,-1.2271205186843872,-1.316343069076538,-0.5224207043647766,-3.413097620010376,-0.42283865809440613,-0.9660354852676392,-2.4670724868774414,0.7975571751594543,0.14303502440452576,-1.734108328819275,-0.4875381886959076,-1.2625590562820435,0.9808778762817383,-0.45607584714889526,-0.7431468367576599,0.4839232563972473,-0.5347241163253784,-0.10658466815948486,-0.14747755229473114,-0.6165589690208435,-1.1884760856628418,1.2594670057296753,0.4511536955833435,-0.2566332519054413,-0.011205372400581837,0.5579783916473389,-0.07679581642150879,-1.072210431098938,-0.058620259165763855,-0.3330695331096649,0.14592458307743073,-0.34417587518692017,2.217122793197632,0.6829209327697754,0.6791022419929504,-0.7745117545127869,0.18807952105998993,0.43547049164772034,0.5993573069572449,0.7175313830375671,1.805209994316101,-0.09231716394424438,0.9332764148712158,-0.8130247592926025,0.5697494745254517,2.404284715652466,-2.575587511062622,-0.6568146347999573,0.76482754945755,-0.8596564531326294,-1.6304792165756226,1.6482497453689575,1.528367519378662,-1.4028074741363525,-1.6939364671707153,1.3054778575897217,-0.0853135958313942,-0.7672887444496155,-1.8127981424331665,1.2421727180480957,1.6099542379379272,1.8147059679031372,3.2209486961364746,-0.014474923722445965,2.4845571517944336,0.45979490876197815,-1.8092275857925415,0.5733634233474731,-1.9011754989624023,-0.2421991229057312,0.90781170129776,0.881874144077301,2.098020315170288,1.077726125717163]},"outputBias":{"rows":20,"columns":1,"weights":[-0.6903873682022095,-0.18730784952640533,0.4269194006919861,-1.4133989810943604,0.3026050925254822,-0.004882055334746838,-0.2972186505794525,-0.3381217420101166,-0.6715388298034668,-0.37014490365982056,-0.21339313685894012,-0.13747194409370422,-0.6897187232971191,0.04996687173843384,0.38156986236572266,1.2555514574050903,0.2374396175146103,-0.502682626247406,0.6875316500663757,-0.31302228569984436]},"cellActivationMatrix":{"rows":20,"columns":30,"weights":[2.14740252494812,-0.4248804748058319,-1.0532383918762207,2.4309585094451904,-0.10193966329097748,-0.39861422777175903,1.9851588010787964,-0.6303735375404358,-1.0872738361358643,0.8144458532333374,-0.12070358544588089,-0.4151136577129364,0.0807194709777832,0.06325910240411758,-0.1504521518945694,-0.38184159994125366,-0.1438051164150238,0.7168028354644775,0.758240818977356,1.4856595993041992,0.7043237686157227,0.20570935308933258,1.1493358612060547,-0.23066778481006622,-0.09648428112268448,-0.8411392569541931,-0.7447999119758606,-0.9190362691879272,-0.41670238971710205,-0.6052290797233582,1.0520401000976562,-1.0518766641616821,-0.12465760111808777,-0.24233485758304596,0.06739028543233871,-1.4705307483673096,-0.14073388278484344,-0.6067174673080444,-0.5018932223320007,-1.2082059383392334,-0.8852920532226562,-0.8626474142074585,-1.1117980480194092,0.07919010519981384,0.7437534332275391,-0.43135952949523926,-1.2172019481658936,0.7867303490638733,1.4052821397781372,-1.976129174232483,0.42521366477012634,1.6534512042999268,0.48806264996528625,-1.7529159784317017,-0.03341563045978546,0.4645593762397766,-0.27957722544670105,-1.094249963760376,-1.5167828798294067,0.2292424887418747,0.5064654350280762,-0.5033755302429199,0.06966254115104675,1.5425454378128052,0.31925836205482483,-0.6946411728858948,-0.00805297214537859,-0.8638249039649963,0.20324325561523438,1.485906720161438,0.2674979567527771,0.3027385175228119,0.7345588207244873,0.6930441856384277,0.2915392518043518,-0.5258005261421204,1.2053121328353882,0.4564988315105438,0.8505763411521912,1.8713939189910889,0.031041206791996956,-0.1820710003376007,-0.48779842257499695,-0.9669883847236633,0.16176646947860718,-0.9642554521560669,-1.5352545976638794,0.4700504243373871,-0.5310095548629761,-0.14828069508075714,0.4439358711242676,-0.059527333825826645,0.061001747846603394,2.99757719039917,-0.7232745885848999,-0.1695665717124939,-0.26936379075050354,-0.6607427597045898,-0.9681163430213928,0.2689211368560791,0.39501240849494934,0.09194733202457428,-0.9145827889442444,-0.599182665348053,1.0682129859924316,-0.3768947124481201,0.5760524272918701,0.35940805077552795,0.8037235140800476,0.23850391805171967,0.43408557772636414,-0.22667261958122253,-0.38423317670822144,-1.127459168434143,-0.3413701355457306,-0.6932308077812195,-0.6437653303146362,-0.10357329994440079,-0.22947795689105988,0.10728985071182251,0.4230739176273346,-1.0010260343551636,-0.7499147653579712,1.436545968055725,-0.5240375995635986,-1.1813169717788696,1.707694411277771,-0.5694018602371216,-0.9662483930587769,0.34212732315063477,0.5486507415771484,-0.004851802252233028,0.45146042108535767,0.3718941807746887,-0.03079683519899845,-0.8586452603340149,-0.44662153720855713,0.38986507058143616,-0.5181624889373779,0.47802966833114624,-0.587196409702301,-0.4245694577693939,0.3621290326118469,0.028806468471884727,0.19287148118019104,-0.9971465468406677,-0.20274923741817474,0.5422354340553284,-1.3447462320327759,-0.3550153374671936,-0.7732951045036316,0.9583459496498108,-0.07252242416143417,-2.7062058448791504,-0.41785070300102234,0.99116051197052,-0.6034442782402039,-0.37664636969566345,0.6812739968299866,-0.517696738243103,-0.7480059862136841,-0.24693739414215088,-0.860371470451355,-0.9429445266723633,0.5524947643280029,-0.48295170068740845,-0.9196924567222595,-0.381802499294281,0.16585344076156616,-0.7437356114387512,0.3265339136123657,0.5532147288322449,-0.5357944369316101,-0.2913208603858948,-1.223386287689209,2.47649884223938,0.28196534514427185,0.2552226185798645,0.5074853301048279,0.161774143576622,-0.9801814556121826,-0.9498294591903687,-0.6146148443222046,-1.002576231956482,-0.5082590579986572,-0.932920515537262,-0.477629691362381,0.060989703983068466,1.122487187385559,-0.9784044027328491,-0.5212316513061523,0.7487002015113831,-0.3367651104927063,-0.18033739924430847,-0.5254071354866028,0.633301317691803,0.20681129395961761,0.9912417531013489,-0.4228193163871765,-1.6287552118301392,-0.0023120352998375893,0.514644980430603,-0.6355621814727783,0.33200085163116455,-0.04633937031030655,-0.6962754130363464,-0.30359697341918945,0.2352064549922943,-1.350606918334961,-0.2309921532869339,-0.6226423978805542,0.3764914274215698,0.3745875954627991,-0.8493881225585938,-0.005115197505801916,0.47510242462158203,-1.1571061611175537,-0.003348293714225292,-0.015814540907740593,-1.2767117023468018,-0.25264430046081543,0.509894847869873,0.6339672803878784,-0.6367934942245483,0.30629491806030273,-0.4468759000301361,-0.49380090832710266,-0.2836320400238037,1.4591552019119263,-2.8539609909057617,-0.45950132608413696,0.6648105978965759,-1.0670679807662964,-1.088585376739502,-0.7179299592971802,0.6088964939117432,0.42081528902053833,0.8016389608383179,0.5582348108291626,0.6632875204086304,-1.2343741655349731,0.6005681753158569,0.8137882351875305,-1.1096694469451904,0.22999408841133118,0.30324119329452515,-2.1648612022399902,0.6812863349914551,1.0838019847869873,-1.1620107889175415,0.5024502873420715,0.46187901496887207,0.2971858084201813,-1.5372636318206787,-0.08176112920045853,-0.25057148933410645,-0.06865929067134857,0.49074026942253113,0.503632664680481,-0.9957910180091858,0.03280605375766754,-0.15905047953128815,-0.8158193230628967,-1.3645342588424683,-1.6335035562515259,-0.17778587341308594,-0.21153469383716583,0.3900051414966583,0.1577235460281372,0.31536364555358887,0.55608069896698,0.03802398219704628,0.4108659625053406,-1.0404045581817627,0.008327540010213852,0.0018386399606242776,0.24318315088748932,1.723024606704712,-0.8647623062133789,0.06342969089746475,0.8122071623802185,-1.4849826097488403,0.1461140364408493,0.2256602793931961,0.5746793150901794,-1.0780088901519775,-0.5483701825141907,-0.03583117574453354,0.04722452536225319,-0.3921435475349426,0.5596562027931213,-0.4425533711910248,0.6934927105903625,-0.2701353132724762,0.4470735788345337,0.0899994969367981,0.3218174874782562,-1.3718451261520386,0.02016441710293293,-0.9808314442634583,-0.06843594461679459,-0.2750905454158783,-0.08411622047424316,-0.7205342650413513,-0.3589378595352173,-0.03963127359747887,-0.3528936207294464,-0.7482392191886902,-0.44832533597946167,-1.1952165365219116,-1.4594885110855103,0.05468352511525154,-1.5591429471969604,-0.02880418673157692,1.1946665048599243,0.8253296613693237,-0.6033703684806824,-0.20260865986347198,0.7453342080116272,-0.9087058901786804,0.4138248562812805,1.9731817245483398,-0.2243044227361679,-0.1530403345823288,-0.15104208886623383,1.0075790882110596,-0.4230940043926239,0.6902371644973755,0.1567239761352539,1.0180044174194336,-1.0934048891067505,0.38383224606513977,-0.1323787122964859,-0.42790576815605164,0.6023144125938416,0.4219731092453003,-1.34865403175354,0.7870233058929443,2.339890718460083,0.43096038699150085,0.3268641233444214,0.4859131872653961,0.6736066937446594,-0.6263100504875183,-1.0873147249221802,0.5947939157485962,1.3605914115905762,-0.031195513904094696,0.09978696703910828,-0.5121649503707886,-0.7528554201126099,-0.13780511915683746,-1.3148813247680664,0.3713706135749817,-0.8125131130218506,-1.4170401096343994,0.6567730903625488,0.8380433917045593,0.11848526448011398,-0.18099422752857208,1.0546647310256958,0.5185548067092896,0.49051564931869507,0.8346499800682068,-0.16305407881736755,0.30094125866889954,1.4694949388504028,0.09700946509838104,-1.714267373085022,1.8138803243637085,-0.9715036153793335,-0.9513227343559265,-0.3924800753593445,1.4672907590866089,0.3664685785770416,-0.6079436540603638,-0.5747887492179871,-0.22103452682495117,0.4330887794494629,2.5872926712036133,-0.0508173331618309,-0.33919358253479004,0.07576408982276917,-0.26246771216392517,1.4101392030715942,1.5268163681030273,-0.42877012491226196,0.02947055920958519,0.3488551378250122,-0.754424512386322,2.2060346603393555,-1.2765597105026245,-0.19778521358966827,-1.1425915956497192,-0.46352866291999817,-1.6151925325393677,0.3909812271595001,0.468431293964386,-0.16417010128498077,-0.45272204279899597,-0.052997589111328125,-0.9141199588775635,-0.29848140478134155,0.5724603533744812,0.9872637391090393,-0.023517249152064323,-1.3534691333770752,0.45184725522994995,1.2055243253707886,-1.0216283798217773,0.4222760796546936,1.3594262599945068,0.0812881588935852,-1.7680288553237915,0.7389506697654724,0.2440977841615677,-1.1643648147583008,-1.4014455080032349,-0.8036867380142212,-0.35040536522865295,1.2872830629348755,-0.45982372760772705,-0.17427174746990204,1.258973479270935,1.0848392248153687,-0.7330054044723511,0.6680343151092529,0.5073440074920654,-0.7949172258377075,-0.008121038787066936,0.41094541549682617,-0.7606329917907715,-0.5423669219017029,0.8484559059143066,-0.2788907289505005,1.439197063446045,0.17571550607681274,0.9978383183479309,-0.36706092953681946,1.3051695823669434,1.182648777961731,0.21070753037929535,1.1255604028701782,0.274150013923645,0.9472399353981018,-0.7853032350540161,-0.5909321308135986,-0.950817346572876,-1.1093603372573853,-0.5758817791938782,-0.7123051881790161,0.8432298898696899,1.1894025802612305,-1.6979475021362305,-0.43258294463157654,1.1508663892745972,-0.4308986961841583,0.7899852991104126,-0.019823720678687096,-1.19180428981781,0.6782657504081726,-0.987266480922699,-0.28299394249916077,0.3027382493019104,1.7095446586608887,1.2848927974700928,-0.48086199164390564,-0.19025343656539917,-0.13251252472400665,-0.5164549350738525,0.2066405713558197,-0.6003122925758362,-0.234108567237854,-0.04111110046505928,0.3225448429584503,1.322531819343567,0.3992801904678345,-0.6765260696411133,1.2831894159317017,-0.4592820107936859,-0.07629914581775665,-0.429899662733078,-1.1682610511779785,-0.4953199625015259,-0.5895788073539734,-0.5618849992752075,-0.4011192321777344,-0.7410529255867004,0.2634047567844391,-1.414373517036438,-1.4339549541473389,1.1152442693710327,-1.3258869647979736,-0.280961275100708,0.8757510781288147,1.5082409381866455,-0.679078221321106,0.14149700105190277,-0.0779399648308754,-2.2511205673217773,0.416602224111557,1.1984920501708984,-0.7172585725784302,1.3180044889450073,-0.049841031432151794,0.1989583820104599,-0.1548886001110077,0.1269756555557251,-0.06285808235406876,1.1000235080718994,-0.23111380636692047,-0.8123335838317871,-0.7646029591560364,-2.042576789855957,0.19614169001579285,-0.6521211862564087,-0.4099453389644623,-0.038457583636045456,1.7043176889419556,-1.789313793182373,0.10509083420038223,0.4484967887401581,0.45405635237693787,-0.7137273550033569,-0.2543022930622101,0.2056054323911667,-0.2544806897640228,0.22736874222755432,0.49787068367004395,-2.4001970291137695,0.2122979462146759,0.3703722357749939,0.22720341384410858,-0.9269323348999023,-0.5103053450584412,-1.1317120790481567,0.5957659482955933,0.5782455205917358,-0.9343333840370178,0.4641544818878174,-0.7099837064743042,-1.2093532085418701,-1.4535212516784668,0.0576496347784996,0.12637509405612946,-0.4883671700954437,0.1761830896139145,1.0710052251815796,0.060657475143671036,-1.5435668230056763,0.5603065490722656,1.9578355550765991,-0.5013951659202576,0.024660319089889526,0.8908544778823853,0.21026349067687988,-0.6992563605308533,0.08541567623615265,-1.542405366897583,-2.2114789485931396,1.0814902782440186,0.7099255323410034,-2.6426467895507812,1.5617705583572388,-0.2513523995876312,-0.9717904925346375,0.9926111698150635,1.0398390293121338,-0.7328893542289734,0.6950430274009705,-0.12270965427160263,-0.23533867299556732,-0.8430181741714478,-0.504485547542572,-1.2913851737976074,-0.2780776619911194,-0.44230976700782776,-1.092553973197937,-0.16891422867774963,-1.2487953901290894,-0.8398367166519165,0.8135087490081787,-1.0021637678146362,-0.363267183303833,1.019083023071289,0.5529442429542542,-0.015217022970318794,0.8620010018348694,-0.23415595293045044,-0.5695242881774902,0.16864369809627533,0.8473235964775085,-1.7773932218551636,0.42445313930511475,-0.4127911925315857,-0.18500502407550812,-0.5632573962211609,0.8001639246940613,0.054692160338163376,2.0309438705444336]},"cellActivationHidden":{"rows":20,"columns":20,"weights":[0.002869215328246355,-0.0039693573489785194,-1.102318525314331,0.4599746763706207,-0.779910683631897,-0.5259382128715515,0.1640591323375702,0.3320818841457367,-0.23034311830997467,1.1590344905853271,1.1525102853775024,1.4789783954620361,-0.023003268986940384,-0.677960991859436,-0.9957772493362427,0.8640058040618896,1.4148114919662476,0.8027513027191162,0.8431336879730225,0.7929193377494812,0.1366729438304901,0.5988203883171082,0.06771886348724365,1.7527728080749512,0.22943653166294098,-1.5330560207366943,-0.4741445481777191,0.5270272493362427,0.3015076220035553,0.4278046488761902,0.2641717791557312,-0.020154820755124092,1.2189631462097168,0.6541157960891724,0.19679144024848938,-1.6124076843261719,-0.1415640264749527,-0.8425163626670837,0.019206853583455086,0.027450522407889366,-0.3862334191799164,-1.5819119215011597,0.8037880063056946,0.25890928506851196,0.09478316456079483,0.10515636950731277,0.18972638249397278,-1.5810102224349976,0.4329710006713867,-0.8551077842712402,-0.09652837365865707,-0.12156558781862259,-0.5779291391372681,-0.8686728477478027,0.4508175551891327,-0.5312752723693848,-1.1595560312271118,0.251747190952301,-0.9567164182662964,-1.2997685670852661,-0.9271605610847473,-0.7664974927902222,-0.8432918190956116,-1.295969009399414,-1.1942873001098633,1.7261967658996582,-1.268676519393921,0.31876593828201294,-0.3783092498779297,0.9638132452964783,-0.7951576113700867,0.1221410483121872,-0.6336991786956787,-1.052519679069519,-1.6301846504211426,1.3072235584259033,-0.5611332654953003,0.10665374994277954,-0.21958427131175995,0.5608584880828857,-1.9159762859344482,-1.6699516773223877,0.73081374168396,-2.131782293319702,-0.0639011412858963,0.9702728986740112,1.2634098529815674,-1.6145015954971313,1.1201088428497314,-0.8182608485221863,-0.6562293171882629,0.7158265709877014,-0.26820966601371765,-1.8229247331619263,0.12301565706729889,-0.31549912691116333,-0.839808464050293,-0.02968536876142025,0.3171943724155426,-0.6226884126663208,0.6333433985710144,0.7590803503990173,0.048508625477552414,1.0645134449005127,0.06142303720116615,-1.316070318222046,-0.5641145706176758,0.9308595657348633,-0.5254395604133606,-0.12280677258968353,0.3435535132884979,-0.5332716107368469,1.2681652307510376,1.6044684648513794,0.9744964838027954,-0.5875967144966125,-0.018009690567851067,-1.6010863780975342,-1.4848122596740723,0.5459354519844055,0.40052640438079834,-0.8139449954032898,0.9194046258926392,0.4377174377441406,1.000337839126587,0.12774910032749176,0.40058252215385437,-0.13110069930553436,0.5497037172317505,-1.054867148399353,-0.7850090265274048,0.43855321407318115,-0.4483860731124878,-0.4830372631549835,-0.4181244373321533,-0.23703156411647797,-0.5836353898048401,0.7747384905815125,0.4005676805973053,-0.34085944294929504,0.048251017928123474,-0.4654923677444458,-0.7860845327377319,1.0872005224227905,-0.96197110414505,-0.7944513559341431,-0.6170019507408142,0.5658275485038757,-0.008434684947133064,1.4241721630096436,-0.16004039347171783,1.752864122390747,0.3375331163406372,-0.8462372422218323,-0.8427079916000366,2.059011220932007,-0.2706508934497833,0.14646925032138824,-0.15914836525917053,-0.37941989302635193,1.0707528591156006,0.4453689754009247,-0.9287742376327515,0.5010677576065063,-0.9497116804122925,-0.5953835844993591,-0.8786782622337341,-0.2246808111667633,-0.8589430451393127,1.7091987133026123,0.5986379384994507,0.6755599975585938,0.8420944809913635,0.03148709610104561,0.3558304011821747,1.4422621726989746,-0.5253188014030457,-0.6058437824249268,-0.6063100099563599,-0.8331635594367981,0.35208621621131897,1.264357566833496,-1.2199594974517822,-0.6685636639595032,-0.9131278395652771,0.1727558970451355,0.39990463852882385,1.2245159149169922,0.939263105392456,1.5518763065338135,1.5312501192092896,-0.7451472878456116,-1.258151650428772,1.4225372076034546,-1.408369541168213,0.5584982633590698,0.7664186358451843,-0.003097419859841466,0.7016023397445679,1.873183250427246,0.00426899641752243,-0.256072074174881,-0.47746965289115906,1.3461010456085205,-0.8517544865608215,0.8353099822998047,-1.4191839694976807,0.261827290058136,-1.1723450422286987,0.7380001544952393,-0.7362011075019836,-0.1482781618833542,0.9646070003509521,0.30808505415916443,1.3907948732376099,0.5434833765029907,-1.1166926622390747,-1.3322755098342896,-1.015290379524231,-1.0468426942825317,1.3756846189498901,-0.04147980362176895,-0.4080018997192383,0.3774188756942749,-0.7658548951148987,0.2641151547431946,-1.2256107330322266,-1.104642629623413,-0.22226987779140472,1.0160564184188843,-1.4305061101913452,-0.8394250273704529,1.411707878112793,-0.8376349210739136,0.13090206682682037,0.8766811490058899,-1.2436754703521729,-1.1302299499511719,-2.344482898712158,-0.8263246417045593,-0.7355654835700989,-1.84368097782135,0.10385880619287491,-0.1722998172044754,0.49361369013786316,1.3049782514572144,-0.45079535245895386,-0.7527583241462708,-1.2393542528152466,-0.2629314661026001,-2.414982318878174,-1.4708667993545532,-0.45159777998924255,-1.555989384651184,-0.3641369342803955,0.24620521068572998,-0.27675703167915344,-0.2523099184036255,-1.0995535850524902,-0.5632889270782471,0.5101080536842346,-0.08086331188678741,-0.37760770320892334,1.653602123260498,-0.5176175832748413,-0.8327732086181641,-0.3909532427787781,0.06777016818523407,0.560822069644928,0.690089225769043,0.9032292366027832,0.34270179271698,1.1598379611968994,-0.19169825315475464,0.1655740588903427,0.001214009360410273,-0.15607835352420807,-1.3269824981689453,-0.031173069030046463,0.27005624771118164,0.4480355381965637,0.8847330808639526,-0.21316580474376678,0.3865434527397156,0.16093456745147705,0.48980605602264404,-0.4144457280635834,-0.24079389870166779,-0.1913166493177414,-0.9064399600028992,0.9458218812942505,-0.688863217830658,-0.0835469588637352,0.5890200734138489,-0.5650768280029297,-1.3368364572525024,0.7666447758674622,0.15298563241958618,-1.1523182392120361,-0.5645545125007629,-0.1472712904214859,3.136218309402466,-0.9735575914382935,-0.5607827305793762,-1.1842026710510254,-2.035208225250244,0.9819847345352173,0.12943202257156372,0.4607161581516266,1.157568097114563,0.17955072224140167,-0.1727595329284668,0.6551201343536377,1.8445098400115967,0.22515250742435455,-0.019675908610224724,-0.09561023861169815,-1.3910249471664429,-1.3149415254592896,-0.2723895311355591,0.8837562799453735,0.3517817556858063,0.03611772879958153,0.7460486888885498,0.19231705367565155,0.021547872573137283,0.4680602550506592,2.4887304306030273,1.5097739696502686,1.3981541395187378,0.08254281431436539,1.6500130891799927,0.6871196627616882,0.7784721255302429,-0.5319616794586182,0.4394099712371826,0.8193153738975525,-0.024899672716856003,0.354587584733963,-0.4255025088787079,0.4678206741809845,1.1641459465026855,0.3166801631450653,0.6982510089874268,0.37829211354255676,-0.34447282552719116,-0.12342537194490433,1.1196411848068237,1.4088082313537598,-0.362284779548645,1.112656831741333,0.35177314281463623,0.6019954681396484,1.2729177474975586,-0.39718934893608093,0.2631933391094208,-0.7480260729789734,0.8533641695976257,1.012168049812317,-0.34362807869911194,0.6007291078567505,-0.2876857817173004,0.7349872589111328,0.33861592411994934,0.8279386758804321,0.09728565067052841,-0.1599489152431488,0.36495381593704224,-0.38088130950927734,-0.7735375165939331,0.3708765208721161,-0.4213925004005432,-1.060894250869751,-0.6911947727203369,-0.42775076627731323,-1.1279202699661255,0.08404356241226196,-0.2994484305381775,-0.9084171652793884,0.10887784510850906,-0.1607988327741623,0.14719979465007782,0.030797196552157402,0.5009273886680603,-0.11352692544460297,0.014889447018504143,0.22029894590377808,0.6574535965919495,-0.08079547435045242,0.21669302880764008,0.8140242695808411,0.5831729769706726,0.3143797218799591,0.21333371102809906,0.15316222608089447,0.2982618808746338,-0.012417474761605263,0.00796925462782383,0.2298927754163742,0.07022782415151596]},"cellActivationBias":{"rows":20,"columns":1,"weights":[-0.10757941752672195,0.503894031047821,0.07475744932889938,0.8101868629455566,-0.23855635523796082,1.0004444122314453,-0.33809641003608704,0.31854045391082764,-0.5481741428375244,-0.5573987364768982,0.019633863121271133,0.7648615837097168,0.09325950592756271,-0.14587026834487915,-0.15290503203868866,0.8646590709686279,-0.7529690861701965,-0.36184924840927124,-1.1409229040145874,-0.4854190945625305]}},{"inputMatrix":{"rows":20,"columns":20,"weights":[-0.04019712284207344,3.268458604812622,1.7905948162078857,1.6055716276168823,1.3962607383728027,4.123422145843506,-2.62662672996521,2.3173961639404297,