{"type":"LSTM","options":{"inputSize":34,"inputRange":34,"hiddenLayers":[20,20],"outputSize":34,"decayRate":0.999,"smoothEps":1e-8,"regc":0.000001,"clipval":5,"maxPredictionLength":100,"dataFormatter":{"indexTable":{"2":26,"i":0,"t":1,"c":2,"h":3,"n":4,"g":5,",":6,"s":7,"k":8,"_":9,"r":10,"a":11,"o":12,"d":13,"l":14,"e":15,"u":16,"p":17,"m":18,"F":19," ":20,"I":21,"f":22,"w":23,"y":24,"v":25,"T":27,"B":28,"-":29,"b":30,"stop-input":31,"start-output":32,"unrecognized":33},"characterTable":{"0":"i","1":"t","2":"c","3":"h","4":"n","5":"g","6":",","7":"s","8":"k","9":"_","10":"r","11":"a","12":"o","13":"d","14":"l","15":"e","16":"u","17":"p","18":"m","19":"F","20":" ","21":"I","22":"f","23":"w","24":"y","25":"v","26":"2","27":"T","28":"B","29":"-","30":"b","31":null,"32":null,"33":null},"values":[{"input":"itching,sking_rash,nodal_skind_eruption,dischromic_patches","output":"Fungal Infection"},{"input":"skin rash, nodal skin ","output":"software"},{"input":"i need a new power supply","output":"hardware"},{"input":"the drive has a 2TB capacity","output":"hardware"},{"input":"unit-tests","output":"software"},{"input":"program","output":"software"},{"input":"power supply","output":"hardware"},{"input":"drive","output":"hardware"},{"input":"it needs more memory","output":"hardware"},{"input":"code","output":"software"},{"input":"i found some bugs in the code","output":"software"},{"input":"i swapped the memory","output":"hardware"},{"input":"i tested the code","output":"software"},{"input":"i love computers","output":"hardware"},{"input":"programming","output":"software"},{"input":"i broke my pc","output":"hardware"},{"input":"computer","output":"hardware"},{"input":"buy me a laptop","output":"hardware"},{"input":"i love to play games","output":"software"}],"characters":["i","t","c","h","n","g",",","s","k","_","r","a","o","d","l","e","u","p","m","F"," ","I","f","w","y","v","2","T","B","-","b","stop-input","start-output","unrecognized"],"specialIndexes":[31,32,33]}},"trainOpts":{"iterations":2000,"errorThresh":0.005,"log":false,"logPeriod":10,"learningRate":0.01,"callbackPeriod":10,"timeout":"Infinity"},"input":{"rows":35,"columns":34,"weights":[1.0769166946411133,0.9269125461578369,1.1748602390289307,0.04087148979306221,-1.1404563188552856,-1.6520905494689941,-0.06255823373794556,-1.2139756679534912,1.9690572023391724,-2.9654524326324463,-1.1570683717727661,1.779118537902832,3.351797342300415,-0.4988914430141449,0.1717279702425003,1.564255714416504,-0.3081325590610504,-0.051587555557489395,1.100089192390442,0.41794174909591675,-0.20564618706703186,1.02566659450531,-1.4062798023223877,1.7842457294464111,0.8372622728347778,0.098980613052845,1.720845341682434,-1.4821105003356934,-1.705734372138977,-0.7545132637023926,-0.2747783064842224,-0.01855570822954178,-0.2726562023162842,-1.1387691497802734,0.6876474022865295,1.2301265001296997,-0.9341572523117065,-0.01800122670829296,-0.6438037753105164,-0.6926607489585876,1.6806187629699707,1.5592635869979858,-0.6354143619537354,3.1840147972106934,-0.6815767884254456,-2.991222620010376,-5.230883598327637,-1.742222785949707,1.6145274639129639,-0.005163348279893398,-0.32615944743156433,2.6873273849487305,0.21998152136802673,-2.0389320850372314,0.6836501359939575,0.7475270628929138,-0.534519612789154,2.6558666229248047,-1.3483996391296387,1.2643029689788818,0.07414809614419937,1.5705007314682007,3.6436100006103516,-1.946848750114441,0.26401421427726746,0.12362004071474075,-0.6452006697654724,-1.0673840045928955,-0.5191677212715149,0.22726713120937347,0.0292713213711977,-0.26720231771469116,0.23815593123435974,-0.28267207741737366,-0.4764226973056793,-0.08234839886426926,-0.19277560710906982,-1.3011984825134277,-0.4106675386428833,-0.043923135846853256,-1.2249919176101685,0.63416987657547,-1.1241960525512695,0.7393877506256104,0.506683349609375,-0.3779109716415405,1.564084768295288,-0.2582254111766815,-0.08587558567523956,-1.127379059791565,-0.7088444232940674,-0.22643350064754486,0.38303810358047485,-0.14677409827709198,1.3645901679992676,-1.1655189990997314,-0.42223504185676575,0.2265537828207016,4.396978378295898,-0.6716634035110474,1.1546839475631714,0.5737329721450806,1.6054784059524536,-4.185016632080078,1.6323565244674683,-3.4375722408294678,-0.7956491708755493,0.31445786356925964,-0.9860496520996094,0.5519338250160217,0.3108518421649933,-0.2523603141307831,-3.3426833152770996,0.3611462414264679,-3.332606792449951,-0.524246871471405,0.5614672303199768,0.5976575613021851,6.940535068511963,2.1752867698669434,2.0217838287353516,-3.3243424892425537,-2.015878677368164,-0.2555502951145172,0.2509436309337616,0.9023140072822571,0.7229747176170349,-0.4171448051929474,3.3832032680511475,-0.5257441997528076,-4.228236675262451,-4.492183208465576,-1.2815462350845337,1.2471622228622437,-3.2341718673706055,2.8781557083129883,0.10773401707410812,-0.8100083470344543,0.43419086933135986,2.0082287788391113,0.7300641536712646,-2.4561429023742676,-0.7757802605628967,-4.068387031555176,1.1179628372192383,-0.995711088180542,-2.376095771789551,5.084325313568115,1.4661504030227661,-1.0812846422195435,-4.300711154937744,0.4932849705219269,-1.1702611446380615,1.5644997358322144,-1.5738253593444824,1.2792911529541016,-0.3988332748413086,-0.5092354416847229,-1.087295651435852,-0.5244333744049072,0.07320915907621384,0.6144774556159973,-0.1341005265712738,-1.0028553009033203,-1.5380041599273682,1.1524198055267334,0.6384231448173523,2.881556272506714,-0.18519599735736847,0.6234906911849976,-0.6074938178062439,-0.03190010413527489,2.7244179248809814,3.9955015182495117,0.4141871929168701,-5.3441481590271,-0.7151417136192322,-4.112216472625732,-2.1859323978424072,-1.639540195465088,-6.456345081329346,-0.4588857591152191,-2.009044885635376,3.9422338008880615,3.657003879547119,1.156011700630188,-1.8451642990112305,-0.3286253809928894,3.746121883392334,1.3681684732437134,-5.42608118057251,-5.407566070556641,-2.9794270992279053,2.0396344661712646,2.95621919631958,2.057249069213867,0.32962605357170105,-1.8388174772262573,1.2313038110733032,2.928659200668335,-0.15660430490970612,3.876890182495117,0.4181651771068573,-2.0902278423309326,0.2553635239601135,0.8232022523880005,-5.012753009796143,1.2365977764129639,-1.2138646841049194,1.3038431406021118,1.0609900951385498,-0.9972283244132996,3.8796041011810303,-3.8487367630004883,-1.9417921304702759,3.6142494678497314,0.17967794835567474,-5.156102657318115,-4.698220252990723,5.489201068878174,-1.2464053630828857,4.860764503479004,3.7028069496154785,1.1466913223266602,-2.8856866359710693,-0.21684540808200836,-2.342442274093628,5.643167018890381,5.293726444244385,-0.07586634159088135,0.0018648471450433135,-4.4458513259887695,1.035540223121643,-2.8085877895355225,-2.9518091678619385,2.773489236831665,-1.9403802156448364,-2.796687126159668,-0.4340370297431946,3.336770534515381,5.745710372924805,0.8503143191337585,5.288167953491211,-7.573669910430908,-5.087064266204834,-7.02943754196167,0.3618795573711395,-6.536391258239746,-6.21646785736084,0.40239253640174866,8.772500991821289,-1.7303307056427002,2.168956756591797,16.194759368896484,-2.162461996078491,-3.89050030708313,2.2240283489227295,3.1296815872192383,9.070810317993164,-5.1019158363342285,-14.497163772583008,-3.051227331161499,13.40895938873291,-1.0376073122024536,2.054368495941162,-11.006821632385254,0.4459339678287506,-2.221214532852173,7.0352935791015625,-1.2430450916290283,2.0744664669036865,-0.6156780123710632,-0.22610802948474884,1.562080979347229,-0.7660537362098694,0.3215141296386719,-0.9741316437721252,0.9899752736091614,0.5709282159805298,0.3880603015422821,-1.4852604866027832,0.45131197571754456,1.537256121635437,-1.1960428953170776,-0.764545738697052,1.0877898931503296,2.486035108566284,-3.0416133403778076,-1.7895056009292603,-0.15581859648227692,-1.5129326581954956,0.9760653376579285,-1.2393985986709595,-1.8002804517745972,-1.1420294046401978,-1.8391824960708618,-3.2820587158203125,0.9285104870796204,-1.0544146299362183,3.524705648422241,1.0640509128570557,1.0944600105285645,0.29728958010673523,-0.26118549704551697,1.106872320175171,-1.099278211593628,-5.036098480224609,1.979788899421692,0.35722118616104126,-1.854968786239624,-0.23429998755455017,-0.5320694446563721,-5.506706237792969,3.4026880264282227,-3.0987322330474854,3.3843774795532227,4.746923923492432,-3.5663228034973145,4.020689964294434,3.3728697299957275,3.3648250102996826,-0.47721216082572937,-4.192656517028809,1.3074443340301514,1.5555402040481567,-2.152235746383667,3.315333366394043,0.026186829432845116,-2.606492042541504,-4.978543281555176,-3.583549976348877,0.6130836606025696,-7.742849826812744,3.7956275939941406,7.531869888305664,-5.576972961425781,-0.7934303283691406,-3.3683154582977295,6.167739391326904,3.3761065006256104,-0.586827278137207,10.428118705749512,-5.9681196212768555,9.075976371765137,-2.8809189796447754,5.359499454498291,16.963581085205078,0.6839942336082458,-0.6354719400405884,-6.731690883636475,7.943933486938477,-6.644837856292725,1.5167618989944458,-0.14712730050086975,3.3338184356689453,3.6217422485351562,-12.588594436645508,3.8069043159484863,-7.015558242797852,15.50512981414795,1.0344735383987427,-5.897402286529541,-10.056397438049316,7.183364391326904,9.204141616821289,0.9121371507644653,4.9964280128479,-6.456948280334473,-3.1488749980926514,16.607187271118164,11.087668418884277,8.924256324768066,5.260684013366699,-19.73672103881836,0.7842785120010376,0.3822024166584015,-0.93871009349823,-0.15597748756408691,0.6254766583442688,0.043686579912900925,0.29115623235702515,-1.0017571449279785,0.6643433570861816,0.08677185326814651,-0.2990889847278595,0.9791635870933533,-3.2071332931518555,-1.2182998657226562,-0.1889086663722992,0.8211830258369446,1.1033381223678589,0.3345593214035034,-0.14148345589637756,0.5982178449630737,0.3407195806503296,-0.28930404782295227,-0.6408836841583252,-0.2438303530216217,-0.27271267771720886,0.8298643827438354,0.7584757208824158,-0.4143301248550415,-0.2686578035354614,-0.10826043039560318,1.6250208616256714,-0.12663255631923676,-0.18869368731975555,-0.2643272876739502,0.1963939070701599,0.16833750903606415,0.0934237390756607,0.7382306456565857,-0.034155480563640594,-0.10400118678808212,0.6430187225341797,-0.635797381401062,-0.03921014815568924,-0.32530876994132996,0.13722394406795502,-0.020143069326877594,-0.545191764831543,0.4460461735725403,0.7872512936592102,1.6498711109161377,-0.8618969917297363,0.7349885106086731,-1.1631097793579102,0.5378827452659607,0.20639587938785553,-0.48194992542266846,0.4514787197113037,1.157832384109497,1.9901392459869385,0.41949501633644104,1.5873867273330688,-2.0047879219055176,-0.3841475546360016,1.2429382801055908,0.7000791430473328,0.4055246114730835,0.1808772087097168,-1.2394758462905884,0.19974198937416077,1.8060213327407837,-0.6618309020996094,0.4801691472530365,-1.3480772972106934,0.765303909778595,0.3390254080295563,-0.16329340636730194,-1.1622225046157837,0.6133012771606445,-0.21035122871398926,0.07269039005041122,0.16603638231754303,0.17915400862693787,0.10285669565200806,-0.5875654220581055,-2.7062017917633057,-2.48640513420105,-1.3885074853897095,1.7624335289001465,1.852301836013794,-2.1319081783294678,-1.4013433456420898,0.8926948308944702,-0.8614553809165955,0.9571338891983032,-0.5873996615409851,1.5335406064987183,0.027067409828305244,0.25863268971443176,1.5003015995025635,-1.1313892602920532,0.47676318883895874,-1.6563540697097778,-0.013334637507796288,2.3790032863616943,-1.7085697650909424,-0.8220332860946655,-1.4197945594787598,0.992273211479187,0.8015721440315247,0.4567500054836273,0.6690016984939575,-2.104515790939331,1.7560195922851562,1.954573154449463,3.1882336139678955,-3.3496246337890625,0.949653685092926,1.86117684841156,4.071186065673828,1.7506368160247803,1.5371648073196411,3.116898536682129,-0.001836346578784287,1.8955068588256836,-2.1448886394500732,3.853205680847168,1.2684977054595947,0.7294538617134094,0.4499908983707428,-1.5885727405548096,-0.8234942555427551,-1.4493714570999146,-0.753978431224823,-0.7240937352180481,0.11915075033903122,-0.6594499945640564,-3.8931703567504883,1.0875277519226074,-2.254288911819458,0.06048288941383362,-5.967350959777832,2.215090036392212,-2.228105306625366,3.2446916103363037,-0.29454678297042847,-0.2644295394420624,3.614593505859375,-5.384371757507324,-2.9709150791168213,1.1200332641601562,0.6863529682159424,0.20858187973499298,-4.029942512512207,0.7216870784759521,-1.367693305015564,-1.5762193202972412,5.315234661102295,1.6003599166870117,-2.546948194503784,-2.5429728031158447,0.7571462988853455,-1.835298776626587,-2.0287578105926514,-1.2118175029754639,5.57489013671875,-3.595663070678711,-1.8952339887619019,-3.7153592109680176,6.325417995452881,1.0556353330612183,0.39916500449180603,-0.769549548625946,-0.333492249250412,-0.1871405988931656,0.2476954162120819,-0.5746207237243652,0.8158328533172607,1.8998699188232422,0.2126428633928299,0.5565770268440247,0.5239690542221069,-0.516488254070282,-0.5896713733673096,-0.2582011818885803,-0.15755142271518707,1.2719632387161255,0.8003336191177368,1.5102500915527344,-0.1034732311964035,-1.5179647207260132,1.2200499773025513,0.9913203120231628,0.8708550930023193,-0.29255422949790955,1.3358944654464722,-1.7952702045440674,0.9571073651313782,-0.891227662563324,-0.582527756690979,-1.5889413356781006,0.26326194405555725,-0.8408291935920715,0.23244164884090424,0.31667405366897583,0.1955568641424179,-0.9958644509315491,2.17333722114563,-1.4046401977539062,-2.0515189170837402,3.026097536087036,-2.038132429122925,-0.04575202986598015,1.5085210800170898,3.262051820755005,5.371613025665283,-2.3300716876983643,-0.03205816075205803,0.912912130355835,4.698766231536865,-1.8224185705184937,4.942123889923096,-0.6732975840568542,-5.97921085357666,4.485274791717529,-1.2669438123703003,2.747386932373047,4.44462251663208,-0.22224846482276917,0.5713649988174438,-3.4314498901367188,0.7883262634277344,1.0208948850631714,4.192733287811279,-0.22469107806682587,-6.28157377243042,-4.4815497398376465,0.4630643427371979,0.9990019202232361,1.0706839561462402,-1.1438816785812378,2.4177069664001465,-0.858977198600769,0.3408512473106384,-0.46785902976989746,1.633696436882019,0.19706638157367706,0.2065044641494751,0.10276063531637192,0.5547593832015991,-1.3487827777862549,-2.7548813819885254,-1.8379275798797607,-1.1698493957519531,-0.27307039499282837,4.689229965209961,0.09759657829999924,2.219886064529419,-2.206566572189331,-2.7461113929748535,-1.4335644245147705,0.36582982540130615,-0.543445885181427,-0.7918924689292908,-0.019353758543729782,-0.214635968208313,0.374747633934021,0.6005436182022095,0.5201268792152405,1.8696224689483643,-1.0036922693252563,-1.447144627571106,3.425229549407959,-0.30746716260910034,-2.530225992202759,-1.130539059638977,-1.4696537256240845,2.418668746948242,0.961738646030426,-2.32086181640625,2.5969436168670654,-0.05397285148501396,3.3879213333129883,2.481989622116089,-1.6891409158706665,-2.6124260425567627,1.7026782035827637,-2.4023289680480957,-3.199540376663208,1.5207359790802002,-1.263855218887329,-0.8543593883514404,-2.110365152359009,0.2955102026462555,-0.04314156994223595,0.4129633605480194,-1.420186996459961,-2.5429840087890625,0.6366950273513794,-0.8678998351097107,2.905484914779663,2.3516881465911865,-0.2870168089866638,0.39029741287231445,-2.278423547744751,0.3323360085487366,1.5456864833831787,11.568163871765137,10.55040168762207,-1.2561516761779785,-0.20388714969158173,-0.04267964884638786,-0.015332823619246483,4.37855863571167,-1.0450857877731323,3.3417539596557617,1.2029529809951782,1.784361720085144,1.7551566362380981,1.9556066989898682,-10.628166198730469,-15.400065422058105,8.040735244750977,-10.044921875,-12.273307800292969,11.646828651428223,12.23794174194336,3.619685173034668,-9.153993606567383,-15.320616722106934,2.6173272132873535,6.492718696594238,-0.8255413770675659,5.81441593170166,-4.198177337646484,-8.541729927062988,-11.123522758483887,9.847683906555176,-9.150613784790039,-3.0736231803894043,-5.824767112731934,-2.4981131553649902,0.8472379446029663,2.409113883972168,3.6992783546447754,-0.9344033598899841,-2.894523859024048,-2.6957361698150635,-3.3395354747772217,0.13697467744350433,-3.286418914794922,0.1364382952451706,0.08665868639945984,4.100118160247803,-0.9370184540748596,2.4925570487976074,2.5584352016448975,-3.2029788494110107,2.0219528675079346,0.22802753746509552,1.666751742362976,1.7721574306488037,-0.0343741700053215,-2.65425968170166,1.1291881799697876,2.4077329635620117,1.6793559789657593,-1.7157483100891113,-2.5387799739837646,2.0256917476654053,0.882907509803772,-1.0982625484466553,1.266167163848877,2.9912281036376953,2.9613335132598877,-6.969086647033691,5.560753345489502,-10.075054168701172,-9.569913864135742,-2.887798547744751,0.2011759877204895,-5.385672569274902,3.490490436553955,-0.6611575484275818,0.4141257703304291,2.884005546569824,-9.40212631225586,-2.2199134826660156,0.3489778935909271,6.64882230758667,0.758173406124115,-1.7385972738265991,2.81313419342041,-1.0458022356033325,2.3849761486053467,13.271383285522461,-6.427431583404541,-12.58393669128418,-3.2338368892669678,2.904287815093994,-0.053395405411720276,-10.126246452331543,0.6704921126365662,5.264341354370117,-12.684844017028809,4.7639546394348145,-11.510093688964844,6.420300483703613,6.127863883972168,-4.211358070373535,1.8063048124313354,-2.8324713706970215,0.3683359920978546,-3.260859966278076,2.8727200031280518,-0.9801400899887085,3.0660274028778076,-1.2631280422210693,-1.329041600227356,3.479541778564453,-3.6350178718566895,-0.7398126721382141,0.0016046739183366299,0.1010255515575409,2.1581499576568604,-1.6697838306427002,1.3868260383605957,0.29903194308280945,0.6763759851455688,-0.13779021799564362,0.5225822925567627,0.5695651769638062,2.153045177459717,2.326836585998535,-0.7198972105979919,0.07928404957056046,-1.9205998182296753,3.848019599914551,1.0885920524597168,-1.0984914302825928,0.6428244113922119,3.3310294151306152,-1.848066806793213,-0.2543737292289734,0.20017218589782715,0.17506489157676697,-0.06424678862094879,3.999096155166626,-0.6961013078689575,0.18840309977531433,0.11598905920982361,0.39716190099716187,0.4982016682624817,0.07380884885787964,-0.5512782335281372,1.0405575037002563,-0.34630393981933594,0.5293556451797485,-0.15930669009685516,1.7595468759536743,0.1465071588754654,0.07531268894672394,0.6382144689559937,-0.9710743427276611,-0.26668795943260193,-0.6813189387321472,-1.406496286392212,-1.6018563508987427,0.5588249564170837,-0.9792981147766113,1.3592082262039185,0.9573370218276978,-0.04144487529993057,0.9636479616165161,-0.286663681268692,0.6741509437561035,0.4546680152416229,3.4684901237487793,-2.5681238174438477,2.637791156768799,-0.6297817826271057,-0.0793628841638565,-4.102902412414551,-2.4398043155670166,-6.554644584655762,2.265181303024292,1.0610020160675049,-2.4311184883117676,1.96096932888031,-0.37696900963783264,-1.2604491710662842,-4.0924577713012695,-1.6172422170639038,-0.030810290947556496,-2.9085850715637207,0.1428111344575882,-1.828471064567566,-1.470487356185913,0.6644060611724854,-0.9200502634048462,-0.8122528195381165,-0.8860284090042114,1.9679754972457886,2.5319693088531494,0.4848616421222687,-4.466368675231934,0.34746211767196655,-0.03607245162129402,-0.0012125942157581449,-2.1920578479766846,3.720816135406494,-2.421872138977051,0.14820022881031036,-0.4677458107471466,0.017407026141881943,-2.4805824756622314,-2.7821462154388428,-0.6497505307197571,-1.2535898685455322,-2.9041731357574463,5.921732425689697,-5.441065788269043,0.2757073640823364,1.556740403175354,4.401223182678223,1.8976938724517822,-3.481902599334717,-0.20108266174793243,0.896483302116394,-6.050936698913574,0.5429168939590454,0.548001766204834,-2.0817811489105225,0.7418843507766724,-3.881734848022461,-3.0614542961120605,-2.2711541652679443,-3.6335291862487793,4.3656182289123535,1.9524410963058472,-3.9673285484313965,-5.292322158813477,-1.915447473526001,2.0767898559570312,-0.39424461126327515,5.8239312171936035,-2.084103584289551,8.062997817993164,-1.5470203161239624,5.017028331756592,-6.062131881713867,2.0340793132781982,-6.633476257324219,4.198888778686523,-8.852496147155762,-10.099367141723633,7.690092086791992,-1.0363980531692505,-23.062572479248047,-1.5610761642456055,7.307788848876953,-6.281597137451172,-7.922792434692383,5.533201217651367,-1.2919981479644775,7.892078399658203,-0.20500589907169342,-8.184779167175293,8.641972541809082,9.321348190307617,12.354447364807129,2.0077247619628906,-8.836902618408203,-6.92289400100708,-5.369159698486328,0.4593551456928253,-4.593196392059326,-10.257694244384766,-2.4902148246765137,4.188714504241943,-3.779963493347168,2.4417784214019775,-14.99825668334961,-11.409666061401367,12.243193626403809,-9.093046188354492,-6.495879173278809,-2.365569829940796,8.096375465393066,7.152257442474365,2.7320852279663086,-7.730046272277832,0.2763090133666992,8.70436954498291,-4.324540138244629,6.083446025848389,-8.540698051452637,1.0582934617996216,-4.279672145843506,15.682818412780762,8.139375686645508,0.2823517322540283,4.477522850036621,-6.101825714111328,1.676252841949463,-1.222674012184143,3.717210054397583,-1.0380841493606567,-4.769831657409668,-4.906025409698486,-19.162023544311523,0.10132062435150146,7.3531107902526855,8.721209526062012,0.8073104619979858,1.2137305736541748,4.198484897613525,4.708655834197998,1.0402848720550537,1.270613193511963,-2.215273857116699,6.947055339813232,-2.745748996734619,3.9809505939483643,8.345081329345703,-11.967838287353516,-22.105464935302734,-3.752178907394409,6.7545623779296875,7.675329685211182,-10.37403392791748,5.743919849395752,0.6110126972198486,1.7557659149169922,0.894400954246521,-5.068960189819336,10.297093391418457,9.022761344909668,18.08682632446289,0.09053660184144974,-4.479686737060547,-7.70318603515625,-6.831193447113037,8.818841934204102,-4.9722676277160645,-7.712516784667969,-2.4932734966278076,7.216297149658203,2.2091751098632812,-10.238380432128906,0.938918948173523,-4.630119800567627,3.285701036453247,-3.380709648132324,-12.200228691101074,0.5437958836555481,-1.0172330141067505,1.485014796257019,14.04417896270752,3.5778589248657227,4.534528732299805,-6.0043463706970215,1.9437787532806396,3.521108627319336,-0.8385855555534363,-4.849112510681152,-3.962646722793579,-3.6679136753082275,2.748168468475342,7.801593780517578,2.6612277030944824,-6.037115097045898,2.275197982788086,9.975765228271484,5.137392997741699,-14.2329740524292,-2.6836843490600586,10.403582572937012,7.734965801239014,-13.647600173950195,-7.425393581390381,-5.7668986320495605,-4.039944171905518,-3.744988203048706,0.3278474807739258,-1.3723607063293457,3.0272369384765625,-4.843527317047119,0.8692968487739563,-6.392695426940918,1.7513439655303955,4.324079990386963,-2.9814224243164062,2.1356093883514404,9.333191871643066,-2.246032476425171,0.10808928310871124,-0.49525684118270874,-2.5094528198242188,-5.167511463165283,0.7838404178619385,2.0812666416168213,0.8653172850608826,1.6904841661453247,-4.902963161468506,-1.1368911266326904,-4.301696300506592,-6.487557411193848,4.25382661819458,7.138150215148926,-2.479339838027954,-4.765753746032715,1.4639784097671509,7.610025405883789,4.668087482452393,-0.9886807203292847,0.9914054870605469,2.4884116649627686,0.6570612788200378,1.9536551237106323,-1.0341863632202148,0.7119044661521912,-2.2110540866851807,2.4609334468841553,-3.7386975288391113,-2.98935604095459,-0.24973948299884796,4.17031192779541,-1.3727563619613647,-4.131145477294922,3.486063003540039,-0.8773755431175232,-0.05542017146945,2.1952900886535645,1.2299638986587524,-2.6655988693237305,-0.5823975801467896,-0.7288724780082703,2.0144388675689697,1.6318014860153198,1.0024999380111694,-1.735997200012207,-2.074582576751709,0.36117926239967346,-0.06194668263196945,-0.8444948196411133,-0.5090829133987427,-0.4720573425292969,-0.3258371949195862,-1.0415832996368408,1.173680305480957,-1.7472803592681885,-0.9345061182975769,-1.1534504890441895,1.5710382461547852,0.7644842863082886,1.8563419580459595,0.2932415306568146,-2.904731273651123,1.078748345375061,3.0702028274536133,1.9217948913574219,-2.318344831466675,-2.0792887210845947,4.165629863739014,-0.1839425265789032,-0.4261588454246521,0.6370055079460144,0.7145771384239197,-1.334661602973938,-0.3755285441875458,0.024559779092669487,2.980675220489502,0.9217599630355835,-1.6189073324203491,1.3595292568206787,-2.3028218746185303,-0.7896325588226318,0.5520151853561401,1.1251871585845947,1.1576447486877441,-0.8461112976074219,0.16524499654769897,0.0006155484588816762,0.025503387674689293,-0.019738277420401573,0.035617001354694366,-0.0029623243026435375,-0.06971374154090881,-0.0546315498650074,0.04998660832643509,0.03628689795732498,-0.001719683175906539,-0.020354844629764557,-0.014581932686269283,0.0746745765209198,0.053352516144514084,-0.03398893028497696,0.017130006104707718,0.032858554273843765,-0.000937021744903177,0.027914514765143394,0.01764545775949955,-0.023576457053422928,-0.03069387376308441,0.04304751008749008,0.04666301608085632,0.029693473130464554,-0.058027125895023346,-0.02858402393758297,0.06834220886230469,-0.009693085215985775,-0.001007875776849687,-0.05633730813860893,0.05026371031999588,-0.02604684792459011,0.00022760698630008847]},"hiddenLayers":[{"inputMatrix":{"rows":20,"columns":34,"weights":[0.10529633611440659,1.1185227632522583,-0.8261865973472595,3.3964083194732666,-0.6427674889564514,0.6897346377372742,0.8051652908325195,-0.9924179911613464,-0.6185364723205566,-1.9393537044525146,0.6807900667190552,1.6050528287887573,1.5207388401031494,0.19158223271369934,0.38588666915893555,0.2793169319629669,-1.7321388721466064,-0.3991498649120331,-0.24547046422958374,2.4854395389556885,-1.320847749710083,-1.4309746026992798,-2.5307655334472656,0.9470067620277405,0.38837793469429016,1.0959539413452148,-0.17367292940616608,-0.37865573167800903,-0.24782590568065643,1.4761990308761597,0.3340891897678375,2.882725954055786,-0.3986489176750183,-1.9898418188095093,-0.4838588833808899,0.4397524297237396,-0.6601863503456116,0.11372347176074982,-2.147073268890381,-0.3179103434085846,1.903917908668518,0.03985103592276573,-0.6109470725059509,-0.7032791376113892,0.31303495168685913,-0.6191850304603577,0.5969428420066833,-0.23014196753501892,1.49894380569458,1.3413909673690796,-1.9242945909500122,-0.9487494230270386,1.2568577527999878,-1.0956965684890747,3.0198099613189697,-0.504152774810791,-1.3268327713012695,3.3207318782806396,2.814746141433716,-0.3459506630897522,0.8386659622192383,-2.757570266723633,1.4804022312164307,-1.1576288938522339,0.6586217880249023,-1.2518112659454346,1.320164680480957,-1.5834060907363892,-1.4671474695205688,0.6120097637176514,0.713311493396759,-2.352261781692505,-1.3130329847335815,1.1063685417175293,-0.8113945722579956,-0.4259193241596222,-1.608652114868164,-1.306901216506958,0.6173123121261597,0.6399765014648438,-0.14481094479560852,2.6425747871398926,0.6403949856758118,-2.241032600402832,-1.0760644674301147,-3.0838377475738525,-0.5961796641349792,0.7916428446769714,1.232930064201355,-0.29629403352737427,0.6832894682884216,-0.5830392837524414,-0.6515749096870422,-2.0055758953094482,-2.6044576168060303,0.7223773002624512,0.7877228260040283,0.9805496335029602,-1.5342000722885132,-0.7260499000549316,1.5103163719177246,0.3133378028869629,-3.274765729904175,0.33952873945236206,-1.9578495025634766,-0.31575843691825867,-0.483525812625885,-1.90940523147583,1.5798403024673462,2.8761165142059326,-0.5720813274383545,-0.18355681002140045,0.3991627097129822,-1.5476986169815063,1.0742346048355103,1.089734673500061,-1.0350512266159058,0.9295095801353455,-1.5697109699249268,2.5095574855804443,0.7784690260887146,-2.8354156017303467,2.514636278152466,0.039739981293678284,0.06187789887189865,0.32439592480659485,0.7342081665992737,-1.1708579063415527,0.02860182151198387,-0.37643003463745117,2.838467836380005,-3.3320891857147217,-1.2314882278442383,-0.3644469380378723,1.0284850597381592,-0.3377937972545624,-0.07016344368457794,0.6147167086601257,-2.2225539684295654,-1.6324535608291626,-1.925966739654541,0.14966577291488647,-0.9173306822776794,1.1919893026351929,-1.186449646949768,-0.21666550636291504,1.5030790567398071,1.5177916288375854,1.0608322620391846,0.72513747215271,-1.1624038219451904,1.085944414138794,-0.9524994492530823,0.9475249648094177,0.2357720285654068,0.8741811513900757,2.869732618331909,0.3331165909767151,-0.5876234173774719,-0.4193214476108551,1.6962966918945312,-1.296945333480835,0.54986971616745,-1.5814305543899536,-1.2770572900772095,-0.32972627878189087,0.07175448536872864,-1.6316769123077393,2.721280574798584,0.6714614033699036,-3.1992621421813965,1.3872859477996826,-0.6290125250816345,1.1754310131072998,-2.0384111404418945,1.705782175064087,0.4360981583595276,0.8920488357543945,-0.06078353896737099,-0.143332839012146,1.6106476783752441,-1.1680101156234741,0.26605546474456787,4.659829616546631,1.1917208433151245,-1.7184667587280273,-1.3506810665130615,-0.7603869438171387,-2.1030588150024414,2.456611156463623,-1.0583748817443848,-2.0743794441223145,0.7825468182563782,-0.2742924988269806,0.8139975666999817,0.6646007299423218,-1.8627389669418335,-0.46339601278305054,2.3333024978637695,2.2859389781951904,-0.5348331928253174,0.02415805496275425,0.6270346641540527,-0.3865319788455963,-2.1601462364196777,-0.20887421071529388,-1.6720988750457764,2.471424102783203,-0.847527265548706,-0.7049456834793091,-0.4701441526412964,0.7926207780838013,-1.128770112991333,1.3857417106628418,-1.639015555381775,-3.0558032989501953,-0.7507671117782593,0.11100305616855621,2.8647522926330566,1.4703642129898071,-1.9504108428955078,2.893045425415039,-0.7831833958625793,0.1551208347082138,0.6387072801589966,1.4791594743728638,-0.18935444951057434,-1.1118611097335815,2.526493787765503,-0.18579067289829254,0.23204943537712097,-1.7283703088760376,2.923305034637451,0.03590705245733261,-0.5990296006202698,1.059433937072754,1.6243598461151123,-1.0913749933242798,1.4321236610412598,-1.0711631774902344,2.2355685234069824,-2.3473942279815674,0.3070531189441681,-0.4757799804210663,-0.0642290785908699,1.2991381883621216,0.28306761384010315,-0.7837705016136169,1.999731421470642,-0.4161107540130615,0.9300800561904907,0.2947880029678345,0.9468516111373901,1.014999270439148,2.2542567253112793,-1.610304594039917,1.6149181127548218,-0.941178560256958,0.3690412640571594,0.5730040073394775,-0.5041571855545044,0.2997170388698578,2.1153903007507324,-1.6170464754104614,1.4590312242507935,-1.7340039014816284,-2.60336971282959,-0.8563369512557983,-0.9913737773895264,-2.60298752784729,-0.15812604129314423,1.237106204032898,-0.6987627744674683,-1.5672824382781982,3.7021231651306152,-1.6680797338485718,-0.7889508605003357,-0.2738354504108429,0.29992038011550903,0.004168898332864046,1.014678955078125,0.5173291563987732,0.9789671301841736,-0.8500196933746338,1.785923957824707,-0.3583681881427765,0.27074918150901794,1.005123496055603,0.07570675760507584,-0.3436236083507538,4.482258319854736,-0.774705708026886,-0.7078354358673096,0.07937709242105484,0.5090823769569397,3.2919650077819824,4.143132209777832,-1.524470329284668,2.2413575649261475,-1.8059608936309814,-0.33374834060668945,-0.035875044763088226,-1.3467026948928833,-0.8952125906944275,-0.004837668035179377,0.6578395366668701,0.5602076649665833,-1.5840238332748413,2.080385208129883,0.04567737504839897,-0.7886982560157776,-0.2534220814704895,-0.29127416014671326,-1.2100940942764282,-0.046833865344524384,-3.6448678970336914,0.06797776371240616,1.2391010522842407,2.5852479934692383,2.4118785858154297,-0.24686360359191895,0.14241741597652435,0.3847191035747528,-1.2321113348007202,4.329129219055176,-0.17101719975471497,-1.440209984779358,-0.9737169742584229,0.5496211051940918,1.2215298414230347,1.739848256111145,0.9144308567047119,0.2787366807460785,-1.4743318557739258,-1.4319223165512085,0.9050000905990601,-0.3552858233451843,1.4940937757492065,-0.3883642554283142,0.8511431217193604,-0.9305953979492188,2.0958569049835205,-0.7442723512649536,0.8748297691345215,0.6934791207313538,-0.7988092303276062,-0.5994828939437866,0.3397585451602936,-0.5293267369270325,-0.4824411869049072,-0.17901597917079926,-0.3389228880405426,0.2067021131515503,-0.518097996711731,-0.4563109874725342,1.9232698678970337,-1.4727065563201904,-0.3690846264362335,0.720172107219696,3.107227325439453,-0.48073795437812805,-1.3097338676452637,-2.452221632003784,2.3033437728881836,0.5974655151367188,1.464079737663269,-1.1635453701019287,-0.2908878028392792,2.769925355911255,-0.02519087865948677,0.6385416984558105,-0.5701773762702942,1.1094181537628174,-1.632697582244873,0.09156115353107452,2.491943597793579,-0.4922347664833069,3.7182748317718506,-2.3782808780670166,1.4045641422271729,1.394670009613037,-1.1308772563934326,-0.4874249994754791,-1.275691270828247,0.26882001757621765,1.8800795078277588,2.566563367843628,-0.7557127475738525,-0.13470588624477386,0.36142703890800476,-2.4532296657562256,-0.7650644779205322,-0.44202837347984314,1.4782382249832153,1.1349207162857056,0.34941649436950684,-0.3431030511856079,4.61989688873291,0.6588649153709412,0.9503362774848938,-0.753607988357544,0.1983896791934967,-0.01477055624127388,-0.6779171228408813,-2.069957733154297,2.420971393585205,-1.7182866334915161,-4.886910915374756,-0.8830900192260742,1.0268113613128662,-0.3188598155975342,0.20895414054393768,-0.9752054214477539,0.49331581592559814,0.41159823536872864,0.6551603078842163,1.8800458908081055,-0.35924452543258667,-0.0413680225610733,-2.194572925567627,-0.02065339684486389,-0.3016648590564728,1.005319595336914,2.126082181930542,1.3327947854995728,0.8675381541252136,1.0120742321014404,0.9179348349571228,-0.6699663996696472,1.3138600587844849,1.157895803451538,2.663930892944336,3.993276357650757,-1.1379650831222534,1.340745210647583,-3.18599796295166,1.4123139381408691,-0.234482541680336,-0.09103873372077942,-0.8612189888954163,-0.23720219731330872,-0.9887557029724121,0.14885038137435913,2.7047770023345947,0.11770100146532059,2.0312962532043457,0.4714311957359314,0.6962748765945435,-0.32226479053497314,-1.4673904180526733,1.0798923969268799,-0.6942143440246582,-1.364768147468567,2.6088032722473145,1.0234320163726807,-0.46194568276405334,-0.3125337064266205,0.7970466613769531,-1.22039794921875,-1.6233482360839844,-0.4796716272830963,2.984712839126587,0.7363063097000122,-0.12339983135461807,-1.1130149364471436,1.38700270652771,0.751461923122406,2.3941380977630615,0.6823803782463074,-0.9446970820426941,-2.225271701812744,0.6618932485580444,0.28712186217308044,1.799155831336975,-1.1296334266662598,-1.6985907554626465,1.3814622163772583,-1.8580873012542725,2.967512845993042,-0.8194632530212402,2.4079246520996094,-3.152151346206665,-1.2624878883361816,-0.567035436630249,-0.8029362559318542,1.5061858892440796,-2.9176061153411865,0.4935275614261627,-0.4855608642101288,0.9285810589790344,-2.789246082305908,-1.021624207496643,-0.04831993207335472,-1.8260540962219238,0.5387548804283142,-0.24836429953575134,-0.5104947686195374,-1.5414001941680908,-0.3899252414703369,-1.559144377708435,-0.712922215461731,0.4726502299308777,-0.47735947370529175,0.7677596211433411,-1.9623461961746216,-0.8025373220443726,1.1619787216186523,-2.206705093383789,0.29939067363739014,1.6451853513717651,0.8006763458251953,0.43578624725341797,0.6820166110992432,-0.6971847414970398,3.389143228530884,-0.04288716986775398,-1.337164044380188,-0.7802694439888,0.9769663214683533,-1.101608395576477,-0.6433537602424622,4.255679130554199,0.7666908502578735,-1.412550926208496,-3.4587652683258057,0.3930917978286743,2.3569421768188477,-0.7292532920837402,1.4609425067901611,1.152665376663208,-1.4426219463348389,0.04191543534398079,-0.2884192168712616,-1.6456210613250732,-0.9674639701843262,0.1218126192688942,0.32520338892936707,0.7687233686447144,-3.391286849975586,-0.6980772018432617,1.1136571168899536,0.31787922978401184,-0.9061875939369202,0.0670875683426857,-0.13888777792453766,0.39263036847114563,-2.313415765762329,0.2064906507730484,-0.29242992401123047,1.8626396656036377,-0.014282407239079475,0.6332651376724243,-0.8967694640159607,-0.740700364112854,2.475005865097046,0.1027233898639679,0.11523102968931198,0.8211726546287537,0.2866544723510742,-0.6999819874763489,0.4733383357524872,0.7160608172416687,-1.910865306854248,-0.004307021386921406,0.3995245695114136,0.2958373725414276,0.09012896567583084,-1.426519513130188,-0.7042266726493835,-0.6055397391319275,-2.1632471084594727,1.0363574028015137,2.84977388381958,-0.6390146613121033,-0.614739179611206,-1.4873782396316528,2.1728036403656006,0.004509747959673405,-1.989659070968628,3.1915180683135986,2.3156585693359375,0.5080859065055847,-0.6629382371902466,0.7450977563858032,0.09600778669118881,-1.4747154712677002,1.5589416027069092,-2.4816629886627197,-1.9332774877548218,-0.8432899117469788,1.120632529258728,0.8143543601036072,-1.622420072555542,1.5351136922836304,-2.1551578044891357,0.37491172552108765,-0.10693226754665375,-0.02151954360306263,-1.3058815002441406,-0.8107877969741821,1.1744202375411987,1.126434326171875,1.1914209127426147,-0.8542174100875854,-1.4548112154006958,-1.2490392923355103,1.4036754369735718,1.0914695262908936,-0.23769314587116241,2.9160077571868896,-1.4864108562469482,-0.5772663950920105,1.4295955896377563,3.5081567764282227,2.067777156829834,1.1974269151687622,-1.1575982570648193,-1.488141417503357,0.9985862374305725,-4.010295867919922,3.0893499851226807,0.4983922243118286,-3.185478448867798,1.213908076286316,0.21157215535640717,-0.5485116839408875,-0.06956762820482254,0.04909909889101982,-1.8729588985443115,-1.2752478122711182,-2.7062089443206787,-0.20726554095745087,0.23967641592025757,-0.40601077675819397,-2.109402894973755,0.12344247102737427,-1.5688362121582031,2.2781505584716797,-0.8883237242698669,1.1779807806015015,-0.6568582653999329,0.6967588663101196,1.3342626094818115,-0.4572972059249878,-1.1924927234649658,-1.3477569818496704,2.2535593509674072,-1.2183482646942139,0.4744672477245331,1.058837652206421,1.4513391256332397,-2.0450291633605957,1.8456974029541016,0.9898256659507751,1.5478942394256592,-0.12130744010210037,-1.5400171279907227,-0.5491417646408081,-0.8894011378288269,-3.378782272338867,-1.0064175128936768,1.1048656702041626,1.9904372692108154,1.2952463626861572,1.406064510345459,-1.5652120113372803,-2.645268440246582,0.3260762393474579,-0.2303195297718048,1.2184964418411255,0.6311855912208557,0.4966617226600647,1.9500950574874878,-0.8275837302207947,-0.7131049633026123,-1.418887972831726,1.5583473443984985,0.27885228395462036,-1.2142385244369507,-0.33323293924331665]},"inputHidden":{"rows":20,"columns":20,"weights":[-3.181173801422119,-4.181097507476807,0.5308979749679565,-2.3021445274353027,-0.17732514441013336,-0.10907157510519028,0.14145417511463165,1.3293535709381104,1.8495818376541138,4.208719730377197,-0.44224774837493896,0.12085399776697159,1.714455246925354,-4.6150641441345215,2.6125261783599854,-1.6623653173446655,1.8578213453292847,-2.8576767444610596,-1.3411331176757812,1.5456786155700684,0.5402224659919739,-0.41655778884887695,2.0766284465789795,-0.6481397747993469,2.503401756286621,2.0738112926483154,0.7215019464492798,3.991328239440918,2.3839502334594727,1.1451740264892578,-0.5151932835578918,-1.9168111085891724,0.8136380910873413,-2.6936028003692627,0.8719724416732788,-0.4751313030719757,-0.6216575503349304,2.160449266433716,3.154989719390869,1.6825902462005615,-0.04416590929031372,0.7813100218772888,1.2575758695602417,0.35256046056747437,0.44307741522789,1.3441072702407837,-0.33124855160713196,-0.8645514249801636,-1.51156485080719,-1.4925998449325562,1.2144074440002441,-0.7750771045684814,0.569900393486023,1.4744641780853271,-0.48847275972366333,1.305480718612671,1.3034303188323975,0.5039098262786865,-0.7423768639564514,-2.128836154937744,0.505495548248291,0.6167567372322083,-2.235743761062622,-4.2576422691345215,-1.2805626392364502,2.59264874458313,1.1459261178970337,4.405275344848633,-0.7266230583190918,-2.3247597217559814,0.7147520780563354,-0.8853881359100342,1.7935543060302734,-1.2181142568588257,-4.179276943206787,4.957561016082764,1.0665363073349,-0.6922271847724915,-0.8764985203742981,-2.262164831161499,-3.017237424850464,3.708880662918091,0.4749532639980316,-0.25923919677734375,-3.771190643310547,-2.9439353942871094,2.1589996814727783,-3.0116348266601562,-0.08892016857862473,-0.8143218159675598,2.7685160636901855,6.602948188781738,-0.09372886270284653,2.303189516067505,0.36507195234298706,1.4413387775421143,-0.8608469367027283,-2.6601293087005615,-4.991478443145752,-3.229635238647461,0.11624903976917267,-0.04050363972783089,-1.7509053945541382,0.34668686985969543,0.3460831642150879,-1.7355408668518066,0.1272713840007782,0.7743409872055054,0.7704625129699707,-0.8985544443130493,-0.8462008833885193,-0.5938690900802612,-0.4067075550556183,-0.8643344640731812,-1.2321722507476807,0.11537855118513107,-0.21240057051181793,0.18951934576034546,0.14885148406028748,-1.0255699157714844,3.0150372982025146,0.21247278153896332,-3.0361268520355225,-2.518641948699951,1.920569658279419,-3.621732234954834,-2.626159191131592,0.28995826840400696,0.590346097946167,-1.476884126663208,-0.3281714916229248,-0.9998777508735657,-0.08025362342596054,0.8330233097076416,-0.44266095757484436,0.3397395610809326,0.8463495373725891,1.8773361444473267,-1.1552573442459106,1.2825908660888672,6.589653015136719,0.5030308365821838,2.1122405529022217,1.433477759361267,1.8644940853118896,-3.0285604000091553,-1.169770359992981,2.833866596221924,-1.497161626815796,-2.1633198261260986,-0.3968263864517212,-1.8584766387939453,-5.6985087394714355,4.831319332122803,1.1420958042144775,-2.278951406478882,1.6280183792114258,4.312845230102539,-2.7867565155029297,-1.303107738494873,0.36766237020492554,-1.0170997381210327,-0.7930892705917358,0.8904158473014832,-0.331798791885376,-1.610678791999817,-1.0206259489059448,1.358901858329773,0.9747366905212402,2.5537569522857666,-1.9811984300613403,0.07055686414241791,-0.20739108324050903,-0.5350132584571838,1.4406219720840454,-2.607534646987915,0.15183062851428986,1.7993216514587402,-0.41461697220802307,2.7016260623931885,-0.0012744369450956583,1.365339756011963,-3.035653591156006,-2.6122384071350098,-0.6482767462730408,-1.3597289323806763,-0.22195687890052795,2.8785834312438965,1.716982126235962,-1.6792398691177368,0.24930404126644135,-0.5158659219741821,0.9420849680900574,-1.6129766702651978,-2.527632713317871,1.9036858081817627,0.7875781655311584,0.9736279845237732,-5.738218784332275,0.5737568140029907,-2.4503426551818848,-0.36624929308891296,3.0481793880462646,1.9085800647735596,-1.645988941192627,-0.1457063853740692,-2.402914524078369,2.069749355316162,3.1225948333740234,-1.4419670104980469,0.9490317702293396,2.5493600368499756,0.6124357581138611,-3.3452796936035156,-0.21091680228710175,0.530025839805603,-7.659151077270508,-0.5284982323646545,4.0931596755981445,-0.13396547734737396,-2.7335188388824463,1.0680885314941406,-0.056219227612018585,1.6152714490890503,-3.442760705947876,-4.073513507843018,1.335453748703003,-2.8769383430480957,-2.5834131240844727,-0.9074385166168213,1.1315926313400269,2.4977102279663086,2.112062692642212,3.637965202331543,-0.7755516767501831,0.5314526557922363,-0.31137189269065857,-2.079993724822998,-0.03435362130403519,-2.1646642684936523,-3.0887913703918457,1.587396502494812,-0.4130471646785736,-1.3191401958465576,1.1386429071426392,-0.07334477454423904,-0.18729034066200256,-1.7483192682266235,-0.04474368318915367,0.19156567752361298,0.23016425967216492,-0.676556408405304,-0.3001580536365509,-0.6864582300186157,1.1756535768508911,-0.6071380376815796,1.3119312524795532,0.9528787136077881,-1.2606981992721558,-0.4854946732521057,-1.3695214986801147,-0.6469827890396118,0.24998879432678223,-1.2464762926101685,-1.8687912225723267,-4.176816463470459,0.5097702145576477,1.4665979146957397,1.619301199913025,4.200289249420166,0.4337266683578491,0.6084940433502197,-0.6249225735664368,-0.6987497210502625,-1.2019764184951782,-1.037909746170044,-0.98734050989151,-0.5544300675392151,1.7329860925674438,5.241272926330566,-0.7309778332710266,0.24839694797992706,2.3399665355682373,4.777466773986816,-1.9610316753387451,-1.6885126829147339,-0.13062119483947754,0.562047004699707,-0.5780786275863647,1.372218132019043,1.661287784576416,0.43636709451675415,-0.44394341111183167,-0.9240447878837585,-1.1498799324035645,1.6019437313079834,0.7807286381721497,-0.8888741731643677,-4.151674270629883,-2.6446423530578613,-3.1596004962921143,0.6296030282974243,4.6117777824401855,0.5062651038169861,2.8302364349365234,-3.484189987182617,0.22846455872058868,-2.83286190032959,-2.1296122074127197,1.0389431715011597,2.8192105293273926,0.015326340682804585,3.980663537979126,-0.021370332688093185,-3.9505257606506348,4.63602876663208,-1.277923345565796,-0.8488895297050476,1.723681092262268,-0.15227411687374115,2.046424388885498,2.834369659423828,-1.1853290796279907,-1.7943476438522339,3.0626678466796875,-1.592470407485962,0.8887104988098145,-3.544618844985962,-2.688767910003662,-6.0185675621032715,2.249298334121704,1.420706868171692,-0.9512087106704712,2.797757387161255,-1.0005362033843994,2.5792455673217773,-3.031062602996826,1.7912014722824097,0.9086084961891174,-5.157159805297852,2.392749547958374,-2.033343553543091,-2.1403892040252686,-3.175668478012085,2.18032169342041,2.9231715202331543,3.2291903495788574,-5.476233005523682,-3.6318156719207764,-0.9994524121284485,1.4917079210281372,-3.0680582523345947,-2.605869770050049,3.865356206893921,0.029808873310685158,1.4136072397232056,3.713853120803833,4.213456630706787,-2.85896897315979,-3.9880869388580322,-0.5143842101097107,-2.8778412342071533,0.5860571265220642,-0.22828790545463562,0.6960587501525879,0.7034769654273987,0.8425970077514648,-3.518361806869507,0.3592776656150818,2.339668035507202,-0.649325966835022,1.2827904224395752,1.0856510400772095,-3.5787293910980225,-0.46072447299957275,-2.6238715648651123,2.253495931625366,-0.2855945825576782,2.2119102478027344,-1.1065975427627563,-0.7122146487236023,-2.2629268169403076,1.1204984188079834,0.42672988772392273,0.8549301028251648,-2.3041415214538574,-0.4521239697933197,0.6817585825920105,0.7675609588623047,1.3741883039474487,-1.4562562704086304,0.8206353783607483,-0.739727258682251,-3.193009614944458,2.7096238136291504,0.7229115962982178,-2.2683238983154297,-0.4776730239391327,2.0060629844665527,2.7672128677368164]},"inputBias":{"rows":20,"columns":1,"weights":[0.4837822914123535,-0.2886183261871338,-0.3114498555660248,-0.37212249636650085,0.14373014867305756,-0.2510277330875397,1.1352882385253906,-1.7121275663375854,0.49861446022987366,0.5213289856910706,-1.1449726819992065,0.34277039766311646,0.5692673325538635,1.177937626838684,-1.9052746295928955,-0.9564542770385742,-0.2231641709804535,0.3463253080844879,-0.3444455564022064,0.053409457206726074]},"forgetMatrix":{"rows":20,"columns":34,"weights":[-0.01956123299896717,0.37278327345848083,-0.541781485080719,-0.7373012900352478,0.04138221964240074,-0.6293555498123169,1.2761437892913818,2.2154626846313477,1.007651448249817,-1.0888111591339111,0.8923982381820679,-1.5229403972625732,1.3469253778457642,-2.1169486045837402,0.9386259913444519,3.127528667449951,1.1842378377914429,1.651100754737854,1.4316730499267578,0.9444507360458374,0.05849122256040573,1.5405473709106445,0.3071470260620117,2.624375343322754,2.553356647491455,-1.067965030670166,0.2231348603963852,-2.877148151397705,1.065919280052185,-1.0407792329788208,0.8387565016746521,-1.3748325109481812,-0.14992471039295197,-0.7568051815032959,-1.0181015729904175,0.6578156352043152,-2.8096749782562256,1.5059223175048828,-1.0912787914276123,2.8230321407318115,-0.6156190037727356,-0.7209588289260864,-0.5126299262046814,2.1908252239227295,-0.5469946265220642,2.021116256713867,-0.5402230024337769,-0.17573048174381256,-0.2677305340766907,-0.24241086840629578,0.5538405179977417,1.1781458854675293,-3.8169519901275635,0.48026981949806213,1.787211537361145,1.7799887657165527,2.2837905883789062,1.655351996421814,0.14918771386146545,-0.22164852917194366,-1.8853614330291748,0.1274193525314331,1.021714210510254,-0.31346622109413147,-1.12201988697052,0.40843191742897034,-0.26407620310783386,-1.7957900762557983,-0.9728881120681763,0.8947651386260986,-0.9970290064811707,1.4047555923461914,-0.24285250902175903,1.1487795114517212,-0.8821869492530823,-0.9836376309394836,-1.515391230583191,0.7821891903877258,-0.05206988751888275,-1.5115118026733398,0.3168117105960846,0.32185399532318115,2.2166876792907715,-1.1698554754257202,0.019665703177452087,1.1433519124984741,-1.8898844718933105,1.2881566286087036,0.0426919050514698,-0.30121877789497375,0.46750327944755554,-0.0904884934425354,-1.9560725688934326,1.3758465051651,-1.9933764934539795,0.4411846399307251,1.9804139137268066,2.3850364685058594,0.6048275232315063,0.36543771624565125,2.3320913314819336,-0.49097877740859985,-0.9558868408203125,-1.4914848804473877,0.40393388271331787,0.7401299476623535,1.5089763402938843,-1.0652695894241333,-0.8952688574790955,0.528026282787323,0.796383798122406,-0.5204324126243591,-0.45384839177131653,-2.080033540725708,-0.38806548714637756,-1.1226283311843872,-0.06824351102113724,3.556591510772705,2.066023826599121,1.5391260385513306,2.464432716369629,-0.21205198764801025,-2.6300575733184814,-0.40032878518104553,0.24717606604099274,-0.6488892436027527,3.189244508743286,-0.6844469904899597,1.5478582382202148,-2.9208457469940186,-0.6685333251953125,0.7628946900367737,1.1202532052993774,0.9429932832717896,0.6781591773033142,0.886337399482727,-1.8473858833312988,-1.1957125663757324,-0.3448725640773773,-0.07945051789283752,-0.17448846995830536,-1.0401746034622192,-1.7264801263809204,2.461836576461792,-0.2173231989145279,1.9233667850494385,0.7846561670303345,-1.6626229286193848,-1.9022387266159058,-1.2239086627960205,0.6690921783447266,-0.06729848682880402,-0.2433672398328781,2.3880820274353027,-0.9682655334472656,-1.0466818809509277,1.265114188194275,1.598787546157837,1.7092481851577759,-2.5221781730651855,-1.1833962202072144,-1.769034743309021,0.645940363407135,1.2715634107589722,1.0817334651947021,-2.2059950828552246,0.6373901963233948,1.0195401906967163,-0.946026086807251,-0.302937388420105,0.780946671962738,-0.05584022402763367,-1.4142403602600098,-0.05619071051478386,0.5801472663879395,0.49551135301589966,-0.6719100475311279,1.0196843147277832,-1.674445629119873,2.3498055934906006,-0.5419975519180298,0.7752867937088013,-1.6508028507232666,0.29167497158050537,-2.300790309906006,-0.9901031255722046,-0.08756338059902191,2.002354860305786,-1.1370019912719727,-1.5284028053283691,-0.1216953918337822,-1.2476876974105835,-0.9731205105781555,-1.8019315004348755,-2.385105609893799,-0.4719740152359009,-0.5962039828300476,2.293973207473755,-0.5319546461105347,-2.270721435546875,1.1189265251159668,0.25897735357284546,0.8016998171806335,0.8174404501914978,1.430031657218933,-0.0840175598859787,3.5901334285736084,0.5154982209205627,1.7337020635604858,0.17568457126617432,0.6145490407943726,-2.2623212337493896,-0.2187301367521286,-2.8788673877716064,-1.6760872602462769,0.9137184619903564,-0.1594412624835968,0.6917917728424072,2.4829602241516113,0.444151371717453,0.3052542805671692,-0.08369602262973785,1.7730287313461304,1.6109756231307983,-2.375321626663208,-2.6844229698181152,-2.808568239212036,1.0889637470245361,1.7974193096160889,1.350303053855896,1.2514431476593018,-1.810288906097412,-2.7240796089172363,1.5984444618225098,0.26274406909942627,3.210235595703125,-1.1125293970108032,-0.18755069375038147,2.517275810241699,-1.3770216703414917,0.579853892326355,-1.8255561590194702,0.22665229439735413,-0.9775401949882507,-0.4384573996067047,-0.897251546382904,2.2255971431732178,1.1347086429595947,0.06628801673650742,0.045477528125047684,0.6012916564941406,-1.4184553623199463,-0.8001061677932739,1.0229281187057495,2.2479498386383057,0.10110563039779663,1.1336441040039062,0.7919392585754395,-0.2086714655160904,2.3431310653686523,-0.48766565322875977,1.091135025024414,2.236525058746338,-0.3321935832500458,3.691582679748535,-2.253222942352295,-2.10754656791687,-0.3195149302482605,0.12482871115207672,-1.7066490650177002,-1.1454949378967285,0.48214465379714966,0.005210558883845806,0.3757069408893585,-0.41130727529525757,-0.08940226584672928,0.7234030961990356,1.0490258932113647,-0.9513077735900879,0.8154852390289307,2.0990383625030518,0.17163674533367157,-0.8332566618919373,0.7156786322593689,-0.7254773378372192,-6.042323589324951,-1.2636672258377075,1.1083465814590454,0.28391513228416443,-0.07243669778108597,1.5549561977386475,-3.1118669509887695,0.5419559478759766,0.4228752553462982,-1.0021178722381592,0.6691960692405701,-0.5440557599067688,-0.6015597581863403,0.38355782628059387,-0.5427523255348206,-0.525544285774231,-3.777512311935425,-0.19827786087989807,0.13521574437618256,-3.5369060039520264,1.4074740409851074,1.114567756652832,-0.7907679677009583,0.9092533588409424,0.35872289538383484,1.6602051258087158,0.26550373435020447,0.8172855377197266,0.12291967868804932,0.7679415345191956,-0.9057884812355042,0.04001428186893463,1.0417689085006714,-0.8923673629760742,-0.60865318775177,-1.2058745622634888,-0.7817944288253784,2.3465161323547363,-0.40931862592697144,1.5887153148651123,0.7939873337745667,-1.9297629594802856,1.3530255556106567,0.20014688372612,0.0864504724740982,-0.9169818758964539,0.9582613706588745,1.2110588550567627,0.4238206446170807,-0.526317298412323,0.46620261669158936,1.0493500232696533,0.10807305574417114,-1.4705780744552612,-0.05016568303108215,-2.152554512023926,-0.9337747097015381,-2.1484248638153076,-1.2591712474822998,0.640666127204895,1.2528733015060425,-3.775031089782715,-0.09362991154193878,-1.3511759042739868,0.9052695035934448,-0.4071013331413269,-0.825518012046814,-1.9916447401046753,0.501075029373169,1.3165545463562012,0.06764142215251923,-0.4320729374885559,2.3713290691375732,-2.1469457149505615,-1.6574686765670776,2.997091054916382,1.152962565422058,0.7825530767440796,-2.019667863845825,-0.22563867270946503,-2.182370185852051,-0.9084779024124146,0.1426544338464737,0.054125554859638214,-3.5643253326416016,-3.1771609783172607,0.26387667655944824,2.3219473361968994,1.4191319942474365,-0.47910478711128235,0.2264452427625656,-1.859342336654663,-1.8829814195632935,-2.528153657913208,1.067343831062317,2.441336154937744,4.940728187561035,-0.5799548625946045,0.37495264410972595,0.9619289636611938,-2.691246747970581,-0.23892785608768463,1.2771326303482056,1.1004377603530884,0.7359551787376404,0.5594222545623779,-0.05387511104345322,-0.15489505231380463,-1.3152872323989868,0.6143012642860413,-1.061559796333313,0.06544096767902374,1.8084863424301147,0.5201347470283508,-0.6378066539764404,2.949761152267456,-0.3205537796020508,-0.5218177437782288,0.20638161897659302,2.9209046363830566,-2.265960693359375,0.6051725149154663,-1.3873589038848877,-0.7084147930145264,-1.4006420373916626,-0.3840859830379486,0.690317690372467,-0.5041621923446655,1.0552211999893188,-0.9897522926330566,2.0837018489837646,-2.3855488300323486,-0.42529842257499695,1.7753911018371582,-2.814450979232788,-1.0110851526260376,2.190033435821533,2.5028188228607178,-1.4823545217514038,1.8074164390563965,0.6834631562232971,0.06465250998735428,1.1023063659667969,-1.9763298034667969,0.653598427772522,2.1456472873687744,-1.0817248821258545,-0.9748237133026123,-0.8097597360610962,-1.1141412258148193,1.1871018409729004,1.852408766746521,1.707183599472046,0.44848915934562683,1.5344700813293457,1.5412712097167969,-1.5714691877365112,-0.1508219987154007,-0.919134795665741,1.489927053451538,-0.9499959349632263,-2.0032503604888916,-2.599666118621826,0.6526477336883545,0.7187671661376953,1.607365608215332,-0.9842019081115723,-0.5479189157485962,0.25764012336730957,1.2446751594543457,-1.3364144563674927,-2.4782004356384277,2.180989980697632,-0.34237152338027954,-0.4252842962741852,2.313352346420288,-1.2043535709381104,-1.1069167852401733,-0.7174580097198486,0.10603578388690948,0.11767474561929703,4.229046821594238,-1.7082809209823608,1.4017245769500732,-4.037549018859863,-1.058874487876892,0.24748842418193817,0.045566968619823456,0.3376011848449707,-1.062366247177124,1.501615285873413,0.9404472708702087,-3.8947582244873047,1.1073740720748901,-1.716209053993225,3.1754543781280518,-0.694674551486969,1.3711163997650146,0.5678296685218811,0.15511974692344666,-0.5923672914505005,-2.5869662761688232,-0.7300054430961609,0.9069887399673462,1.4187097549438477,-2.2007639408111572,-1.5036182403564453,-0.878838837146759,0.036522071808576584,0.7926294803619385,-1.9978132247924805,-0.47870123386383057,-1.3586317300796509,-0.019781742244958878,-1.9480745792388916,-0.9297356009483337,-0.03987272083759308,-1.119245171546936,0.5889802575111389,-0.5332456827163696,-0.8096058368682861,-1.018090009689331,-0.8911035060882568,0.42159906029701233,3.8915164470672607,-0.2979017496109009,-3.014799118041992,1.3929928541183472,1.421606421470642,1.4299533367156982,-1.201352834701538,0.5722490549087524,-2.0856003761291504,0.1384885609149933,-3.326921224594116,0.958069920539856,2.6346497535705566,0.7583856582641602,0.7110431790351868,0.026633646339178085,0.09144868701696396,1.8513617515563965,0.9229798316955566,1.0273629426956177,0.5567909479141235,-2.1891603469848633,0.577377200126648,0.8679803013801575,-0.0808631107211113,0.11651122570037842,2.1719753742218018,0.8221523761749268,-1.0274959802627563,-2.4669888019561768,3.196631669998169,0.09387791901826859,3.703324556350708,-0.18245521187782288,0.801896333694458,-0.41871941089630127,0.5054506063461304,0.13441869616508484,-1.8928805589675903,-1.6075891256332397,-1.9597210884094238,-0.3352176249027252,-0.24559859931468964,-0.7666441202163696,-0.6630462408065796,-0.6303250193595886,0.13488487899303436,2.4270339012145996,2.0491721630096436,-1.4777079820632935,-0.23819434642791748,-2.3552160263061523,-2.7232131958007812,1.6071051359176636,-1.4085019826889038,0.1969262808561325,-1.5590972900390625,-2.647939443588257,-0.40221166610717773,-0.3943532109260559,-1.156455636024475,0.15724927186965942,0.2631080448627472,-0.4286178648471832,-0.9699751734733582,-0.28054916858673096,-0.5676876902580261,1.1721701622009277,-0.5879659652709961,-1.1548558473587036,2.776036024093628,-1.1234581470489502,-0.7666605114936829,-2.1387434005737305,-0.611521303653717,1.1450212001800537,0.03159718215465546,2.1594111919403076,0.5743804574012756,-1.253061294555664,-1.3916265964508057,0.18202483654022217,-3.1398046016693115,-0.4052741229534149,1.3142685890197754,-0.9501137137413025,0.6201464533805847,-2.3786773681640625,0.8239021897315979,1.8160616159439087,1.5974663496017456,-0.10887632519006729,1.9848545789718628,1.608551025390625,-0.14042627811431885,1.740759015083313,-1.27462899684906,1.3509438037872314,-0.5492945909500122,-0.2600371837615967,-2.8571105003356934,-1.0817753076553345,-2.421780586242676,2.4211692810058594,-1.092725396156311,1.5080554485321045,1.2711799144744873,1.0907549858093262,-0.14848630130290985,0.2080562561750412,-1.3593051433563232,-0.8134742975234985,0.37539374828338623,0.012358526699244976,0.1208530142903328,-0.18105271458625793,0.3510330319404602,0.6650972366333008,0.342081755399704,-0.34060272574424744,-1.4634852409362793,1.8544892072677612,0.9822141528129578,-1.1863356828689575,-0.6030246615409851,-0.8367582559585571,1.1104238033294678,0.2831161916255951,3.9514265060424805,0.16727375984191895,-0.6500081419944763,-1.6518845558166504,1.6707978248596191,1.690948247909546,2.190995216369629,-0.40518662333488464,-0.20540842413902283,0.3844078481197357,2.2832372188568115,-0.38890621066093445,0.6192970275878906,-0.6830431222915649,-1.7205766439437866,2.1284244060516357,-1.4431341886520386,-0.9764233827590942,-0.29151806235313416,-3.7666842937469482,0.6345676183700562,-0.4321148991584778,-0.13703565299510956,0.696200966835022,-0.4607749581336975,-0.013530648313462734,0.5053778290748596,-1.60763418674469,1.2301336526870728,-0.2759689390659332,-1.4154582023620605,-0.32349634170532227,1.6899288892745972,0.09440414607524872,0.5648642778396606,0.7251148819923401,-0.08978533744812012,-1.865438461303711,1.58647882938385,0.6416599154472351,0.3746669292449951,0.703544020652771,-3.0309560298919678]},"forgetHidden":{"rows":20,"columns":20,"weights":[-1.1720041036605835,-2.24771785736084,1.931870698928833,0.5777034759521484,0.07224012911319733,0.5533663630485535,1.4616506099700928,0.9617725014686584,1.7535771131515503,0.8699365854263306,-2.121302604675293,0.7392928004264832,2.1782805919647217,-3.1202218532562256,0.23500297963619232,-4.402859210968018,0.6604646444320679,-0.3260364234447479,1.1407347917556763,-0.3920942544937134,-1.2666325569152832,-3.1056196689605713,1.1908713579177856,-0.460500031709671,-4.218473434448242,1.0176308155059814,-0.436541348695755,2.3508377075195312,4.07614803314209,3.7853403091430664,-1.7253164052963257,3.0492961406707764,1.1996132135391235,0.3192029893398285,3.4202826023101807,-4.571447372436523,0.2836345434188843,0.8116887211799622,-2.919424533843994,0.32644373178482056,-1.029101014137268,-0.14366455376148224,0.5412536263465881,0.27634769678115845,1.1135400533676147,-2.253239154815674,-1.5457119941711426,-1.1578702926635742,-0.1964685320854187,-0.3945154547691345,0.4514043629169464,-0.11492467671632767,1.400741457939148,0.232124462723732,0.020751450210809708,0.44677650928497314,-0.028560079634189606,-1.6183018684387207,0.5972952246665955,1.557976245880127,0.8625196218490601,-2.0288095474243164,0.5143458843231201,0.8983014822006226,0.7491957545280457,2.4721527099609375,-0.041526272892951965,0.5822187662124634,-0.4273901581764221,-1.2890231609344482,3.1330270767211914,0.18507489562034607,-3.896247625350952,1.1473888158798218,0.44653254747390747,-1.255800724029541,0.418725848197937,-0.30106058716773987,0.18066345155239105,1.3237069845199585,1.8289515972137451,-1.0158988237380981,1.2211114168167114,1.7158830165863037,-0.12969039380550385,0.606254518032074,-1.7411508560180664,0.7520410418510437,2.4161884784698486,-1.4784705638885498,-2.845517873764038,-0.22101938724517822,-0.3002767860889435,-2.470139741897583,0.2619948089122772,-0.34816375374794006,-3.22979474067688,-1.0686538219451904,2.6274852752685547,1.7746763229370117,0.34332945942878723,-3.52276349067688,-4.414736270904541,-2.7506062984466553,-1.696860671043396,-0.8192305564880371,2.6647424697875977,-1.3058693408966064,-0.0424288734793663,-1.5890319347381592,3.2412662506103516,2.6687369346618652,-2.939605951309204,1.0403618812561035,0.7641116380691528,-2.2457973957061768,3.0892577171325684,-0.004485088400542736,-2.893383026123047,-0.3101671636104584,0.6981520652770996,-0.512129008769989,0.6648221015930176,0.14939472079277039,-0.7192234396934509,0.685920238494873,-1.0701802968978882,-0.5535283088684082,2.0981605052948,-0.323540061712265,-1.6715093851089478,0.1948242336511612,0.14696364104747772,-0.9423218369483948,-0.12027046084403992,-1.9856122732162476,-2.0766868591308594,-0.7957318425178528,3.269242525100708,0.9455099701881409,-4.175935745239258,-1.9833859205245972,-0.6214370727539062,-0.6797218918800354,-0.37226101756095886,2.4039695262908936,-0.12813898921012878,0.33782491087913513,0.8252724409103394,2.30784010887146,-0.10641344636678696,0.10497312992811203,-0.11537987738847733,-2.220470666885376,-0.03162892162799835,-5.392148971557617,1.6555805206298828,-0.5303398966789246,-0.9486628770828247,0.11532812565565109,-3.1252710819244385,-2.5721285343170166,0.21860864758491516,-1.3621599674224854,-2.299337863922119,3.7129337787628174,0.5290224552154541,4.766252040863037,0.23792077600955963,-2.065682888031006,1.9236739873886108,2.101827383041382,3.934079885482788,-2.228555202484131,-1.827249526977539,0.9208439588546753,1.0752123594284058,-2.0979418754577637,-0.013907634653151035,-2.0960700511932373,-0.3506108522415161,1.1753599643707275,-0.5873264074325562,-0.16687214374542236,-3.6174755096435547,-0.19120535254478455,-1.9158726930618286,1.2732573747634888,4.3753790855407715,1.224661946296692,0.31430429220199585,1.6382532119750977,4.597804069519043,-2.220996379852295,-0.4164732098579407,-1.4744399785995483,1.752278208732605,-5.330837249755859,-7.576021194458008,2.518230438232422,-2.3325326442718506,-0.16882821917533875,1.998197078704834,-0.9909659624099731,-3.1472766399383545,0.0688554123044014,-2.620300531387329,2.569112777709961,1.7861932516098022,-0.8097776174545288,0.6333587765693665,2.6441445350646973,-0.449902206659317,-0.6451594829559326,-1.5137423276901245,0.0050593349151313305,-1.9177786111831665,-0.4983874261379242,-1.3007051944732666,0.5275951027870178,2.0043766498565674,2.780014753341675,2.582329511642456,1.6007766723632812,-0.4051535129547119,-0.9107076525688171,-1.081937551498413,1.613795280456543,-1.665754795074463,-0.9116001129150391,1.3327885866165161,-0.3625115156173706,-0.4543265104293823,1.2522459030151367,1.5589182376861572,3.1088452339172363,0.4744982123374939,-0.9318516850471497,1.565486192703247,-2.2420945167541504,2.7311439514160156,-1.4012075662612915,-2.4687790870666504,-0.0632699653506279,2.9296045303344727,2.711498260498047,1.7465423345565796,-2.8108747005462646,-1.9442092180252075,1.331032633781433,-0.800553023815155,-2.490354061126709,-1.6835709810256958,1.9253692626953125,-1.8118025064468384,-0.0649169385433197,2.0303850173950195,3.440534830093384,1.3604915142059326,-0.7889836430549622,1.7339409589767456,-0.3725747764110565,1.0300506353378296,-2.959486484527588,1.0998247861862183,2.2302958965301514,-0.21736638247966766,-3.52215313911438,-0.3123820126056671,0.3854793608188629,1.6580742597579956,-1.1427265405654907,0.1323363035917282,0.9329364895820618,0.29685983061790466,-0.39954525232315063,1.282385230064392,-0.5633999705314636,2.7635562419891357,0.3566105365753174,1.7497572898864746,-0.2905645966529846,-0.1836337298154831,-0.4537872076034546,2.4222259521484375,2.1014599800109863,0.1222117617726326,-2.476579189300537,0.6509289145469666,0.009178937412798405,0.4327784478664398,-2.4141483306884766,-1.1826362609863281,-0.572583794593811,-0.3404981195926666,0.42147257924079895,-0.9370247721672058,2.2836501598358154,-3.3190202713012695,2.008469343185425,-0.6350401639938354,-2.7495594024658203,0.6159465909004211,0.8457692861557007,-2.427560806274414,0.5332289934158325,-6.652761459350586,1.043593168258667,1.93691086769104,1.2313765287399292,-0.07771226018667221,1.4379314184188843,2.813713550567627,-0.9167900681495667,0.5114929676055908,-2.0818991661071777,-2.6214401721954346,-0.5630555748939514,-6.183563232421875,4.903960704803467,0.7442795634269714,-3.452690601348877,1.3695091009140015,0.6073395609855652,-1.5122257471084595,-0.5293835401535034,-0.13192231953144073,-2.323462724685669,1.172935962677002,0.7412666082382202,0.37981104850769043,-2.054547071456909,-2.4248769283294678,-1.0543506145477295,0.1203433945775032,-0.24660789966583252,-0.7822540402412415,0.9208667874336243,2.298398017883301,0.6286507844924927,-1.329474925994873,0.05367162823677063,3.3529436588287354,2.431246042251587,-0.1937672644853592,-0.3436677157878876,-1.354490041732788,-0.013005784712731838,-0.05790351331233978,0.5844988822937012,0.36117634177207947,1.3583030700683594,1.8223797082901,-0.49975860118865967,-0.06066138669848442,-0.03401738405227661,-1.5945795774459839,-1.4994975328445435,-1.9424352645874023,-0.4875352680683136,0.35468602180480957,-1.43730628490448,1.2637416124343872,2.116264820098877,-1.1757652759552002,2.2985031604766846,-1.026976466178894,0.5052510499954224,4.440390586853027,3.9652206897735596,-2.9787964820861816,-0.18430857360363007,-1.1680618524551392,-3.692902088165283,2.0925233364105225,-2.3407771587371826,0.17876242101192474,0.4002581536769867,3.180485963821411,2.676792621612549,-1.4118013381958008,-2.9056477546691895,1.4518141746520996,-1.7061346769332886,-3.889373540878296,-0.7533274292945862,-2.251049757003784,2.3851776123046875,4.471224308013916,5.227574348449707,-2.1398708820343018,1.4499047994613647,5.329296112060547,-2.848615884780884,1.9875590801239014,-3.202702522277832,1.1035137176513672,-3.4306440353393555,-0.2303902953863144,1.3079675436019897]},"forgetBias":{"rows":20,"columns":1,"weights":[0,0,0,0,0,0,0,0,0,0,0,0,0,0,0,0,0,0,0,0]},"outputMatrix":{"rows":20,"columns":34,"weights":[-1.757529377937317,-0.8946776390075684,-1.2032736539840698,0.007502550259232521,0.3483716547489166,0.1491226851940155,-0.6195963621139526,0.9873365163803101,-0.2182028889656067,-2.115321397781372,1.4004193544387817,0.6412912011146545,3.792757511138916,-0.5324481129646301,-1.6895925998687744,0.8547985553741455,1.1460031270980835,3.2038841247558594,0.21398340165615082,-0.5082004070281982,-0.1944587528705597,2.0514636039733887,0.5433588624000549,-0.5068774819374084,-0.051004890352487564,-0.3801247775554657,-3.081808567047119,-0.09530402719974518,2.314805507659912,-1.2351915836334229,-1.462058186531067,0.8303133845329285,0.7391282916069031,1.3933417797088623,0.6233620643615723,0.5086092948913574,-1.1141953468322754,-0.15825161337852478,-0.6083323359489441,0.6298314929008484,0.44909077882766724,0.6854823231697083,0.3863184154033661,1.9953747987747192,0.3432285189628601,0.20079249143600464,-2.5759174823760986,-1.0006049871444702,-0.29036539793014526,-0.4213165044784546,-0.41550371050834656,-0.14274585247039795,-0.9841325879096985,-0.3138551115989685,0.13210253417491913,0.5870159268379211,0.07922165840864182,1.009287714958191,0.16873064637184143,0.12295456230640411,2.8063511848449707,-0.24980680644512177,-1.8891329765319824,0.4313293993473053,0.416215717792511,-0.15200918912887573,-0.20669244229793549,-1.19477117061615,-2.598052978515625,0.7722672820091248,-1.190260887145996,0.03402104601264,0.20598603785037994,0.9439189434051514,1.0431479215621948,3.0049209594726562,0.23157992959022522,-0.284328818321228,2.9804141521453857,-2.11396861076355,0.5313066244125366,0.1737082302570343,1.6107232570648193,-1.4285510778427124,0.29328614473342896,0.5431787967681885,-1.2892621755599976,-0.4175339937210083,-0.9920097589492798,0.21307431161403656,0.7110921740531921,-1.5617575645446777,-0.9048816561698914,-1.416748046875,0.246614009141922,0.6721541285514832,1.9264272451400757,-0.5456113219261169,-1.9379122257232666,0.9463211297988892,-0.3606369197368622,-0.15998488664627075,-1.162603735923767,-1.6904995441436768,-1.1455599069595337,-1.8391975164413452,-1.3943527936935425,-1.1733423471450806,-1.6214752197265625,1.3611143827438354,-1.4432708024978638,2.939429759979248,-0.5113247036933899,-1.8873944282531738,-1.2697134017944336,0.9039861559867859,-0.23360905051231384,-1.167916178703308,0.1845976561307907,-1.0481300354003906,-1.8538719415664673,-1.9076411724090576,2.4712469577789307,2.4843249320983887,-0.009760651737451553,0.3224037289619446,-1.3140134811401367,-0.27813586592674255,0.30448299646377563,2.3019826412200928,2.2795448303222656,-1.9980140924453735,-0.12247226387262344,-1.7782262563705444,1.8578002452850342,0.7993163466453552,-0.9063946604728699,2.244450569152832,0.18323290348052979,-1.2159978151321411,-1.0348165035247803,-0.08669843524694443,0.6858425140380859,1.7150107622146606,-0.9698708653450012,-1.1835373640060425,1.7984087467193604,-1.1950289011001587,0.32199743390083313,-0.3576602339744568,0.4785397946834564,1.2591499090194702,-1.5966087579727173,-0.9035390019416809,3.0217857360839844,-0.3449893593788147,2.5502982139587402,0.07067281752824783,-1.8214597702026367,2.3545243740081787,2.140739917755127,-0.2953101694583893,0.17417792975902557,-1.504510521888733,0.8594712018966675,-1.290330410003662,0.7847525477409363,-2.460583209991455,1.7640962600708008,0.1641421616077423,1.0645112991333008,0.030799508094787598,-0.8803467750549316,-0.33411648869514465,-0.6753415465354919,2.1206448078155518,2.256892204284668,-0.935264527797699,-0.8263099789619446,1.7811323404312134,-1.9854357242584229,1.7113268375396729,0.2824065685272217,1.4954959154129028,1.5038220882415771,-1.4197938442230225,-0.21386225521564484,-0.2964506149291992,-2.792340040206909,1.169140100479126,-1.0018755197525024,-0.3118923306465149,0.7118215560913086,2.133474826812744,-1.240343451499939,0.8489565253257751,0.9838613271713257,0.708064079284668,-1.05037260055542,0.6171773672103882,-0.2156696617603302,1.1575638055801392,-2.5240283012390137,-2.8098766803741455,-1.353338360786438,-0.5531654357910156,-0.4874643087387085,0.8325552344322205,-1.698616623878479,-0.17926207184791565,1.6826753616333008,3.058532953262329,-1.1192823648452759,-1.6160950660705566,-0.378018319606781,-3.003066301345825,-0.2549164891242981,0.35153114795684814,1.6918563842773438,3.708186149597168,0.3252701163291931,1.9453566074371338,2.4144668579101562,-0.9019404053688049,2.019850015640259,0.06293690204620361,0.016427405178546906,4.243162631988525,4.290169715881348,0.26811113953590393,1.2948198318481445,-3.7743148803710938,-0.11065183579921722,-0.37662243843078613,-1.2735689878463745,0.4339420795440674,0.666931688785553,0.3681773841381073,1.5532482862472534,0.14941462874412537,-1.4109976291656494,-0.9812783002853394,0.29317212104797363,3.4565160274505615,0.8885316848754883,0.7079475522041321,1.4665448665618896,-0.9639467000961304,1.8088935613632202,0.15425923466682434,0.23016194999217987,0.5014098882675171,-0.06221774220466614,1.1909050941467285,0.600422203540802,-1.228295922279358,-0.4019026458263397,0.6199315786361694,1.6407103538513184,-0.7629268169403076,0.8873080015182495,0.36069434881210327,2.8928370475769043,-1.5513598918914795,3.3408026695251465,-3.143082857131958,-1.9809632301330566,-0.2376021295785904,0.07727621495723724,-0.07762767374515533,-0.1332511007785797,-2.3803327083587646,0.13908901810646057,0.47556212544441223,0.29935720562934875,-0.2306431233882904,-1.0103576183319092,-0.34152019023895264,2.0876851081848145,0.7797152400016785,0.8710216283798218,-0.7264840602874756,-0.5776267051696777,-2.012392282485962,-0.7792381644248962,-2.127147912979126,0.5209254622459412,3.620568037033081,0.5852633118629456,1.4251288175582886,3.784994125366211,-0.3901183605194092,-1.3209688663482666,-0.5728844404220581,-0.07846225053071976,3.0912649631500244,3.330249547958374,0.757642388343811,3.088566780090332,-3.526871919631958,-0.23362970352172852,0.18460065126419067,0.2231251299381256,0.33608677983283997,-0.5420252084732056,-0.5366246104240417,0.935823380947113,-1.6712112426757812,1.4040676355361938,0.37759146094322205,0.301107257604599,-2.592322826385498,-0.8433674573898315,-1.4102728366851807,-0.414689302444458,-0.08512774854898453,-2.4453232288360596,0.6762509346008301,-0.5671617388725281,0.13769999146461487,-1.9799124002456665,-0.22096313536167145,-0.8808797001838684,-0.06748451292514801,-0.647331178188324,-1.1084444522857666,-0.4166718125343323,-1.1672210693359375,0.769997775554657,-0.24494075775146484,2.8902571201324463,-0.960852861404419,1.4816923141479492,-2.276005268096924,-2.5213894844055176,1.0395493507385254,0.5656594038009644,1.416123390197754,-0.7307051420211792,0.9981911778450012,3.2576446533203125,-2.233264446258545,-0.212108314037323,-1.1595966815948486,1.525591254234314,-0.4832586348056793,-0.6972885727882385,0.6835919618606567,0.6513867974281311,1.5620276927947998,-0.6738597750663757,0.015481416136026382,-1.971699833869934,-0.6112006902694702,-0.9778347611427307,-0.7531203627586365,1.7586524486541748,-1.3459234237670898,1.0417898893356323,-3.6989307403564453,0.9264332056045532,0.5534350275993347,0.6753156185150146,-0.8401702046394348,-0.9669448137283325,0.06549462676048279,1.7239489555358887,0.9605871438980103,-1.2930691242218018,-1.65508234500885,1.6593120098114014,-0.038573987782001495,-1.784134864807129,1.6470601558685303,0.0831790342926979,-0.3313610255718231,0.26822155714035034,0.6250737309455872,-0.7217352390289307,-0.28717780113220215,0.42052873969078064,0.5070835947990417,1.0972312688827515,-1.1340281963348389,0.08484471589326859,-1.1897960901260376,2.690490484237671,0.6121683716773987,-0.0919191837310791,1.5758682489395142,-2.580284357070923,-0.4353450834751129,-0.3798411190509796,1.8897079229354858,0.7386981248855591,-1.1598243713378906,-2.5446949005126953,0.8883804082870483,4.823380470275879,-1.5141195058822632,0.14181789755821228,-3.9153950214385986,-1.4241353273391724,0.03062319941818714,1.9554494619369507,-0.39090695977211,1.0954844951629639,-0.7114964127540588,0.2812116742134094,-0.9681149125099182,-0.5672956705093384,0.6344135999679565,0.06606640666723251,0.7452710866928101,1.3002359867095947,0.5483741164207458,0.1999872326850891,-1.3338103294372559,0.2342120110988617,0.40998345613479614,4.01081657409668,0.5514042973518372,0.04400498792529106,0.6102147102355957,-0.49690884351730347,0.4567819833755493,-0.5337100028991699,1.0255069732666016,-0.38629353046417236,1.0290426015853882,0.4293022155761719,0.8399149179458618,1.2289671897888184,-1.839107871055603,0.03438860550522804,-1.35518479347229,-0.026983151212334633,-0.0506274588406086,-1.4313184022903442,1.284353494644165,-0.11239887028932571,0.0794934332370758,2.4712579250335693,0.042460303753614426,-1.0275182723999023,-0.6641722321510315,-1.8946120738983154,0.2093566507101059,1.3355088233947754,0.059603773057460785,1.6678346395492554,2.216395854949951,-0.08079548180103302,-0.022281141951680183,-1.4922841787338257,-2.3558504581451416,-0.34153905510902405,-0.6558963656425476,1.5464268922805786,0.39207202196121216,-0.2423034906387329,-2.2860305309295654,0.7884033918380737,1.4420181512832642,0.12897281348705292,1.3489376306533813,-0.3820076882839203,-0.27323779463768005,2.283623695373535,0.20225897431373596,-2.043797731399536,-1.6122143268585205,-0.3543616831302643,-1.0199313163757324,-1.9810240268707275,-0.14972051978111267,0.9432099461555481,-0.046272359788417816,1.4593579769134521,0.5902103781700134,2.3858654499053955,-2.0505762100219727,1.2949692010879517,-0.3895534873008728,0.7371381521224976,-3.023888111114502,-0.26544255018234253,0.2675383687019348,1.6532343626022339,-0.2024337351322174,-1.0358375310897827,0.7081424593925476,0.5123185515403748,-0.0017153470544144511,2.3657732009887695,1.4041674137115479,-1.8503330945968628,-1.66753089427948,-0.9619426727294922,-0.2681367099285126,0.6166486144065857,1.0959817171096802,-0.09830877184867859,-1.2976170778274536,0.5886760950088501,2.784036159515381,0.24147844314575195,0.4568912982940674,1.4854393005371094,0.42328447103500366,1.6983635425567627,-1.8240052461624146,0.09416327625513077,-1.4066038131713867,3.2875173091888428,-1.2885195016860962,-0.9442301392555237,0.043587204068899155,1.953988790512085,1.0082565546035767,-1.0783146619796753,0.44032320380210876,-1.3121469020843506,-1.4113277196884155,-2.739410877227783,1.5696086883544922,2.6210339069366455,-0.04312993958592415,0.27571237087249756,0.5215827226638794,-2.2469818592071533,0.49803516268730164,0.5302515625953674,-0.503357470035553,1.358238697052002,0.4847312271595001,2.7662394046783447,-1.4423952102661133,-2.0474867820739746,0.026410769671201706,1.8040417432785034,-1.146130919456482,-0.4280940592288971,0.5111596584320068,2.1061272621154785,-1.0315847396850586,2.8674027919769287,-0.6857302784919739,1.224983811378479,0.1109594777226448,-0.13037441670894623,-2.4233126640319824,0.8063139915466309,1.539832353591919,-0.7688776254653931,1.0638988018035889,-1.22597336769104,0.749366819858551,-0.8609371185302734,-3.0078632831573486,0.6981958150863647,-2.0299391746520996,-2.05779767036438,0.3489484488964081,-1.550464153289795,-2.266336679458618,0.8259323239326477,-0.34172943234443665,-1.9421144723892212,0.39005735516548157,0.9055884480476379,2.167206287384033,-0.8721321821212769,2.4395902156829834,0.9251478314399719,-0.29599007964134216,-0.5714439749717712,-0.2222052961587906,-2.9207043647766113,0.9999845027923584,-0.45795461535453796,0.37125879526138306,-1.5166594982147217,-0.910179615020752,-0.8342805504798889,0.3071218430995941,0.3383334279060364,-0.07253000885248184,-0.451732337474823,-2.4700324535369873,0.8370524644851685,-0.05617494136095047,0.5167540311813354,2.8130905628204346,-0.07264712452888489,1.1156712770462036,-0.6907233595848083,-0.5625012516975403,0.5525189638137817,0.9618154764175415,0.3080832362174988,2.329495906829834,2.6847615242004395,-1.018194317817688,0.2617766857147217,-1.5684306621551514,2.174351930618286,-0.17141076922416687,-0.5894898176193237,-0.3739527463912964,1.4143418073654175,-0.7591379284858704,0.744022011756897,-1.7132816314697266,0.37399134039878845,0.8073683977127075,-0.1837734580039978,0.40041637420654297,-1.6253221035003662,-1.3835103511810303,1.2117480039596558,0.6778180003166199,0.7062345743179321,1.1342672109603882,-2.142188310623169,-0.7774417400360107,-3.292473554611206,-1.2097896337509155,0.9057857990264893,1.0975031852722168,-1.5804179906845093,-1.2358206510543823,-0.1834350824356079,0.7305314540863037,3.0428717136383057,-3.458921194076538,-1.0591148138046265,-1.8477495908737183,1.4154778718948364,0.27733471989631653,-2.036491632461548,-0.09638563543558121,-2.4497430324554443,0.9965710043907166,-1.794494390487671,2.246709108352661,-0.5573030710220337,0.24799203872680664,-1.091323971748352,-1.321295976638794,-0.4908388555049896,1.0982617139816284,-0.28638696670532227,1.4547147750854492,-0.6452584266662598,0.9348611235618591,0.13259103894233704,-0.4263511598110199,0.33427107334136963,0.7572073936462402,0.10621625930070877,-0.869160532951355,0.33747461438179016,-1.1616686582565308,-0.6993957757949829,-0.44777122139930725,0.750575602054596,0.13765843212604523,0.14319977164268494,-0.5313476920127869,-1.107566475868225,-0.2843882739543915,-0.3681252598762512,1.3291200399398804,0.5213130116462708,-0.1775967925786972,0.910594642162323,-0.8917653560638428,0.42707595229148865,-0.5494528412818909]},"outputHidden":{"rows":20,"columns":20,"weights":[1.4158027172088623,-4.20394229888916,-1.450817584991455,-0.8570103049278259,1.9563264846801758,0.9205399751663208,3.6742520332336426,-0.6447851657867432,0.06899461150169373,-0.8618646264076233,0.7680163383483887,-1.2623016834259033,-2.810905694961548,-0.09588745981454849,1.3361846208572388,-0.0389709435403347,1.4766643047332764,2.2333788871765137,-3.8252696990966797,1.623593807220459,-0.2650943994522095,-0.25252577662467957,-0.3266114294528961,-3.2740654945373535,-4.773115158081055,-3.7760400772094727,-2.5732429027557373,5.192842483520508,6.553700923919678,3.3317487239837646,-4.277191162109375,2.6070611476898193,0.5564131140708923,-1.945027470588684,3.987834930419922,-3.9804630279541016,0.2485796958208084,-2.2478649616241455,1.643310785293579,5.325051784515381,2.170698404312134,0.938215434551239,-0.7159804105758667,-0.8650995492935181,2.5862624645233154,0.9700707793235779,1.2031197547912598,0.9548102021217346,-1.9782999753952026,-0.7353570461273193,1.0111651420593262,-2.1579811573028564,2.357985019683838,1.7984435558319092,0.0016664278227835894,2.6088781356811523,0.0271669402718544,2.6548211574554443,-0.2376917004585266,-3.13616681098938,-0.7707177996635437,-4.7935709953308105,-1.4386869668960571,-0.3499399721622467,-2.5586249828338623,1.2190253734588623,-0.2750053405761719,3.695892810821533,2.175199508666992,-2.114941120147705,0.5660749673843384,2.7329020500183105,2.753903865814209,-1.651630163192749,-1.6707841157913208,0.6488364338874817,2.3230152130126953,-4.259889125823975,-2.217717409133911,0.7956876754760742,1.8757187128067017,-1.5331776142120361,3.529414653778076,0.8643643260002136,1.3393961191177368,-0.7003161907196045,-2.5386812686920166,-1.4747377634048462,0.6168859004974365,0.8528434038162231,1.3027629852294922,0.7325195670127869,-1.6486700773239136,2.5407323837280273,6.842898845672607,0.07369297742843628,-1.0516101121902466,2.5835635662078857,3.6459639072418213,-0.7653312087059021,-1.8286960124969482,-4.147742748260498,0.18127880990505219,-0.24449044466018677,-1.268500566482544,-3.3443033695220947,-0.55609130859375,-1.2856152057647705,1.8679653406143188,2.1712419986724854,-3.2211503982543945,0.900326132774353,-0.42990949749946594,-1.650273323059082,3.0541062355041504,-3.2976326942443848,1.7312395572662354,2.005643129348755,3.7996737957000732,2.9692180156707764,-1.3596514463424683,1.1924468278884888,0.31590718030929565,1.8414536714553833,0.9930201172828674,0.66307133436203,-0.1534706950187683,3.9183413982391357,-2.0070509910583496,-2.827211856842041,0.27367162704467773,-0.8504929542541504,0.9822739958763123,-0.6759863495826721,-3.2698400020599365,4.478835105895996,-1.8265937566757202,-0.9221528768539429,-1.5312459468841553,-3.02463436126709,-0.6676439642906189,4.959364414215088,-0.10021454095840454,-2.0795252323150635,-1.2439041137695312,1.3424381017684937,2.049868583679199,1.6205812692642212,0.1888352483510971,-0.3553995192050934,-0.6736997365951538,1.127078652381897,1.5073286294937134,0.1364893764257431,-1.22249436378479,-0.9171491861343384,-1.482580542564392,-0.5930736064910889,-1.849920392036438,1.6309754848480225,0.984530508518219,3.2113609313964844,0.8279947638511658,0.8650314807891846,2.167613983154297,-4.2858381271362305,0.6810495257377625,-0.8610480427742004,-2.5980224609375,-0.18006199598312378,1.495010256767273,-1.636723518371582,-1.7276058197021484,2.0050301551818848,-0.013079975731670856,-0.5191555619239807,-2.218477249145508,1.7716416120529175,1.9848276376724243,-0.005162463523447514,-2.8824992179870605,-2.8936374187469482,-2.1601529121398926,-0.7316818833351135,-1.8484400510787964,0.0028088008984923363,-0.48666203022003174,1.639971137046814,1.093484878540039,3.365450143814087,0.37638431787490845,1.9979134798049927,1.4825317859649658,-1.0622344017028809,3.309626340866089,-1.0621870756149292,-0.5873993635177612,-0.2437204122543335,-2.645127534866333,0.9613409638404846,-1.9476981163024902,0.24942685663700104,-0.7724840641021729,-3.054816246032715,-3.976689338684082,-2.9388649463653564,-1.6568580865859985,0.2464865744113922,0.965855062007904,1.2524195909500122,1.2052854299545288,4.18161678314209,2.274116277694702,-1.0723906755447388,-0.9743683934211731,0.8635251522064209,-0.4889189898967743,-0.007450880017131567,-3.0258593559265137,-0.704217255115509,1.4980437755584717,1.8377128839492798,-1.394574761390686,0.9619912505149841,-1.1795127391815186,0.11592189222574234,-2.1773505210876465,-0.31038984656333923,1.4749799966812134,-0.9690276980400085,-0.685092568397522,0.3888297975063324,0.23450404405593872,0.17754913866519928,2.0115511417388916,-1.4910180568695068,-0.9313979148864746,-0.769330620765686,-1.8228837251663208,-1.298696517944336,1.5135406255722046,2.4241819381713867,6.783980369567871,3.587686777114868,2.198991537094116,1.3093414306640625,1.0941798686981201,2.5215954780578613,-0.19026842713356018,-2.1565165519714355,0.619718611240387,-0.8899775743484497,0.6436604261398315,0.29125431180000305,-0.2231270968914032,-0.38302725553512573,-0.15537585318088531,-0.5167209506034851,-0.5195399522781372,-2.322659969329834,1.5817248821258545,0.9872416257858276,-7.705489635467529,-4.9102463722229,0.006237173452973366,-1.9295375347137451,3.734990358352661,1.3250925540924072,-2.6650991439819336,-0.6379556059837341,0.36587321758270264,-0.24826563894748688,-2.2861881256103516,-1.233662724494934,-2.7391459941864014,1.6700392961502075,7.455133438110352,3.030695915222168,-2.201542377471924,-0.4614757299423218,-0.9609151482582092,1.7126054763793945,-0.41858628392219543,-0.9983199238777161,0.3215964734554291,-4.313382625579834,-0.3182390630245209,-4.6725687980651855,-3.3477823734283447,-1.0083857774734497,3.2753512859344482,0.8646595478057861,3.133641242980957,-0.328570157289505,-0.43238455057144165,0.7525621652603149,1.3132760524749756,-2.3214242458343506,-2.0439083576202393,-3.0298519134521484,-2.562533378601074,-0.08088457584381104,-0.9105372428894043,-0.11141259968280792,-0.8827422261238098,-1.2782330513000488,0.8693119287490845,0.13363228738307953,2.576580286026001,3.23030161857605,-3.18149733543396,1.3977223634719849,2.6216847896575928,-3.903869867324829,0.8143234848976135,-2.57938551902771,-1.1526490449905396,-2.8709523677825928,3.3593146800994873,2.0098774433135986,0.09428425878286362,-1.5572688579559326,1.659118413925171,1.4367039203643799,-1.224173903465271,-3.010589838027954,0.33618640899658203,-1.3710042238235474,-0.35053399205207825,-2.261395215988159,-0.14943119883537292,1.1496293544769287,-0.5597743391990662,2.3316943645477295,-0.13247869908809662,1.5393567085266113,-4.023262023925781,-0.8286823630332947,2.4376676082611084,0.3923009932041168,0.9575536847114563,-0.5688589215278625,-2.9834840297698975,-5.81636381149292,2.5585596561431885,-3.6890265941619873,3.236300468444824,-4.846546173095703,-2.493565797805786,1.5220836400985718,-0.5186388492584229,-2.1097545623779297,-2.1364634037017822,2.1192970275878906,-0.7685107588768005,0.8931226134300232,3.4377546310424805,1.4541025161743164,-2.2299699783325195,0.10426285117864609,0.13317371904850006,-1.7945176362991333,0.21771655976772308,0.7560669779777527,-1.8778331279754639,1.4186393022537231,1.666713833808899,-5.434353351593018,-1.9847898483276367,3.5735509395599365,0.2148149013519287,-1.017043948173523,-2.0590574741363525,0.39601799845695496,0.1566513329744339,-4.069225311279297,1.1571617126464844,0.1056368350982666,-0.9624382257461548,-0.5528028011322021,-5.007547378540039,-2.4507014751434326,-0.5851415395736694,-0.15459570288658142,-2.547635555267334,1.4673320055007935,-0.9862496852874756,-1.7775957584381104,5.262379169464111,7.063860893249512,-1.5074937343597412,-0.5613778233528137,-0.913514256477356,-6.534484386444092,0.611186683177948,-2.2104711532592773,2.5322303771972656,-1.32517671585083,-0.07598654180765152,1.1323620080947876]},"outputBias":{"rows":20,"columns":1,"weights":[3.0302302837371826,-2.429067611694336,-0.27852389216423035,-0.4923008382320404,-0.35570812225341797,-0.30891111493110657,0.9324074387550354,-2.796478271484375,0.7279642820358276,-0.3550412356853485,-1.0824906826019287,0.35591453313827515,0.5925918221473694,1.255643367767334,0.14135999977588654,-0.7635427713394165,-0.21769434213638306,2.3703038692474365,-0.3401443362236023,-1.1939823627471924]},"cellActivationMatrix":{"rows":20,"columns":34,"weights":[-1.5332919359207153,-1.2321364879608154,-0.34893926978111267,0.274911493062973,-0.08697211742401123,0.9832872748374939,0.4931689500808716,1.6362015008926392,-0.5382557511329651,-0.17139877378940582,1.0454397201538086,-0.23994602262973785,-0.16892565786838531,0.5964404940605164,-0.36272531747817993,0.6251512169837952,0.3883676826953888,-0.3657852113246918,-0.5575658082962036,-2.413864850997925,1.0976241827011108,-0.4587738811969757,2.2039527893066406,0.48791444301605225,0.04304933175444603,-2.5880212783813477,-0.1336931437253952,-0.5991993546485901,0.6214784979820251,-0.023742834106087685,-1.0401315689086914,0.6129708290100098,-0.3022664189338684,1.3469313383102417,0.1706441193819046,0.48848411440849304,-0.020875582471489906,-0.7740060091018677,-0.15428324043750763,0.2865735590457916,-0.06919530034065247,0.44370508193969727,-0.6969252824783325,0.5804867744445801,0.38886764645576477,-1.126115083694458,1.2985637187957764,0.8671945929527283,0.3953838646411896,-0.5393362045288086,-1.1235045194625854,0.5215098857879639,-0.9255327582359314,-0.5809949636459351,0.6219949126243591,-0.23070737719535828,0.059982649981975555,-0.7114957571029663,-0.591530978679657,-1.2882699966430664,-1.2996985912322998,0.7057934999465942,1.6835626363754272,-0.4954991936683655,-0.608733057975769,-0.05625550448894501,-0.18424971401691437,-0.230942964553833,0.9426727294921875,-0.05370059981942177,0.7293655276298523,0.6296736001968384,1.616163969039917,0.08327004313468933,0.8670185208320618,-0.4412520229816437,1.2315031290054321,-1.0094720125198364,0.2961338460445404,1.707649827003479,0.41400736570358276,-0.42447763681411743,-1.541818618774414,0.7338705658912659,0.129529669880867,-0.3397742807865143,-0.7287413477897644,-0.46032488346099854,-1.9067691564559937,-0.7879587411880493,-0.28936710953712463,0.4965191185474396,1.119153618812561,0.02221800573170185,0.8671929240226746,-1.1110516786575317,-1.216365933418274,1.380906343460083,1.540069341659546,1.3371741771697998,-1.268183708190918,-0.2310897260904312,0.6681205630302429,0.986268162727356,-0.509040892124176,0.9102084040641785,0.15989384055137634,-0.6048959493637085,0.012721714563667774,0.41912972927093506,0.3158301115036011,0.0529506616294384,-0.054717447608709335,0.3031916320323944,-0.40081048011779785,-1.6084710359573364,-0.8451642990112305,1.523436427116394,-1.0041310787200928,0.8391779661178589,0.167726069688797,-0.4683751165866852,0.17279043793678284,-0.6741467714309692,0.1305433064699173,1.425635814666748,1.2857979536056519,-0.25299718976020813,2.059081554412842,-0.5510604381561279,-0.18873828649520874,-0.5334703326225281,1.4778130054473877,-0.16824479401111603,-0.39521360397338867,-0.8209307789802551,-0.6619119644165039,-0.5125458836555481,-0.5141853094100952,-0.3277631103992462,0.6008193492889404,0.9132049083709717,0.5941126346588135,0.3171371817588806,-0.5143743753433228,-1.6213839054107666,1.5265004634857178,0.30072495341300964,-0.026440590620040894,2.0568230152130127,0.8123418092727661,-0.999421238899231,0.6973974108695984,-0.13608601689338684,-0.4783192574977875,0.08367206901311874,-1.5019491910934448,-0.22005806863307953,0.41904088854789734,-0.92279452085495,-0.7796255350112915,-0.5707282423973083,-0.9284956455230713,0.7508935928344727,0.747471809387207,0.6932283043861389,-0.4411434829235077,0.8956539630889893,0.08703689277172089,-0.7315154075622559,1.1242026090621948,-1.2334812879562378,1.4528330564498901,-0.7911258339881897,-0.08490948379039764,1.0479702949523926,-0.41228827834129333,-1.141972541809082,1.1657994985580444,0.33772730827331543,1.7542868852615356,0.9345113039016724,0.5660378336906433,-0.0314379446208477,-0.09118079394102097,0.5404375195503235,0.9260074496269226,-0.530846118927002,0.7160473465919495,0.3885059058666229,-0.30253472924232483,0.5012475252151489,1.9183622598648071,0.8549574613571167,0.9883217811584473,0.11268017441034317,1.754970669746399,-0.9915387630462646,-1.8637546300888062,0.21243037283420563,-0.49606162309646606,-0.4904441237449646,-1.1761852502822876,0.08648844063282013,0.16765259206295013,-0.10948305577039719,-0.2580927908420563,-0.005037379916757345,0.3419455587863922,0.41860029101371765,0.10868346691131592,-0.2339451164007187,0.04318394884467125,-0.05429276451468468,-0.047637224197387695,1.2005215883255005,1.7737163305282593,1.535255789756775,-0.6399047374725342,-1.9872472286224365,-0.2790950834751129,-1.8498539924621582,-1.0401124954223633,-0.17983770370483398,0.512679398059845,-0.4787050783634186,-0.21122777462005615,-0.6836168766021729,-1.7081129550933838,-0.4160790741443634,-1.049944281578064,1.503741979598999,-0.23546193540096283,-0.22710974514484406,-0.36386993527412415,0.19722284376621246,-0.4985416829586029,0.05369383096694946,-0.16509056091308594,1.192124605178833,-0.8580344319343567,0.69671630859375,-0.7701395153999329,0.11653228104114532,0.7353576421737671,1.1738479137420654,0.7696546316146851,-0.8211314678192139,0.34429559111595154,0.13327208161354065,0.2601715624332428,-0.8273144960403442,-0.6692870259284973,2.8113927841186523,-0.47543931007385254,-0.09546264261007309,-0.9316786527633667,-0.11019166558980942,0.9140949845314026,-0.1257026046514511,-1.1139520406723022,1.3831020593643188,1.9272443056106567,0.04988479241728783,0.8624600768089294,-1.514978289604187,-0.30668026208877563,-0.6425979137420654,2.434014081954956,-0.137337788939476,0.48920586705207825,-1.8726834058761597,0.9785909056663513,-0.5647627115249634,0.6093710064888,0.05328876152634621,-0.5573514699935913,-1.4365942478179932,0.010962470434606075,-0.032016392797231674,-0.7488619685173035,-0.1173601821064949,-1.6939631700515747,-0.36821675300598145,0.1358480006456375,-1.2788747549057007,0.8957879543304443,2.405259370803833,-0.14359210431575775,-0.0929461270570755,0.5276603102684021,-0.36909326910972595,-0.3723280727863312,-0.4661952257156372,-0.5264904499053955,0.7922675013542175,-0.20517386496067047,0.6573970317840576,2.3470749855041504,-0.690210223197937,-1.4554582834243774,-0.7410330176353455,0.5465021729469299,-0.42510759830474854,-0.9141775965690613,0.7407220005989075,0.06401190906763077,-0.25431978702545166,-0.22544197738170624,-0.5509130954742432,-1.3741414546966553,0.1231042668223381,0.45387572050094604,-0.4390278458595276,1.171420931816101,-0.6525245904922485,-0.6300618648529053,0.13090266287326813,-0.0882032960653305,-2.3961923122406006,-0.2906130254268646,1.0301741361618042,0.684421956539154,1.022791862487793,-1.1970160007476807,0.6048523187637329,0.86775141954422,-0.15312716364860535,-0.19186809659004211,0.45437654852867126,0.9556106925010681,0.2120732069015503,0.7894070744514465,-1.1382936239242554,-1.2813023328781128,-0.003754174569621682,0.8375177383422852,-1.0550538301467896,-0.5105592012405396,0.891876757144928,0.5916751027107239,1.1128932237625122,0.7829501032829285,-1.0264911651611328,-0.11192150413990021,0.3337686359882355,-1.2306184768676758,-1.0863412618637085,-0.05693734064698219,-0.9209166169166565,0.8857863545417786,1.5128000974655151,1.359917402267456,0.0970073938369751,-0.1304616630077362,0.46142128109931946,0.01946313865482807,-1.2459309101104736,0.8040087223052979,1.3151105642318726,0.2890359163284302,-0.001718583982437849,-0.6806507110595703,1.2056370973587036,0.36160343885421753,-0.6748374104499817,-0.46026667952537537,-0.6366090774536133,0.1114160344004631,0.5489599108695984,-0.06244608759880066,-0.37659138441085815,-0.5073462724685669,-1.0563150644302368,0.22664892673492432,0.1349823772907257,-0.00962422601878643,0.8110740184783936,-0.1789489984512329,0.44004008173942566,-0.0880807489156723,-1.0900061130523682,-0.5229668617248535,-0.6838331818580627,0.19590018689632416,-0.03336547687649727,0.3122217059135437,-0.14428454637527466,-0.027738375589251518,1.0262515544891357,-0.28712356090545654,-0.4301864206790924,1.1871438026428223,1.2837823629379272,0.5577067136764526,-0.3453522324562073,0.07603494077920914,1.0232861042022705,1.0513670444488525,1.3428372144699097,0.5796991586685181,-0.9551069140434265,-0.30956441164016724,1.0858784914016724,0.6052908897399902,1.0069279670715332,0.25784504413604736,-0.7316528558731079,-0.09360890090465546,0.6908674836158752,0.226252943277359,1.0065436363220215,-0.271968811750412,0.21156518161296844,2.02778697013855,-1.0349117517471313,0.025915291160345078,-1.081350326538086,-1.2104151248931885,0.9540055990219116,1.364012598991394,-0.3576342463493347,0.7920588254928589,0.028661679476499557,-0.7635408639907837,0.5534857511520386,0.3356665372848511,1.5519440174102783,-0.9392138123512268,-0.6982578635215759,-0.8904792070388794,1.2414965629577637,-0.07592681795358658,2.5179131031036377,0.14335909485816956,-0.5694043040275574,-0.5773502588272095,1.4455673694610596,0.06613097339868546,1.4410557746887207,-0.8572407960891724,-0.4331376850605011,-1.8059051036834717,0.12375796586275101,-2.1572890281677246,-0.15019142627716064,2.9488868713378906,-0.23707588016986847,-1.7207375764846802,0.6225216388702393,0.05290180444717407,-0.3267972469329834,-0.05930333584547043,-0.31586846709251404,-0.8984962105751038,1.4029616117477417,-1.0542458295822144,2.1225974559783936,1.5539882183074951,1.2834755182266235,-1.1904451847076416,1.4561163187026978,1.5073826313018799,-0.8407882452011108,-0.7308651804924011,-4.6187872886657715,-0.1274275779724121,-0.44593802094459534,-1.3169816732406616,-0.7452239394187927,0.621981143951416,0.0021212990395724773,0.7852391600608826,-1.752785325050354,2.0970027446746826,1.2087761163711548,1.165488362312317,0.29348230361938477,-0.11958341300487518,0.6983665227890015,1.8165682554244995,-1.0637357234954834,0.643550455570221,-0.0824044868350029,-0.8372576236724854,0.8569575548171997,-2.200521469116211,0.6195987462997437,-1.6371022462844849,-0.45762431621551514,-2.2471179962158203,0.021794095635414124,0.30878689885139465,-0.975983738899231,-0.17341193556785583,0.34657588601112366,-0.5363302826881409,-1.4147495031356812,-0.5309243202209473,-0.36675113439559937,-0.01686479151248932,1.839867353439331,-0.4062151610851288,0.24355867505073547,-0.3744784891605377,-0.5516790747642517,0.5995132923126221,-0.90377277135849,0.8124018311500549,0.3601650893688202,-0.3150014281272888,-0.3212096095085144,-0.39868611097335815,0.681172788143158,0.20998148620128632,0.09333285689353943,0.44931963086128235,-0.008051902987062931,-0.889133870601654,0.7742378115653992,0.5844975113868713,0.7203817963600159,0.9438639283180237,0.37165266275405884,-0.45226630568504333,-1.4560827016830444,-0.466836154460907,0.7334513068199158,-2.0687694549560547,