{"type":"NeuralNetwork","sizes":[60,30,12],"layers":[{"weights":[],"biases":[]},{"weights":[[0.14530068635940552,0.2308131903409958,-0.06440158933401108,-0.07841473072767258,-0.01401741523295641,-0.1974654644727707,-0.1287764459848404,0.34092533588409424,-0.046538759022951126,-0.12831652164459229,-0.04589589685201645,0.39713016152381897,0.20832137763500214,0.24238120019435883,-0.0133178336545825,0.170152947306633,0.31518393754959106,0.19509905576705933,0.3737403452396393,0.34296858310699463,0.3241822421550751,0.12002808600664139,0.17678529024124146,0.1511949896812439,0.12032958120107651,0.2171717882156372,0.2625059187412262,0.32487908005714417,0.16174253821372986,0.023238735273480415,0.09959274530410767,-0.07470790296792984,0.07471130043268204,-0.15230195224285126,-0.06388384103775024,-0.14686553180217743,-0.3952244818210602,-0.38896504044532776,-0.19829432666301727,-0.12773627042770386,0.04365817457437515,-0.15033221244812012,0.09104610979557037,-0.03818827122449875,-0.12139437347650528,-0.012233932502567768,0.17966364324092865,-0.3413848280906677,-0.1514320820569992,-0.3728916645050049,-0.11037261039018631,-0.09620077162981033,-0.07413125783205032,0.31033197045326233,0.405525803565979,0.19647693634033203,-0.27719399333000183,-0.25463542342185974,-0.5312563180923462,-0.18783272802829742],[-0.5481840372085571,-0.257941871881485,-0.1991683691740036,-0.43582597374916077,-0.03768958896398544,0.2968286871910095,-0.07931461185216904,0.07167693972587585,0.2633868157863617,0.24872136116027832,-0.1824554055929184,-0.45553454756736755,-0.20353706181049347,-0.08020474016666412,-0.26133835315704346,0.26856422424316406,0.31542593240737915,0.23856626451015472,0.18704555928707123,0.2601836919784546,0.003953940700739622,0.028610948473215103,0.11461136490106583,0.2319193035364151,0.2212027609348297,0.24090778827667236,0.0691748857498169,0.1364452838897705,0.12175540626049042,0.2915993928909302,0.11230610311031342,0.36764028668403625,0.37947535514831543,0.061155304312705994,0.07909918576478958,-0.3424980044364929,-0.21304085850715637,-0.19770318269729614,-0.3461543619632721,-0.3092971742153168,0.4935007393360138,0.4926469027996063,0.14514212310314178,0.2974880635738373,0.25770580768585205,0.15676340460777283,0.12776730954647064,-0.10226738452911377,-0.343332976102829,-0.027697596698999405,-0.23026682436466217,-0.24927344918251038,-0.39461442828178406,-0.23203818500041962,0.02476700209081173,-0.06022554263472557,0.21347662806510925,0.16089046001434326,0.07175439596176147,-0.005558013450354338],[-0.3863134980201721,0.04937615618109703,-0.15850836038589478,0.15890944004058838,0.3423202633857727,0.40194910764694214,0.3242127597332001,-0.055290646851062775,0.32005763053894043,0.2420942783355713,-0.2508389949798584,-0.3705589175224304,-0.1304885298013687,-0.23768293857574463,-0.4090149700641632,0.07401445508003235,-0.047116417437791824,-0.03610765188932419,0.05304731801152229,-0.36192843317985535,-0.1015944629907608,-0.06986133754253387,0.11617550253868103,0.068770632147789,0.16048119962215424,-0.12179911881685257,0.12510807812213898,0.05844162404537201,-0.13441914319992065,-0.2005992829799652,-0.26437056064605713,0.1461917608976364,-0.06712386012077332,-0.011896793730556965,-0.05137288197875023,0.0954696536064148,0.08389464020729065,-0.04190802201628685,-0.14879179000854492,0.09131729602813721,0.269950807094574,0.2295549064874649,-0.33685562014579773,-0.16426841914653778,-0.3670875132083893,-0.2534855604171753,-0.056422825902700424,0.221531480550766,0.15455026924610138,-0.012551330029964447,0.1851792186498642,-0.04456090182065964,0.24355104565620422,-0.300322562456131,-0.15791086852550507,-0.0013581234961748123,0.1400613784790039,0.19447003304958344,0.22473859786987305,0.1566811203956604],[-0.24852944910526276,-0.39286714792251587,-0.3007066547870636,-0.2531305253505707,-0.3082239031791687,-0.4255193769931793,-0.1407751590013504,-0.24583940207958221,0.06922680884599686,-0.12751878798007965,-0.2983412742614746,0.013069027103483677,-0.26398712396621704,-0.061589743942022324,-0.20996001362800598,0.4167232811450958,0.30757972598075867,0.08269605785608292,0.26004859805107117,-0.06956374645233154,0.1643071323633194,-0.16436415910720825,0.22667045891284943,0.0877222791314125,-0.12432246655225754,0.06594071537256241,-0.35557278990745544,-0.10532088577747345,0.22143125534057617,-0.25007179379463196,-0.29070213437080383,-0.22473450005054474,-0.09051138162612915,-0.1315770447254181,-0.04467455670237541,0.18707275390625,0.13848309218883514,0.19162923097610474,0.03864674270153046,-0.07283110916614532,0.11504507809877396,0.18695220351219177,0.05106169730424881,-0.10824183374643326,0.2524266541004181,-0.05722002685070038,-0.02177688106894493,0.3049883246421814,0.35098159313201904,0.38916605710983276,0.27145296335220337,0.34282660484313965,0.46992844343185425,0.06994011998176575,-0.19561782479286194,-0.15064096450805664,0.042082279920578,0.021524647250771523,-0.3207972049713135,-0.23698410391807556],[0.390745609998703,-0.22661110758781433,-0.22051633894443512,-0.19096747040748596,0.433077335357666,0.30248233675956726,0.26433879137039185,0.3272331953048706,0.35832688212394714,0.09129028767347336,0.280071884393692,0.39883217215538025,0.14910243451595306,0.3997029960155487,0.45626935362815857,-0.09123687446117401,-0.17788738012313843,-0.047163255512714386,-0.15503142774105072,-0.34797435998916626,-0.14033472537994385,-0.10230594128370285,-0.19727380573749542,-0.20874738693237305,-0.18529878556728363,-0.29014578461647034,0.13525839149951935,-0.02708492986857891,-0.2314382791519165,0.11162543296813965,0.2353912591934204,0.18209823966026306,0.10400622338056564,0.2524285614490509,0.0641615092754364,-0.07736393809318542,0.029735617339611053,0.033690501004457474,-0.05030633136630058,0.13116152584552765,-0.3102935254573822,-0.09768093377351761,0.07902337610721588,-0.12606632709503174,-0.13055002689361572,-0.1758415251970291,-0.07563076913356781,-0.19057761132717133,-0.1883135586977005,0.09776204079389572,-0.04452401027083397,-0.17194874584674835,-0.08254716545343399,0.08173481374979019,-0.10670328885316849,-0.20654842257499695,-0.28147581219673157,-0.06261404603719711,-0.4151853024959564,-0.05660265311598778],[-0.24881339073181152,0.04205143824219704,-0.19893012940883636,-0.1401308923959732,0.12963901460170746,0.3446907103061676,0.44808027148246765,0.4597790241241455,0.34737628698349,0.505519688129425,-0.4933549463748932,-0.046374958008527756,-0.22243572771549225,-0.2135191112756729,-0.3734579384326935,-0.1251075267791748,-0.047516752034425735,0.00808599591255188,-0.23461422324180603,0.03938779607415199,0.17247381806373596,0.12658581137657166,0.3012132942676544,0.12594415247440338,0.10248803347349167,-0.00517458887770772,-0.0881427600979805,0.1609201580286026,0.15682253241539001,0.07198368012905121,0.12196114659309387,-0.17169536650180817,-0.2517441213130951,0.04778752103447914,-0.19984813034534454,-0.3719162046909332,-0.24979642033576965,-0.49415749311447144,-0.35502004623413086,-0.5077828764915466,0.22323843836784363,-0.14133115112781525,-0.019231656566262245,-0.18732382357120514,0.09753734618425369,-0.05630134046077728,-0.1878397911787033,0.034782763570547104,-0.04290758818387985,-0.26868414878845215,0.055910076946020126,-0.08455254882574081,-0.23954565823078156,0.3002806305885315,0.3792254328727722,0.4588874876499176,0.33277449011802673,0.5124584436416626,0.39534837007522583,0.25437262654304504],[0.4613204598426819,0.2670767903327942,0.21613945066928864,0.3789166808128357,-0.10874538123607635,-0.31930455565452576,0.012631912715733051,0.0047602285631000996,-0.10820022970438004,-0.1832008957862854,0.03366623446345329,0.02020152285695076,0.2939915657043457,0.2912377417087555,0.15038776397705078,-0.3154923915863037,-0.08477228134870529,-0.11466135829687119,-0.219502255320549,0.030117573216557503,0.42663025856018066,0.37232476472854614,0.36869603395462036,0.1852344572544098,-0.02450275979936123,-0.07188092917203903,-0.03720475360751152,0.25133997201919556,0.46234962344169617,-0.25957968831062317,-0.1525982916355133,-0.16079789400100708,-0.20399697124958038,-0.15199069678783417,-0.31789687275886536,-0.013828220777213573,0.2494610846042633,0.22941981256008148,0.12633678317070007,-0.06822130084037781,-0.20866069197654724,-0.2270732969045639,-0.3557920455932617,-0.45881304144859314,-0.4496535658836365,-0.30445003509521484,-0.4332587718963623,0.06771935522556305,-0.005420302506536245,0.051780104637145996,-0.21073925495147705,-0.03017565980553627,-0.2126806378364563,-0.04480878263711929,0.21796895563602448,-0.1427283138036728,-0.26529550552368164,-0.3509601950645447,-0.25158339738845825,-0.271767795085907],[0.0910557359457016,0.3877371847629547,0.5204405188560486,0.5688773393630981,-0.29217642545700073,-0.21694597601890564,-0.17122501134872437,-0.7047674059867859,-0.027543416246771812,-0.2783110439777374,-0.1498698890209198,-0.26947858929634094,-0.13946670293807983,-0.24622200429439545,-0.23261387646198273,0.17421583831310272,0.33121803402900696,0.3484284579753876,0.44765058159828186,0.14683182537555695,0.054913584142923355,0.013205154798924923,0.03871151804924011,-0.040735553950071335,0.27475622296333313,0.49634113907814026,0.16652972996234894,0.20189598202705383,0.2677333354949951,0.1520281434059143,-0.2458386868238449,0.0343274250626564,0.026175538077950478,-0.024028072133660316,0.038688886910676956,-0.25199517607688904,-0.325554221868515,-0.19128559529781342,-0.46106839179992676,-0.17780186235904694,0.11459662765264511,0.17386110126972198,0.35441821813583374,0.253905713558197,0.03552817180752754,0.006064603570848703,0.19380465149879456,0.34683647751808167,0.3398277461528778,0.1962512880563736,0.3966575562953949,0.21933290362358093,0.17546093463897705,-0.32292458415031433,-0.37201017141342163,-0.42271554470062256,-0.42010992765426636,-0.42392921447753906,-0.18839646875858307,-0.3517121374607086],[0.08245571702718735,0.07281895726919174,0.2848357558250427,0.2881518006324768,0.10986845195293427,0.45818981528282166,-0.04062168672680855,-0.390933096408844,-0.04657019302248955,-0.20687291026115417,-0.08104090392589569,0.11705299466848373,-0.19653424620628357,-0.17186354100704193,0.062012799084186554,0.022082975134253502,0.2679245173931122,0.21024174988269806,0.14593683183193207,0.4427235722541809,0.13728325068950653,0.08895760774612427,0.020072752609848976,0.0893956646323204,0.3794918954372406,0.4943068027496338,0.3829503357410431,0.2274523228406906,0.07298271358013153,0.3391563594341278,0.1744723618030548,0.1509629487991333,0.2647212743759155,0.26050543785095215,0.2563605308532715,-0.2986104488372803,-0.22043518722057343,-0.5055562257766724,-0.4950708746910095,-0.2674785554409027,-0.270242840051651,-0.3945624828338623,0.039966922253370285,0.037498414516448975,0.39946886897087097,0.31410977244377136,0.2743062376976013,-0.35742801427841187,-0.3121054470539093,-0.1894490122795105,-0.04707186669111252,-0.29196158051490784,-0.25664007663726807,-0.016613485291600227,-0.03464581072330475,0.20879912376403809,-0.15266023576259613,0.028390750288963318,-0.16676989197731018,-0.16524651646614075],[-0.06397586315870285,-0.18857496976852417,-0.29274609684944153,-0.0673041120171547,0.41162458062171936,0.37199896574020386,0.4290919601917267,-0.20695090293884277,0.10752909630537033,0.3736382722854614,-0.16355355083942413,-0.46694517135620117,0.03562690690159798,0.13287901878356934,-0.05543520301580429,0.27553367614746094,0.2001955509185791,0.03690079227089882,0.048914555460214615,-0.012007102370262146,0.08500022441148758,0.14407888054847717,0.1900765299797058,0.25294315814971924,0.07371515035629272,-0.23298722505569458,0.2794572114944458,0.25143975019454956,0.10815948247909546,0.23820072412490845,-0.23538586497306824,0.18356437981128693,0.12646202743053436,-0.017960701137781143,-0.10572168231010437,0.4413585662841797,0.2882007658481598,0.4732624590396881,0.3628082871437073,0.1993655264377594,-0.035050418227910995,0.05389602109789848,-0.240535706281662,-0.0836445614695549,-0.4135529398918152,-0.190292626619339,-0.3063238859176636,-0.18818040192127228,-0.3776920437812805,-0.3388429582118988,-0.4601379632949829,-0.10550146549940109,-0.15811507403850555,-0.4417407214641571,-0.4423612356185913,-0.11417607963085175,0.15052853524684906,0.21782664954662323,-0.0773404985666275,0.2325945347547531],[0.299883633852005,0.004020931664854288,-0.21543875336647034,0.011714020743966103,-0.44002532958984375,-0.5377827286720276,-0.11090930551290512,0.05875363200902939,-0.29617932438850403,-0.4023524224758148,0.18468022346496582,0.5269073843955994,0.1180160716176033,0.1692313402891159,0.36465197801589966,0.36138716340065,0.3398793041706085,0.41587960720062256,0.29404813051223755,-0.04187631607055664,-0.25534453988075256,-0.055600229650735855,-0.1408008486032486,-0.14057360589504242,-0.4604012072086334,-0.19597128033638,-0.36382192373275757,-0.31668972969055176,-0.06951455771923065,-0.37717726826667786,0.07847340404987335,-0.26701658964157104,-0.18638214468955994,-0.37634703516960144,-0.1775674819946289,-0.007575441617518663,-0.22983421385288239,0.027523135766386986,-0.2143177092075348,-0.22628803551197052,0.06935643404722214,0.05274641886353493,-0.08531459420919418,-0.031574491411447525,-0.058295950293540955,-0.1981140375137329,-0.018686285242438316,-0.1556936651468277,0.05321516841650009,0.05530218407511711,0.06325836479663849,0.1873040497303009,0.08512278646230698,0.1373295933008194,0.00757460854947567,0.2945432960987091,0.08923085778951645,-0.0428471565246582,0.12043528258800507,0.19566033780574799],[-0.38288724422454834,-0.24018214643001556,-0.05035282298922539,-0.18929173052310944,0.3382115364074707,0.5089914798736572,0.4043869376182556,0.2991608679294586,0.45806318521499634,-0.09502507001161575,0.04610200598835945,0.03333786129951477,0.17954501509666443,0.189260333776474,-0.15131060779094696,-0.3447388708591461,-0.39213240146636963,-0.43345126509666443,-0.48733916878700256,0.07790712267160416,-0.24638044834136963,-0.11477752029895782,-0.186809241771698,-0.07898305356502533,0.20966161787509918,-0.0964147225022316,-0.005078476388007402,-0.04015408828854561,-0.1233767494559288,-0.020488915964961052,0.3924868106842041,0.33414536714553833,0.2750256359577179,0.09054069966077805,0.22690577805042267,0.20349355041980743,0.11691516637802124,0.1397419571876526,0.055725615471601486,0.19257807731628418,-0.41232821345329285,-0.46285656094551086,-0.07112228125333786,0.06118498742580414,0.1705070585012436,0.07063471525907516,0.028574926778674126,0.07529781013727188,0.3495342433452606,0.08603765815496445,0.23931892216205597,0.3127954304218292,0.3138839900493622,0.07413659244775772,0.18844737112522125,0.15889795124530792,0.010338304564356804,0.1410868614912033,-0.02170618064701557,0.08766934275627136],[-0.06616289168596268,-0.3580164909362793,-0.36050888895988464,-0.3145045042037964,-0.30996179580688477,-0.6680024862289429,-0.349925696849823,0.021371833980083466,-0.36316338181495667,-0.3630942106246948,0.0917029082775116,0.4556175470352173,0.17102624475955963,0.14160184562206268,0.01838846132159233,-0.4629003703594208,-0.430606871843338,-0.4343811869621277,-0.14733250439167023,0.3115694522857666,0.1710609793663025,0.1661229133605957,0.36074793338775635,-0.0010078961495310068,0.02108561433851719,0.14032100141048431,0.15038299560546875,0.37127524614334106,0.28196772933006287,-0.14184772968292236,0.003136198502033949,-0.36122843623161316,-0.3357742428779602,-0.376354455947876,-0.41590532660484314,0.2625008821487427,0.1540682166814804,0.25079062581062317,0.17355118691921234,0.2127477526664734,0.03245092183351517,0.05999230593442917,0.09555446356534958,0.17495350539684296,0.15071573853492737,-0.014591807499527931,0.32733264565467834,-0.048245444893836975,-0.1173468679189682,-0.010531832464039326,0.21199554204940796,0.08036506175994873,-0.0801556333899498,0.23560994863510132,0.3434578776359558,0.2555713951587677,0.19447335600852966,0.45057541131973267,0.4410494565963745,0.28672701120376587],[-0.16789425909519196,-0.517905056476593,-0.3799407184123993,-0.23605754971504211,0.0726206824183464,0.19255094230175018,0.25213178992271423,0.1961936503648758,0.22244541347026825,-0.24790197610855103,0.32273438572883606,0.32401081919670105,0.36104628443717957,0.36900830268859863,0.3684561550617218,-0.4151325225830078,-0.34168773889541626,-0.37114882469177246,-0.2579914331436157,0.13256029784679413,-0.23150254786014557,-0.2403421849012375,0.017873302102088928,0.07728923857212067,-0.09772295504808426,0.3679035007953644,-0.07698886096477509,-0.13104160130023956,0.04764643311500549,0.17714227735996246,-0.11352669447660446,-0.0982532873749733,0.21874739229679108,0.06499996781349182,0.23937885463237762,0.036995779722929,-0.006525103468447924,0.05418870598077774,0.2794944941997528,0.29816803336143494,-0.014985887333750725,-0.1035182848572731,0.4511655271053314,0.4533742368221283,0.06155660003423691,0.25987160205841064,0.38536500930786133,0.04098071902990341,0.24225963652133942,0.129017636179924,0.29655101895332336,0.30994531512260437,0.2109588384628296,-0.09066172689199448,-0.1468685269355774,0.008825288154184818,-0.42115432024002075,-0.413969486951828,-0.1546895056962967,-0.35783591866493225],[-0.050501499325037,0.3452189564704895,0.18190783262252808,0.11241205781698227,-0.17434997856616974,-0.3528623878955841,-0.23660852015018463,-0.4296139180660248,-0.2196858525276184,-0.09235063940286636,0.009040194563567638,-0.19925865530967712,-0.13204462826251984,-0.1841571182012558,-0.30466970801353455,-0.2877599895000458,-0.07883769273757935,-0.29810765385627747,-0.06272771209478378,0.305397093296051,0.3379979729652405,0.3685857057571411,0.21650907397270203,0.3273178040981293,0.03078017197549343,0.26660215854644775,-0.09230057150125504,0.3187030255794525,0.3223160207271576,-0.27691102027893066,-0.3268927037715912,-0.33356547355651855,-0.17990155518054962,-0.1035371720790863,-0.08712045848369598,0.32070058584213257,0.3604898452758789,0.18984156847000122,0.42282721400260925,0.22559042274951935,-0.07547013461589813,-0.0037731584161520004,0.10285710543394089,0.2181221842765808,0.13943949341773987,0.14990763366222382,-0.023818863555788994,-0.3722917437553406,-0.30586951971054077,-0.056587133556604385,-0.333479106426239,-0.3262266516685486,-0.1288255751132965,0.10826653242111206,-0.24209973216056824,0.09021110832691193,-0.052841246128082275,-0.20314911007881165,-0.17867344617843628,-0.25291919708251953],[-0.2686644196510315,0.19245654344558716,-0.11388382315635681,-0.08072728663682938,-0.04861688241362572,0.22475504875183105,-0.17286308109760284,-0.08736936748027802,-0.11192402243614197,-0.020597992464900017,-0.3574274182319641,0.1975938081741333,-0.03712589666247368,0.034549348056316376,-0.3373875021934509,-0.4963676333427429,-0.41106030344963074,-0.48852062225341797,-0.22170065343379974,-0.30308815836906433,-0.12821894884109497,0.05995894595980644,-0.2724863588809967,-0.0572998970746994,0.1415136605501175,-0.37711426615715027,0.2199726104736328,0.04736777022480965,-0.15046466886997223,0.1589691936969757,0.5710448622703552,0.12084932625293732,0.3414233922958374,0.2484462708234787,0.3694165349006653,0.1698881983757019,0.21770484745502472,0.11583587527275085,0.09003784507513046,-0.015157408080995083,0.07755111902952194,0.03600592538714409,-0.23737402260303497,-0.19477351009845734,-0.15893569588661194,-0.2019401490688324,-0.14503127336502075,0.3490549325942993,0.13037236034870148,0.37759485840797424,0.42102399468421936,0.3485162854194641,0.17762087285518646,0.22376053035259247,0.24529288709163666,0.13518424332141876,-0.06064461171627045,-0.15925882756710052,-0.2684493958950043,-0.3552664518356323],[-0.004955322947353125,-0.20857445895671844,0.061216313391923904,-0.092628613114357,0.11426599323749542,0.23100969195365906,-0.14396676421165466,-0.14154250919818878,0.05230506509542465,-0.12187252193689346,-0.1356010138988495,0.06504984200000763,-0.11683236807584763,-0.06989984959363937,0.03526603430509567,0.4956228733062744,0.17882730066776276,0.3472498059272766,0.5185661315917969,-0.34939950704574585,-0.1438315510749817,0.05662922188639641,-0.32823047041893005,0.02113455906510353,-0.13556541502475739,-0.4378735423088074,-0.08637681603431702,0.0490201935172081,-0.3137839138507843,0.18551447987556458,0.0954340323805809,0.1577688306570053,0.1236673966050148,0.2616608142852783,-0.05752622336149216,0.009187157265841961,-0.13916689157485962,-0.2613532841205597,-0.23077130317687988,-0.1462782621383667,-0.12690792977809906,-0.20414714515209198,-0.3361278176307678,-0.24313190579414368,-0.2707386612892151,-0.18728265166282654,-0.3791065216064453,0.31686630845069885,0.2662253975868225,0.05230415239930153,0.2992534339427948,0.4107620120048523,0.38970690965652466,0.30316630005836487,-0.056129563599824905,0.2916429042816162,0.07068100571632385,-0.08034731447696686,-0.22013752162456512,-0.0524057038128376],[0.6275842785835266,0.41125479340553284,0.31379586458206177,0.20027318596839905,0.09399944543838501,-0.08575306087732315,0.1568228304386139,0.6321704387664795,-0.03973707556724548,0.442861407995224,0.2915246784687042,0.07883016020059586,-0.036820992827415466,0.06539547443389893,0.2475542426109314,-0.35517820715904236,-0.20641376078128815,-0.28521230816841125,-0.32176753878593445,-0.07800472527742386,-0.21078824996948242,-0.1223440021276474,-0.2973816692829132,-0.3665843605995178,-0.18470127880573273,-0.05752748250961304,-0.17177528142929077,-0.0856398269534111,-0.39071744680404663,0.2564190924167633,0.3129175901412964,0.22942529618740082,0.10649104416370392,0.17501145601272583,0.02355230413377285,-0.1613793969154358,-0.019852858036756516,-0.11277862638235092,-0.02845344878733158,0.1105140894651413,0.462406188249588,0.28422725200653076,-0.04370466619729996,-0.08405273407697678,-0.10885170102119446,0.04904882237315178,-0.019781071692705154,-0.10675238817930222,-0.18305028975009918,-0.37542980909347534,-0.01560730580240488,-0.18600384891033173,-0.21982669830322266,0.27572447061538696,-0.002614618744701147,0.1802310198545456,-0.4503721594810486,-0.42801403999328613,-0.4082885980606079,-0.33454054594039917],[-0.20219896733760834,-0.04528282210230827,-0.13126662373542786,-0.14784330129623413,-0.017385389655828476,-0.07088899612426758,-0.070194773375988,0.12068159878253937,-0.014606948010623455,0.03128998354077339,0.07861624658107758,-0.05294065177440643,-0.12522748112678528,-0.2227274775505066,0.07540573179721832,0.48807793855667114,0.20057953894138336,0.22802047431468964,0.22321540117263794,0.07004887610673904,-0.2149401158094406,-0.3606494069099426,-0.16605566442012787,-0.10095814615488052,-0.31458383798599243,-0.06728682667016983,-0.23715266585350037,-0.3867930769920349,-0.2726382613182068,-0.11368958652019501,-0.13803334534168243,-0.010616324841976166,-0.15859627723693848,-0.047725845128297806,-0.15814565122127533,0.24351008236408234,0.08370810002088547,0.113108329474926,-0.13010786473751068,-0.08240582048892975,0.09354569762945175,-0.18104250729084015,0.16943463683128357,0.18062236905097961,0.4502345025539398,0.4102186858654022,0.2571686804294586,-0.1260291337966919,-0.17307023704051971,-0.3214932382106781,-0.3957022726535797,-0.28033825755119324,-0.2876233458518982,0.23839566111564636,0.2907807528972626,0.24083784222602844,0.06783220916986465,0.16314288973808289,0.2361629754304886,0.04323480278253555],[-0.3392754793167114,0.04457157105207443,-0.19950853288173676,-0.2110453099012375,-0.23387287557125092,-0.31928548216819763,-0.21213233470916748,-0.5410008430480957,-0.161636620759964,-0.35735026001930237,-0.2766439914703369,-0.06346554309129715,-0.05310013145208359,-0.06761245429515839,-0.30223360657691956,-0.0004954013274982572,0.20397698879241943,-0.12093113362789154,0.0006944828783161938,-0.0013668162282556295,-0.2319425791501999,-0.22579960525035858,-0.1890299916267395,-0.1680416315793991,-0.09635306894779205,0.270961731672287,-0.12922848761081696,-0.03358135744929314,0.06014898791909218,0.17198197543621063,-0.08396337926387787,0.180254727602005,-0.17594663798809052,0.08503272384405136,0.17719312012195587,0.27087438106536865,0.32148900628089905,0.14323362708091736,0.43459850549697876,0.10709407180547714,-0.2265133112668991,-0.2646902799606323,0.12474755197763443,0.18385496735572815,0.3703954219818115,0.05616624653339386,0.13605110347270966,0.13082097470760345,0.14920981228351593,0.22975026071071625,0.3062174916267395,0.3962268829345703,0.24689354002475739,0.18932045996189117,-0.06349283456802368,0.16754509508609772,-0.013843700289726257,0.10058760643005371,0.004120661411434412,-0.23020777106285095],[0.164235457777977,0.20661675930023193,0.315091073513031,0.4863657057285309,0.3588716983795166,0.09187860786914825,0.4332999587059021,0.0350538045167923,0.2881522476673126,0.4589913487434387,-0.46471938490867615,-0.08688254654407501,-0.4495021104812622,-0.2978202998638153,-0.12868134677410126,-0.47096964716911316,-0.1303551197052002,-0.3362162113189697,-0.24380122125148773,0.20533984899520874,-0.20895883440971375,-0.18714895844459534,-0.3033975660800934,-0.3678395450115204,-0.47556430101394653,0.07579247653484344,-0.1856788694858551,-0.33005577325820923,-0.24125221371650696,-0.35136109590530396,-0.014483830891549587,0.012979080900549889,0.013609175570309162,-0.15778641402721405,-0.34061723947525024,-0.3048591613769531,-0.3717299699783325,-0.43963485956192017,-0.09201046824455261,-0.31325072050094604,0.12039422243833542,0.028237348422408104,0.0419754795730114,0.20122374594211578,0.3691014349460602,0.36294323205947876,0.2946678698062897,0.2519932687282562,0.009793056175112724,0.0530366376042366,0.3258098065853119,0.2967349886894226,0.3179458677768707,0.3121960163116455,0.12067299336194992,-0.0189638901501894,-0.10621889680624008,-0.19118033349514008,-0.20827160775661469,-0.18141037225723267],[-0.1460924744606018,0.0179534163326025,0.22059281170368195,-0.05519289895892143,0.28135308623313904,0.18877804279327393,0.3053557872772217,0.17545989155769348,0.0961131677031517,0.48513591289520264,-0.1725824773311615,-0.1510220170021057,-0.3589799106121063,-0.3176165223121643,-0.20845331251621246,0.12785887718200684,0.3085762560367584,0.25906264781951904,0.25444382429122925,0.03782007098197937,-0.2595251500606537,-0.1226222887635231,-0.19459426403045654,-0.1847064346075058,-0.4434393346309662,-0.2731230854988098,-0.1590123474597931,-0.09565579146146774,-0.09722872823476791,-0.2818971574306488,-0.45981574058532715,-0.09360845386981964,-0.3728685677051544,-0.11318062990903854,-0.20600834488868713,0.20617517828941345,0.17362923920154572,0.4072348177433014,0.2875646650791168,0.10746071487665176,0.13916237652301788,0.4016408920288086,-0.04750373587012291,-0.035647470504045486,0.0815674439072609,-0.033314552158117294,0.11713418364524841,0.0011632459936663508,-0.2692064642906189,-0.25293636322021484,-0.0757683664560318,-0.1369788497686386,-0.09535348415374756,-0.14231416583061218,0.03251078352332115,-0.1373574584722519,-0.28432318568229675,-0.2565418481826782,-0.13154257833957672,-0.24203099310398102],[0.06214490532875061,0.09854701906442642,0.33060428500175476,-0.0018707248382270336,0.13403502106666565,0.02499314770102501,0.29311949014663696,-0.17634116113185883,0.2475963979959488,-0.4104682505130768,-0.2786436975002289,0.0411716103553772,-0.18117134273052216,-0.38674333691596985,-0.217009499669075,0.16314798593521118,0.19733652472496033,0.3792436122894287,0.3219003975391388,-0.01142515242099762,0.14277805387973785,-0.034271255135536194,0.1516110897064209,0.16608943045139313,-0.24312295019626617,-0.004707461688667536,-0.21162790060043335,-0.1465901881456375,-0.15654049813747406,-0.38874420523643494,0.09198715537786484,-0.03654034063220024,-0.37028074264526367,-0.1404440551996231,-0.3808082640171051,-0.1294034868478775,0.11786402016878128,0.17769236862659454,-0.010630449280142784,0.07385412603616714,-0.5254205465316772,-0.19529131054878235,-0.16281692683696747,-0.32901662588119507,-0.12173465639352798,-0.21206344664096832,-0.2948720157146454,-0.00474733067676425,0.06575243175029755,0.11821397393941879,-0.18430058658123016,-0.10993286222219467,-0.18637743592262268,0.4480297863483429,0.47765111923217773,0.15828974545001984,0.03019099123775959,0.04240026697516441,0.3557581901550293,0.18715620040893555],[0.2626665234565735,0.47982046008110046,0.2648223638534546,0.20134033262729645,-0.4656524062156677,-0.38628828525543213,-0.33042779564857483,-0.45001623034477234,-0.3133259415626526,-0.321397989988327,-0.0895121619105339,-0.21111175417900085,-0.19671933352947235,-0.1664736568927765,0.1337277889251709,0.033322613686323166,0.17959390580654144,-0.11071271449327469,0.09111730009317398,0.021829549223184586,0.22186841070652008,0.17697711288928986,0.25264236330986023,-0.08285824209451675,0.12517152726650238,0.20286262035369873,-0.08497466892004013,0.07808130234479904,-0.06410730630159378,-0.004561700392514467,-0.20795440673828125,0.11340402066707611,-0.1900065839290619,-0.10124799609184265,-0.23574988543987274,0.14565367996692657,0.3372083902359009,-0.02632107213139534,0.32953929901123047,0.3297610580921173,0.321347177028656,0.3110347390174866,-0.047368086874485016,-0.14252765476703644,-0.0029571084305644035,0.036372508853673935,0.03813948854804039,-0.13738121092319489,-0.07718879729509354,-0.41550859808921814,-0.377532422542572,-0.39517074823379517,-0.1745302677154541,0.03457922115921974,0.08807210624217987,-0.179648756980896,-0.005653494503349066,0.16561900079250336,0.034850407391786575,-0.01589079573750496],[0.2738923132419586,0.32064828276634216,0.2639461159706116,0.24878711998462677,-0.25962281227111816,-0.12931694090366364,-0.4150393605232239,-0.38423630595207214,-0.3832786977291107,0.022867033258080482,-0.17084209620952606,-0.045959360897541046,-0.18213634192943573,-0.23547585308551788,0.03649062663316727,-0.19141441583633423,-0.27849242091178894,-0.08009466528892517,-0.24897900223731995,-0.3227784335613251,-0.25007230043411255,-0.31712740659713745,-0.39747166633605957,-0.05236034840345383,0.002480436349287629,-0.09910384565591812,-0.07527462393045425,-0.29333531856536865,-0.11611334979534149,0.11588696390390396,0.08377531915903091,-0.041124116629362106,0.08132769167423248,0.2148602306842804,0.10857266187667847,0.2653438150882721,0.4339512884616852,0.20185217261314392,0.2321985512971878,0.2267981618642807,0.08329908549785614,0.3666318356990814,0.014344877563416958,-0.05606270581483841,-0.06225241348147392,-0.0407843180000782,0.052719905972480774,-0.2679709792137146,-0.17037536203861237,-0.2795311212539673,-0.006435204762965441,-0.3247687816619873,-0.1790720820426941,-0.24044765532016754,-0.031231224536895752,-0.12756915390491486,0.30671343207359314,0.3073694109916687,0.22471807897090912,0.29337596893310547],[0.017234599217772484,-0.336833655834198,-0.31741422414779663,-0.4089009463787079,-0.2907455861568451,-0.2661064565181732,-0.21390530467033386,0.3655128479003906,-0.20450837910175323,0.10618250072002411,0.37837693095207214,0.21218812465667725,0.49522456526756287,0.5287956595420837,0.4440292418003082,-0.07721226662397385,0.28293576836586,-0.03313884139060974,-0.06782351434230804,0.03379656374454498,0.05358309671282768,0.024475783109664917,0.21103134751319885,0.08401919901371002,-0.0501081757247448,0.047957390546798706,0.13548478484153748,0.252906858921051,0.2532476782798767,-0.15481771528720856,-0.23728585243225098,0.06462618708610535,-0.05372961610555649,-0.231215700507164,-0.19561927020549774,-0.3696448504924774,-0.47134897112846375,-0.46017298102378845,-0.37171417474746704,-0.4679551124572754,0.45981618762016296,0.45849916338920593,-0.330269455909729,-0.28705939650535583,-0.13928481936454773,-0.33322206139564514,-0.23177781701087952,0.172883540391922,0.08024574816226959,-0.047177448868751526,0.09478970617055893,-0.10027018189430237,0.09768044948577881,-0.24661897122859955,-0.21260982751846313,-0.47928252816200256,0.3973337411880493,0.16179199516773224,0.33064180612564087,0.16236098110675812],[0.07429871708154678,-0.35937634110450745,0.004043520428240299,-0.23629000782966614,-0.36753061413764954,0.029517220333218575,-0.2717227339744568,-0.16822588443756104,-0.2570849061012268,-0.24389730393886566,0.24385949969291687,0.4190675914287567,0.2640042304992676,0.3742027282714844,0.46972551941871643,-0.24004371464252472,-0.24512438476085663,-0.16104638576507568,-0.1042853370308876,-0.3522489666938782,0.12290198355913162,0.13214822113513947,0.11637494713068008,0.08945414423942566,0.05125945061445236,-0.35862216353416443,0.24125926196575165,-0.037988919764757156,0.04767388850450516,0.03407818078994751,0.18230117857456207,0.10964624583721161,-0.09451396763324738,0.23987923562526703,0.06076376512646675,0.12075519561767578,0.1956499218940735,0.013938275165855885,0.29901933670043945,0.22058697044849396,0.024514971300959587,0.03492065891623497,-0.33953332901000977,-0.22163796424865723,-0.09654144942760468,0.003638693131506443,-0.019345372915267944,-0.2913236618041992,-0.1635986715555191,-0.1853923201560974,-0.33281001448631287,-0.35498830676078796,-0.41000378131866455,0.1629331260919571,-0.1995711475610733,-0.19069749116897583,0.34293630719184875,0.41371965408325195,0.3168366551399231,0.4359320104122162],[-0.04067668691277504,-0.5113819241523743,-0.531562089920044,-0.5424618124961853,0.3627176284790039,-0.1899990439414978,0.19703887403011322,-0.09345165640115738,0.1331421583890915,0.42797818779945374,0.12431509792804718,-0.223652184009552,0.14856068789958954,0.2923136055469513,0.2857196033000946,0.35067814588546753,0.2380570024251938,0.20387020707130432,0.12016811221837997,0.34433770179748535,0.07952273637056351,-0.09586846083402634,-0.02945685014128685,0.27225953340530396,-0.1283959150314331,0.36529794335365295,-0.04353318363428116,0.1834668219089508,0.11294062435626984,-0.2631067633628845,-0.4922025203704834,-0.05287960171699524,-0.24868783354759216,-0.20517593622207642,-0.36831390857696533,0.2109939604997635,0.23170578479766846,-0.1261717826128006,0.08465529978275299,0.06531625241041183,0.1815696656703949,-0.15190352499485016,0.3913356363773346,0.39816567301750183,0.36523306369781494,0.25212475657463074,0.08813559263944626,-0.07739312201738358,-0.08711981773376465,-0.15958060324192047,-0.14392590522766113,0.008173011243343353,0.11602317541837692,-0.2120303362607956,-0.4125335216522217,-0.19997945427894592,-0.0017646356718614697,0.06561769545078278,-0.2620590925216675,-0.1708400994539261],[0.09219493716955185,0.03956056386232376,-0.23480923473834991,0.06681444495916367,-0.3208608627319336,0.02677825652062893,-0.21676816046237946,-0.37586691975593567,-0.06575575470924377,-0.03131682053208351,0.34645718336105347,-0.2904737591743469,0.25896844267845154,0.29371410608291626,-0.011351434513926506,0.1858554482460022,0.07738172262907028,0.3059300184249878,0.152785986661911,-0.26375940442085266,0.21466559171676636,0.04504954814910889,0.2757430076599121,0.20678754150867462,0.263441801071167,-0.08851467818021774,0.3594207763671875,0.0024832659400999546,0.003936836030334234,0.3952799439430237,-0.14170655608177185,0.29991450905799866,0.27386558055877686,0.18312926590442657,0.1319982409477234,-0.08552580326795578,-0.08529192209243774,0.017517687752842903,-0.033230945467948914,0.024693602696061134,-0.13422125577926636,-0.07757308334112167,-0.168083056807518,-0.15708884596824646,-0.3827594816684723,-0.25537797808647156,-0.39155325293540955,0.2763751447200775,0.34838563203811646,0.1605015993118286,0.45733243227005005,0.45304831862449646,0.27296996116638184,-0.5073781609535217,-0.2540571391582489,-0.5584211349487305,-0.0675596296787262,0.17821814119815826,0.1408771276473999,-0.03756197914481163],[0.09334886819124222,0.2097611129283905,0.06435956805944443,0.12461730092763901,-0.28527966141700745,0.011547253467142582,-0.45513850450515747,-0.3310745358467102,-0.30054575204849243,-0.4815356433391571,-0.20638935267925262,0.035477593541145325,0.1722392737865448,0.07329566031694412,-0.07336317002773285,-0.5536693930625916,-0.5137745141983032,-0.5478049516677856,-0.3332274258136749,0.20487502217292786,0.12100979685783386,0.26360729336738586,0.35650256276130676,0.2798560559749603,0.3672042787075043,0.17236845195293427,0.5497644543647766,0.17988039553165436,0.12731483578681946,0.05083754286170006,0.25955238938331604,0.1961308717727661,0.22441375255584717,0.32210034132003784,0.41185441613197327,0.056357491761446,0.22386564314365387,-0.05976630002260208,0.2981654107570648,0.011515091173350811,-0.1584242433309555,-0.23112747073173523,0.15681947767734528,0.12937960028648376,0.12174689769744873,-0.039190683513879776,-0.10482139140367508,0.15064819157123566,-0.09232310950756073,0.029472529888153076,-0.05591052770614624,-0.10883327573537827,0.06178388372063637,0.0011162408627569675,0.13489769399166107,0.13523171842098236,-0.089615099132061,0.18389268219470978,0.12790390849113464,0.13546736538410187]],"biases":[-0.12664058804512024,-0.01489541307091713,0.14124922454357147,-0.06637612730264664,-0.19484667479991913,-0.1337742805480957,0.007738032378256321,0.018919331952929497,-0.14497199654579163,0.003653440624475479,0.18548017740249634,-0.19462735950946808,0.0369194820523262,-0.024633090943098068,-0.02208079770207405,-0.004476213362067938,-0.025700828060507774,-0.0284175593405962,-0.056721221655607224,0.03931459039449692,0.08429163694381714,0.021692384034395218,0.04673909395933151,0.14406219124794006,0.0489770732820034,-0.17099390923976898,0.032332178205251694,0.10383836925029755,0.1300668865442276,-0.09474001824855804]},{"weights":[[-0.1373485028743744,-0.9265769124031067,-0.23152868449687958,-0.5992898941040039,-0.3813331425189972,-0.4306263029575348,0.6995960474014282,0.7743583917617798,0.14095784723758698,-0.4336140751838684,-0.01895744726061821,-0.7248311638832092,-0.6370176076889038,-0.9930006265640259,0.3249017298221588,-0.1425134688615799,-0.13909120857715607,0.6890561580657959,-0.32007741928100586,-0.3690892159938812,0.6385483145713806,0.033249448984861374,0.25717994570732117,0.6936670541763306,0.5698103308677673,-0.706516683101654,-0.39600059390068054,-1.1201752424240112,-0.31984516978263855,0.11341627687215805],[-0.38598793745040894,0.034470632672309875,0.5459324717521667,-0.5331021547317505,0.5112358331680298,0.8174240589141846,-0.2822854518890381,-0.8137699365615845,-0.23060457408428192,0.5331713557243347,-0.9048085808753967,0.7084748148918152,-1.084928274154663,-0.010222479701042175,-0.5882234573364258,-0.23806366324424744,-0.04894338175654411,0.0924467220902443,-0.08833621442317963,-0.7910507917404175,0.6922610402107239,0.543448805809021,0.04826454818248749,-1.1478108167648315,-0.8718073964118958,-0.4428563416004181,-0.7487332224845886,0.15702401101589203,-0.7413293123245239,-1.0280072689056396],[0.09363117814064026,-0.9016008377075195,-0.9841558337211609,-0.5442378520965576,0.890598475933075,-0.8360427021980286,0.4455679953098297,-0.8290493488311768,-0.5430675148963928,-0.42951536178588867,0.6625037789344788,-0.19171933829784393,0.297782301902771,0.6480191349983215,-0.5965715646743774,-0.5569981932640076,-0.2317551225423813,0.3849564790725708,-0.23780761659145355,-0.695829451084137,-0.8391596674919128,-0.6949502825737,-0.6814271807670593,-0.3041517734527588,-0.3836957812309265,1.2446218729019165,0.7623322010040283,0.019711242988705635,-0.16260643303394318,-0.24921156466007233],[0.2639898359775543,0.29342353343963623,-0.09260249137878418,0.5069451928138733,-0.46214497089385986,-0.4563673734664917,-0.381132572889328,0.5894643664360046,0.07555432617664337,0.14603693783283234,0.7542515397071838,-1.2028610706329346,-0.9244303703308105,-0.9792448282241821,-0.42128366231918335,-0.9701424837112427,0.8226516842842102,-0.7862951159477234,0.5416185855865479,-0.05449105054140091,-0.7271189093589783,0.37326958775520325,0.48046404123306274,0.0850287452340126,-0.4285959303379059,-0.02512492425739765,-0.4465430676937103,0.30346912145614624,0.13862226903438568,-1.309388518333435],[0.46607768535614014,0.09995927661657333,-0.3008083403110504,-0.11218202859163284,-0.9411466121673584,0.10833645612001419,0.8139276504516602,0.3657080829143524,0.4462987184524536,0.2054194062948227,-0.7856573462486267,-0.7108631730079651,0.5528320670127869,-0.5421611070632935,0.7923059463500977,-0.5821650624275208,-0.6785852313041687,-1.058674931526184,-0.9978522062301636,-0.49990928173065186,-0.9784873127937317,-0.7716389298439026,-0.18120278418064117,0.25904589891433716,-0.9182085990905762,0.25204554200172424,-0.16934683918952942,0.10784043371677399,-0.005483567714691162,0.6637492775917053],[-0.3531441390514374,0.4882644712924957,-0.11349008232355118,-0.8317512273788452,0.16462555527687073,-0.35580623149871826,-0.6622622609138489,-0.05200061947107315,0.8221895694732666,0.1261228322982788,-1.1496779918670654,0.41990262269973755,-1.0724000930786133,-0.10524662584066391,-0.7428790330886841,0.7832469344139099,0.18544268608093262,0.04780391603708267,-0.5419768691062927,-0.1707562953233719,-0.6202124357223511,-0.8477147817611694,-0.8671481609344482,-0.38359859585762024,0.12585784494876862,-0.43223628401756287,0.15776295959949493,-0.9833874106407166,0.5132890343666077,0.76796555519104],[-0.9121052026748657,-0.9034637808799744,-0.1408075988292694,0.15785270929336548,-0.2267553210258484,-1.2846860885620117,0.24386103451251984,-0.8261723518371582,-1.1482347249984741,0.7712891697883606,-0.41198691725730896,-0.015228661708533764,0.33147186040878296,-0.0005550601053982973,0.681908130645752,0.08957889676094055,-0.4454171657562256,-0.31891927123069763,0.00246909586712718,0.5382159948348999,-0.8910492658615112,0.45318296551704407,0.02073768340051174,0.4953059256076813,0.5722243785858154,-1.2798871994018555,0.3100292682647705,-0.0034497457090765238,-0.3250463604927063,0.10462788492441177],[-0.2136411964893341,0.5971022248268127,0.2270783931016922,0.0875178650021553,-0.3436453342437744,0.17809578776359558,-0.2677958309650421,-0.2603619694709778,-0.9310122132301331,-0.020655544474720955,-0.1444293111562729,-0.7875040769577026,-0.16294851899147034,-0.43213891983032227,-0.174894779920578,-0.08219854533672333,-0.36116403341293335,0.7422493100166321,-0.04775514081120491,-0.6698175668716431,0.14177925884723663,0.536789059638977,-0.8725176453590393,0.0917455330491066,0.19359830021858215,0.7547576427459717,-0.22894272208213806,-0.011420326307415962,-0.3830093741416931,-0.6177716255187988],[-0.08620381355285645,0.3294655382633209,-0.8741437792778015,0.0034651567693799734,-0.6658103466033936,-0.457577109336853,-1.0557875633239746,0.4558424651622772,0.5711517333984375,-0.8163614869117737,-0.27310919761657715,-0.2352241426706314,0.3047288656234741,0.7015320062637329,0.3799797296524048,-0.7898098826408386,-1.0054147243499756,-0.2843090295791626,0.5895693302154541,0.39364179968833923,0.536132276058197,-0.10746067017316818,-0.576184093952179,0.03974810987710953,-0.24993275105953217,-0.691322922706604,-0.7078773975372314,0.7750117182731628,-1.0432085990905762,0.02812749333679676],[-0.7810197472572327,-0.8024993538856506,0.09515389800071716,0.9771193265914917,-0.5091618895530701,-0.5164781212806702,-0.15594393014907837,0.6503275036811829,-0.8541669845581055,-0.8913533687591553,-0.0067804609425365925,0.2856588363647461,-0.11225016415119171,0.2594514489173889,-0.7153189778327942,0.7191575765609741,0.6920683979988098,-0.6962994337081909,-0.8062619566917419,0.5892361402511597,0.4102930426597595,-0.4363328218460083,-0.2569722831249237,-0.7256996631622314,-0.6465015411376953,-0.007526778616011143,-0.9451562762260437,-0.2745335102081299,0.7171128988265991,-0.20575298368930817],[0.5182391405105591,-0.40633875131607056,-0.6290472745895386,-0.2452564835548401,-0.043954312801361084,0.6137332916259766,-0.06363081932067871,-1.1116491556167603,-0.12469299882650375,-1.0585631132125854,0.4107166528701782,0.2354695200920105,0.4929068982601166,-0.24019651114940643,-0.33708465099334717,0.5527932643890381,0.21510568261146545,0.28840070962905884,0.2328391671180725,-0.05695384740829468,0.0965995267033577,-0.36496663093566895,0.5199843645095825,-0.30439865589141846,-0.35239169001579285,-0.47254782915115356,-0.041505035012960434,-1.0293186902999878,-1.3368948698043823,0.014315261505544186],[-0.952171802520752,0.113814577460289,0.23785455524921417,-0.2212516814470291,-0.6534282565116882,0.6090008020401001,-0.5784336924552917,-0.7988616228103638,-0.46890395879745483,0.1038341373205185,0.20930245518684387,-0.12948118150234222,0.6369459629058838,-0.8993775248527527,-0.3705800771713257,-0.4730737805366516,-0.13907837867736816,-0.9947870373725891,0.22658541798591614,-0.08079880475997925,-0.3062431514263153,-0.48229581117630005,0.26117706298828125,0.08499369025230408,0.5809791088104248,0.46693170070648193,0.7163704633712769,-0.3165071904659271,-0.11613965034484863,0.04106594994664192]],"biases":[-0.19673900306224823,-0.14115598797798157,-0.3419512212276459,-0.4228192865848541,-0.48106077313423157,-0.1844812035560608,-0.2825184464454651,-0.26021942496299744,-0.38442131876945496,-0.2514369487762451,-0.3182187080383301,-0.19624166190624237]}],"inputLookup":{"itching":0,"skin_rash":1,"nodal_skin_eruptions":2,"dischromic_patches":3,"stomach_pain":4,"acidity":5,"ulcers_on_tongue":6,"vomiting":7,"cough":8,"chest_pain":9,"yellowish_skin":10,"nausea":11,"loss_of_appetite":12,"abdominal_pain":13,"yellowing_of_eyes":14,"muscle_wasting":15,"patches_in_throat":16,"high_fever":17,"extra_marital_contacts":18,"fatigue":19,"weight_loss":20,"restlessness":21,"lethargy":22,"irregular_sugar_level":23,"blurred_and_distorted_vision":24,"obesity":25,"excessive_hunger":26,"increased_appetite":27,"polyuria":28,"indigestion":29,"headache":30,"stiff_neck":31,"depression":32,"irritability":33,"visual_disturbances":34,"constipation":35,"pain_during_bowel_movements":36,"pain_in_anal_region":37,"bloody_stool":38,"irritation_in_anus":39,"breathlessness":40,"sweating":41,"cramps":42,"bruising":43,"swollen_legs":44,"swollen_blood_vessels":45,"prominent_veins_on_calf":46,"joint_pain":47,"neck_pain":48,"knee_pain":49,"hip_joint_pain":50,"swelling_joints":51,"painful_walking":52,"spinning_movements":53,"loss_of_balance":54,"unsteadiness":55,"burning_micturition":56,"bladder_discomfort":57,"foul_smell_ofurine":58,"continuous_feel_of_urine":59},"inputLookupLength":60,"outputLookup":{"Dermatologist":0,"Gastroentrologist":1,"Hepatologist":2,"Medicine":3,"Endocrinologist":4,"Neurologist":5,"Colorectal":6,"Cardiologist":7,"Vascular_specalist":8,"Orthopedics":9,"Audiologist":10,"Urologist":11},"outputLookupLength":12,"options":{"inputSize":0,"outputSize":0,"binaryThresh":0.5},"trainOpts":{"activation":"sigmoid","iterations":20000,"errorThresh":0.01,"log":false,"logPeriod":5,"leakyReluAlpha":0.01,"learningRate":0.3,"momentum":0.1,"callbackPeriod":10,"timeout":"Infinity","beta1":0.9,"beta2":0.999,"epsilon":1e-8}}